% normalize=-1
% resample=no
% samplerate=44100
% version=0.64
% yaafedefinition=MFCC blockSize=512 stepSize=256 > Derivate DOrder=2
1.98010005e-01,1.03917790e-03,3.36551520e-02,-3.12010972e-02,-5.44871597e-03,-1.22595171e-02,-7.26410125e-03,9.82972717e-03,1.14590677e-02,-2.45909497e-03,8.79538745e-03,1.07023234e-02,-3.44866907e-05
1.68715548e-01,-2.10960170e-03,2.80697134e-02,-5.26948790e-02,4.48283919e-03,-7.86927233e-03,-1.00141890e-03,8.47103305e-03,-3.75040005e-04,-2.04058446e-02,1.40570788e-02,1.82078443e-02,5.24358857e-03
1.18647026e-01,7.38081255e-03,3.80320481e-02,-3.63316745e-02,9.06633871e-04,-2.06853846e-03,9.39278930e-03,1.06527601e-02,-7.73311363e-03,-2.24748237e-02,6.35501902e-03,1.60308554e-02,6.92641682e-03
4.35549115e-02,-1.81388193e-02,2.17556036e-02,-2.50552717e-02,-3.27507780e-03,-1.76645338e-02,3.44151502e-03,-7.43651299e-03,-1.81588007e-02,-1.64918464e-03,-2.73270375e-03,1.36636936e-02,1.29601062e-02
-1.88050429e-02,-2.48868988e-02,-8.66969695e-03,-3.52140187e-03,-3.03627039e-04,-9.21644341e-03,9.61762287e-03,-1.18486879e-02,-2.12618763e-02,7.55788755e-03,-1.21283587e-02,-2.86315590e-03,9.61671289e-03
-8.72960877e-02,-2.70620992e-02,-3.45160326e-02,2.50103566e-02,-7.67263873e-03,5.05666861e-03,4.05017046e-02,8.52308694e-03,-1.07378960e-02,7.51324431e-03,-1.36363822e-02,-2.82089613e-02,-1.07199989e-03
-1.36262239e-01,-2.85996856e-02,-4.76596817e-02,3.21669776e-02,4.93791924e-03,5.10937617e-03,2.05075001e-02,1.08459185e-02,4.98667404e-03,1.43974460e-02,-2.18227397e-02,-4.32450801e-02,-1.67757506e-02
-1.88154526e-01,-9.45687265e-03,-3.57782933e-02,5.86533773e-02,-5.39853778e-03,1.25486947e-02,-8.55535588e-03,-1.07924119e-02,-8.15867526e-03,1.12668205e-02,-5.08410788e-03,-1.41149182e-02,8.70162250e-04
-1.40436612e-01,-1.70891952e-03,-3.53315097e-02,5.88436124e-02,-1.60056891e-02,1.01582917e-03,-1.45122130e-02,-1.70943524e-02,-1.09388260e-02,8.69400469e-03,4.18523692e-03,-5.06838076e-03,1.60400653e-02
-3.52185716e-02,6.73865192e-04,-2.87461619e-02,1.07093019e-02,-6.73449903e-03,-1.14064835e-02,-1.11306943e-02,-3.70177804e-03,7.88889313e-03,5.76646572e-03,-3.07391411e-03,-1.41112813e-02,-5.88793558e-03
-1.74393623e-02,1.63957637e-02,-1.85096378e-02,-2.11344094e-02,9.91675097e-03,-6.20634489e-03,5.14811847e-03,6.61028304e-03,9.08834507e-03,-1.37854521e-02,-1.58702626e-03,2.97157827e-03,-1.09677375e-02
-8.24436176e-03,3.06580522e-02,5.54166852e-03,-1.43488503e-02,6.00856159e-03,-1.32334454e-02,1.82909761e-02,1.31775664e-02,2.76451733e-03,-1.91719864e-02,-4.12557118e-03,1.27438447e-02,-9.57573811e-03
-1.03669101e-02,1.57444020e-02,1.94452701e-02,-2.54330384e-02,-3.28474517e-03,-1.77833776e-02,4.07883226e-03,-1.04317378e-02,-2.89134187e-03,2.27011063e-03,-1.03603823e-02,2.37645851e-02,-1.09651006e-02
-2.15249954e-02,1.77449762e-02,9.33045892e-03,-3.84282196e-02,-3.76603491e-03,5.95982252e-03,-9.84440772e-03,-2.61569539e-03,7.35652830e-03,1.05356017e-02,-9.79525901e-03,1.54262452e-02,-1.46566887e-02
-2.86959151e-02,2.11965987e-02,1.08525700e-02,-1.65981238e-02,1.54199244e-02,3.36918185e-02,1.16674898e-02,6.43338295e-03,1.51066677e-02,-5.21611491e-03,-6.46078454e-03,-2.32483634e-02,-1.58611291e-02
-4.36591645e-02,2.89487484e-03,8.42510811e-03,-1.69889294e-02,1.84883348e-02,2.95835990e-02,-6.48290299e-03,-7.45870384e-03,1.37770473e-02,-1.14667473e-02,-7.61587805e-03,-1.82933568e-02,-3.10340015e-03
-2.48400818e-02,5.91011900e-03,2.57322806e-02,-1.06004645e-02,-2.24068983e-02,1.65725838e-02,-1.73378836e-02,2.14670277e-02,1.38015383e-02,-6.38683090e-03,7.97478007e-03,4.63634077e-03,2.08552611e-02
1.33237812e-02,-3.68723641e-03,1.45101975e-02,6.05689094e-03,-3.59280359e-02,4.92094815e-03,-7.62039993e-03,1.69757771e-02,-6.87075680e-03,-1.73842344e-02,1.44287764e-02,-2.61095432e-03,2.70793052e-02
6.61197433e-03,-2.91439762e-02,-2.12580336e-02,1.36089536e-02,-8.03237719e-03,2.34882213e-03,-9.63027649e-03,-1.41317447e-03,-1.37880679e-03,-9.32961201e-03,5.17639883e-03,7.08135545e-03,1.54704162e-02
1.07805989e-02,-9.47616722e-03,-1.55301871e-02,2.73329010e-02,1.49518875e-02,2.77836005e-03,8.63072791e-03,1.47365604e-02,6.70830352e-03,6.53568580e-04,4.47830200e-03,-1.82529184e-03,-3.28590544e-03
3.29052993e-02,-4.19564486e-03,-1.88506538e-02,3.12515148e-02,1.93010489e-02,-1.86461683e-02,8.22856080e-03,9.99054555e-03,-1.12502511e-02,-4.20478576e-03,-5.62685406e-03,-4.02013569e-03,-6.32716796e-03
4.32040254e-02,-1.12322291e-02,-1.45221999e-02,3.67556830e-02,1.05048387e-02,-2.36870175e-02,1.15938180e-02,-9.56472815e-03,-1.16818404e-02,1.99787939e-02,-2.18894831e-02,8.86753001e-03,-1.12439984e-02
3.44302337e-02,1.57807248e-02,-1.41213041e-03,1.84751411e-02,-2.23413090e-02,-1.82905675e-02,8.32387693e-03,-4.52871628e-03,-6.62298987e-03,2.97005959e-02,-1.47534267e-02,4.19600434e-03,-1.36342069e-02
1.87296004e-02,2.24295672e-02,3.91587332e-03,2.07353277e-04,-1.31641498e-02,-1.85250301e-02,-2.10553293e-03,-2.07015758e-02,-1.21831669e-02,-1.82768873e-04,-8.25934790e-03,-4.77324946e-03,1.03094275e-03
-1.84610804e-02,9.77942181e-03,1.12210166e-02,-1.52900790e-02,1.52441787e-02,5.15719016e-03,-7.51362692e-03,-1.98660976e-02,-6.03173983e-03,9.32754778e-03,2.11788049e-03,-2.72354030e-03,-2.33923709e-03
-2.19078268e-02,2.14685757e-02,1.95527490e-02,-4.10549984e-02,9.01806180e-03,1.56528944e-03,-2.31108990e-02,1.43220979e-02,-5.78189106e-04,1.73817001e-02,1.33340499e-02,6.98679942e-03,-1.29697197e-03
2.09220103e-02,2.69525460e-02,2.03593771e-02,-2.35143421e-02,3.93988738e-03,-7.58058515e-03,-2.46016220e-02,-1.60010957e-02,-1.75049684e-02,-1.76042545e-02,-2.71613710e-03,1.05462059e-04,2.20596466e-03
1.55803045e-02,-3.71305817e-02,3.72123299e-03,9.93475441e-03,2.24220694e-03,4.08419947e-03,-8.69778003e-03,-3.99010202e-02,-1.41929013e-03,-6.63028089e-03,-3.52328227e-03,-5.56939468e-03,-6.83133819e-04
-8.88186527e-02,-3.89975767e-02,-3.93070672e-02,4.60648828e-02,7.19724732e-03,-2.01260376e-03,-4.50912486e-03,-3.37179829e-02,1.43391726e-02,1.12695223e-02,1.77338004e-02,-4.25187772e-02,-2.06442766e-02
-1.38300929e-01,-1.53003139e-03,-4.89238044e-02,5.60483474e-02,2.13937413e-02,1.48169002e-02,-1.26018450e-02,-1.95535769e-02,1.62732625e-02,2.91511420e-03,1.39910931e-02,-3.06593570e-02,-1.19091612e-02
-7.96257581e-02,5.82244503e-03,-1.20076504e-02,6.59457888e-02,3.46615187e-02,4.35726051e-02,7.69325697e-05,1.76499897e-03,2.68030835e-02,1.32233902e-02,1.64757231e-02,-2.46837498e-03,-8.51308585e-03
-4.58247186e-02,3.70143041e-02,1.88988486e-02,5.29934784e-02,1.59976702e-03,1.09832261e-02,1.18645244e-02,3.63922446e-03,2.20539673e-02,7.88704982e-03,1.50622291e-02,-9.48640854e-03,-5.01863402e-04
-8.47547385e-03,2.33138043e-02,1.83828615e-03,-3.85955037e-03,-2.65254974e-02,-2.08788056e-02,9.44653490e-03,6.29005621e-03,2.84882634e-03,-2.90997803e-02,-9.81467996e-05,1.37455276e-02,1.79417861e-02
7.79523215e-03,1.50424886e-02,-1.14383023e-02,-3.87744926e-02,-1.88905225e-02,9.08564806e-05,1.56322196e-02,2.89502837e-02,-5.55216257e-03,-1.57018033e-02,1.22267702e-02,2.79180757e-02,6.96214654e-03
4.63904022e-02,4.64764729e-02,1.54381836e-02,-6.28218666e-02,-1.40285587e-02,-5.88736304e-03,3.76319982e-03,4.80481751e-02,-2.89852200e-02,-8.74645338e-03,1.36189876e-02,3.65476202e-02,4.33803765e-03
1.13997064e-01,4.16139408e-02,2.73121747e-02,-6.63763687e-02,-1.88803005e-02,-2.08034371e-02,6.72456089e-03,2.11185472e-02,-3.66897403e-02,-3.41337352e-02,-1.15244083e-02,4.42135750e-02,1.19029793e-02
1.72546230e-01,-9.86604847e-03,5.91901091e-02,-5.55229319e-02,-1.45301261e-02,-1.22945477e-02,5.29280357e-03,-5.73224975e-03,-1.22595641e-02,-6.44512866e-03,-1.22161100e-02,3.88253852e-02,1.29179827e-02
8.75966271e-02,-5.29844390e-02,1.85242206e-02,-3.76572141e-02,-8.77588632e-03,-8.00896948e-03,-2.41823532e-03,-1.98478260e-02,-9.22915251e-03,2.34270142e-02,6.63720223e-03,-2.01139852e-02,-1.36171318e-02
-6.44283976e-03,-5.24321435e-02,-3.58811927e-02,-2.83651703e-02,-4.28594182e-03,1.15174597e-02,2.56563176e-03,-1.22750547e-02,-1.02720668e-03,2.71427042e-02,-7.40931213e-03,-3.28283949e-02,1.54596272e-03
-5.25957554e-03,-3.36086582e-02,-6.78077918e-03,1.53684017e-02,1.19044279e-04,2.28159252e-02,-6.73782060e-03,1.96781476e-02,4.10651227e-03,1.40265618e-02,-1.91797343e-02,-1.96278039e-02,1.01516755e-02
-3.19495524e-02,-1.93404242e-02,1.80320478e-02,4.61545811e-02,-6.83924224e-03,-8.78984800e-03,-8.76158522e-03,2.92965635e-02,1.93764695e-02,5.21328281e-03,-1.27955572e-02,-3.05133255e-02,7.85235426e-03
-4.20561866e-02,-3.70364017e-02,3.05621885e-03,1.62696763e-02,2.00786231e-02,-3.34235195e-03,-1.26240120e-02,8.51034440e-03,1.41239334e-02,4.21026806e-03,8.01279183e-04,-5.19121504e-03,-4.03164491e-04
-4.07996757e-02,-2.83998968e-02,-2.92151612e-02,2.83783995e-03,2.08544841e-02,1.66086995e-02,-1.84283604e-02,-1.65680307e-03,7.22567900e-03,-3.37799585e-03,-2.91338775e-03,9.91189952e-03,5.65818914e-03
9.73588253e-03,3.89713614e-03,-3.11477952e-02,9.86353343e-03,-8.12044948e-03,1.05170319e-03,-1.64848940e-03,1.02295742e-02,4.99620394e-03,-1.75949246e-02,-8.40628080e-03,3.68523272e-03,8.03966364e-03
5.36297859e-02,1.16158736e-02,-1.64520708e-02,2.32360305e-02,-1.60084830e-02,-1.88540168e-02,9.59203795e-03,-1.19062965e-02,-6.99118455e-03,-3.31846857e-02,1.04749070e-02,-2.01668397e-03,-1.98698926e-02
4.54337595e-02,1.71448768e-02,2.38264603e-02,2.47113057e-02,1.07448483e-03,-8.83393612e-03,4.23196156e-03,-1.38745368e-02,1.70688928e-02,-7.46492286e-03,2.05742429e-02,2.53403394e-02,-2.13561968e-02
2.49868279e-02,-5.45896657e-04,2.31289599e-02,-1.88010236e-03,3.48033595e-03,8.87543525e-03,9.57396587e-03,-1.64519821e-02,1.24872266e-02,1.18774152e-02,2.57612605e-02,1.39400987e-02,-2.62260884e-02
3.20586628e-02,5.71441864e-03,-9.64200338e-03,-3.66544082e-02,1.54611908e-03,8.55282454e-03,4.85933925e-03,-3.00848681e-02,1.92569163e-03,8.13775826e-03,1.02708292e-02,-8.77691572e-03,-1.03130959e-02
-9.51539200e-03,-1.56202617e-03,-1.33175780e-02,-2.19818013e-02,6.30500992e-03,5.93793544e-03,-1.76325502e-03,-3.20479336e-03,-1.22816449e-02,-1.55833609e-02,-1.93900756e-02,1.87052643e-03,5.90623442e-03
-4.92109508e-02,-3.74653441e-03,-2.72739256e-03,3.59856101e-03,-4.47398992e-03,-1.46857930e-02,-1.49348840e-02,1.48025766e-04,-7.37109793e-03,-1.41178228e-02,-2.17741158e-02,4.71508743e-03,9.91985146e-03
-5.52074363e-02,1.06104358e-02,2.60957799e-03,-1.25288626e-02,-4.22319757e-03,-1.16876739e-02,-5.22758341e-05,7.57160329e-04,6.18036200e-03,3.39183224e-02,9.53959063e-03,1.99914435e-02,2.16244142e-02
-4.65548654e-02,2.17446066e-02,1.17694776e-03,-1.17096631e-02,8.97347305e-03,3.68216602e-03,2.46470304e-02,1.06500915e-02,-1.28405615e-02,3.23988503e-02,-4.37887617e-03,1.55910126e-02,2.89969701e-02
-2.14785545e-02,5.81593627e-04,-1.44711279e-02,-2.42769961e-03,1.87647175e-03,1.85519114e-02,2.83116171e-02,1.31272117e-02,-6.21630371e-03,1.33380735e-02,-2.01641521e-02,-1.29723545e-03,2.48222134e-02
4.40680516e-04,2.63554047e-03,-1.58495167e-02,1.20287726e-02,1.33218055e-02,2.80706291e-02,1.38242289e-02,1.55335324e-03,4.79022128e-04,8.29900911e-03,7.93027716e-03,-2.36592682e-02,1.17337950e-02
2.78494027e-02,2.03803325e-02,1.31751808e-02,1.28095236e-02,3.02901137e-02,1.85585011e-02,6.90661596e-03,5.02817171e-03,3.79943884e-03,8.86105340e-03,1.35141838e-02,-3.56008679e-02,-6.66273159e-04
2.97104377e-02,-2.30604229e-02,7.24441552e-03,-7.71258307e-03,1.91066483e-02,3.93481659e-03,-1.02414764e-02,1.53596256e-02,5.50436155e-03,1.62550713e-03,2.45728877e-02,1.71619191e-03,-1.08310196e-02
4.03750026e-02,-1.38697412e-02,1.77235065e-02,-1.77777452e-04,4.68576717e-03,-1.53522603e-02,-3.63196407e-02,4.28397838e-03,-1.78766586e-03,2.14918064e-04,2.05534488e-02,9.64403361e-03,-2.37963939e-02
1.39796841e-02,-2.18417745e-02,1.47234412e-02,1.03881673e-03,-5.83131248e-03,-4.19596524e-03,-1.09402254e-02,-2.61452755e-04,-8.77569095e-03,-1.90312662e-02,-1.03226365e-02,-1.41794337e-03,-2.03190331e-02
-3.38680886e-02,-3.46849092e-02,1.15369573e-03,2.12769023e-02,5.56810232e-03,5.60414240e-03,-3.78331485e-03,-1.77919866e-02,-2.06526944e-02,-3.24384520e-02,-1.26739605e-02,1.13731411e-02,-1.24634151e-02
-3.44448093e-02,-2.13947484e-03,6.98682097e-03,2.40285751e-02,1.17990228e-02,-1.71592829e-03,-6.23268527e-03,-8.65494032e-03,-1.11771007e-03,6.53299920e-03,1.79104173e-03,2.62393169e-02,-1.07432940e-02
1.02102626e-02,3.73184367e-02,1.65769121e-02,5.13746696e-03,-2.10251489e-04,-3.88571426e-02,-4.08633092e-03,3.75419651e-03,1.36148405e-03,1.00861939e-02,-8.63335745e-03,1.12774643e-02,-1.37646941e-02
-4.45135965e-02,2.61455774e-02,-2.15445161e-03,-1.18170660e-02,-3.96734680e-02,-2.73980452e-02,-5.59114774e-04,-9.42292011e-03,-1.41190678e-02,1.00086442e-03,-1.26383029e-02,-2.77397733e-02,-1.99403020e-02
-1.03263686e-01,4.23258497e-02,-2.32839482e-03,-1.07477173e-02,-3.41979912e-02,1.47184868e-02,1.86813072e-02,-7.84577543e-03,1.58627873e-03,8.56405787e-04,-1.09870656e-02,-4.30126228e-02,-6.99952339e-04
-2.89067900e-03,9.74056751e-02,3.30967854e-02,7.95217709e-03,1.05361495e-03,-2.94562063e-03,1.74291947e-02,-2.95132982e-03,1.86246902e-02,-5.91194210e-03,-2.44667684e-02,-4.65752676e-02,2.45102582e-02
6.13568941e-02,8.45643394e-02,1.67641598e-02,8.32568890e-03,2.46209414e-02,1.69048240e-02,3.96122605e-03,1.02805268e-02,1.75703103e-02,-1.70262963e-02,9.42727599e-04,-2.21499381e-03,2.25255790e-02
6.06553531e-03,3.92060928e-02,1.33108546e-02,1.57977422e-02,2.88649507e-02,2.55124567e-02,3.16056906e-03,2.16092073e-02,1.02497940e-02,-8.56443508e-03,1.68101328e-02,1.85603016e-02,1.52985043e-02
-2.88729248e-02,-6.40488463e-03,-4.54370958e-03,-1.00054543e-02,-1.83545635e-02,5.33326080e-03,6.30592130e-03,5.46093658e-03,2.40409654e-02,-2.28430595e-03,-1.38771793e-02,1.08095334e-03,7.22142741e-03
-2.60150916e-02,-3.32178431e-02,-3.08137461e-02,7.28164743e-03,-1.82696710e-02,1.37351704e-02,8.20601559e-03,6.12790141e-04,1.23746401e-02,-2.03842016e-02,-2.63368203e-02,2.68470252e-03,3.20373605e-03
-4.63728717e-03,-5.15700819e-02,-2.64871111e-02,3.29302215e-02,1.31977153e-02,1.64216201e-02,1.76956907e-02,-6.02546450e-03,-9.58125965e-03,-6.00358038e-03,-2.35680143e-02,2.25135886e-02,-6.24176332e-03
4.23038121e-02,-6.98307896e-02,-2.45284203e-02,-7.22931999e-04,1.70075354e-02,-2.10122215e-02,-3.02001817e-03,-3.13501486e-03,-2.75534563e-03,1.55332316e-03,-5.42396359e-03,2.71518058e-02,-5.95863367e-03
1.95966084e-02,-8.21368862e-02,-3.83876309e-02,-3.01396872e-02,-2.13487947e-02,-4.11372218e-02,-2.48833873e-02,5.86156674e-03,-9.72230117e-03,-1.24976663e-03,2.11886751e-02,5.11565623e-03,-2.36762886e-03
-1.00385786e-03,-6.95220745e-02,-2.14692268e-02,-3.99632057e-02,-3.87887584e-02,-2.80165882e-02,-2.03269746e-02,-6.07921327e-03,-1.55575838e-02,4.62777441e-04,2.28278385e-02,-2.25865129e-03,-9.48910815e-04
6.82564799e-02,-4.76153723e-02,3.50606103e-02,-4.78963789e-03,-1.68849751e-03,-1.26178614e-02,-1.56318854e-02,-4.57268009e-04,-1.51998614e-02,4.42299791e-03,7.98748776e-03,7.00147182e-03,2.24437319e-03
8.85065125e-02,-8.26378634e-03,3.23168986e-02,1.40469344e-02,1.57813141e-02,2.14763442e-02,-8.45941376e-04,1.96007472e-02,-7.67133865e-03,1.11136538e-03,2.24047846e-02,1.79948197e-02,1.19751640e-02
2.45282689e-02,4.18031207e-03,-1.12813408e-03,-6.19681750e-03,1.10123808e-02,2.23373122e-02,1.71414925e-02,1.07514267e-02,-1.40497261e-02,-1.64043360e-03,3.57224149e-02,1.15287867e-02,3.02997976e-02
-1.69539988e-02,-2.19327247e-02,-2.38987262e-02,-4.15145558e-02,-9.72978286e-03,1.05463734e-02,-2.81015433e-04,-2.41708371e-02,-1.02110445e-02,4.40494107e-03,4.04593397e-03,-8.04715785e-03,-1.06962826e-03
-3.24833277e-02,8.19023267e-03,-1.75636359e-02,-2.84980082e-02,1.18684587e-03,1.28572761e-02,-2.16783389e-02,-1.57188117e-02,1.80234906e-02,9.84341314e-04,-1.10463734e-02,-1.31625788e-02,-2.53116147e-02
-8.12002471e-03,4.71554574e-02,6.54825065e-04,1.88340597e-02,2.34857293e-02,2.15916720e-02,6.82714133e-03,-2.99016724e-04,1.96660777e-02,-3.56070189e-03,-2.74045699e-02,-1.02375278e-02,-1.77869855e-02
9.07272652e-03,3.69947722e-02,-1.26523801e-03,-1.87715469e-03,3.05407429e-03,1.79860551e-02,1.76936472e-02,7.64541256e-03,1.72612750e-02,-3.49690412e-03,-2.10179287e-02,-2.88964712e-03,-1.86344760e-02
3.95465526e-05,2.12929023e-02,7.67447086e-04,-6.30545013e-03,-2.61452687e-02,-1.56079334e-02,5.54967696e-03,1.27785337e-02,1.35979895e-02,1.10778428e-02,3.15246751e-03,1.25621196e-02,-1.18345642e-02
1.60250267e-02,3.04777406e-02,2.16249252e-02,1.29799651e-02,-1.20874244e-02,-2.77098791e-02,3.37345675e-03,-7.34777259e-03,-3.77346675e-03,1.78502261e-02,1.00624668e-02,1.35441742e-02,1.08953730e-02
3.11856940e-02,1.08225409e-02,4.59246374e-02,1.60079745e-02,-1.85161030e-03,-2.77834600e-02,9.62085569e-04,-2.43622888e-03,-2.18599877e-02,1.42255098e-02,-1.45561360e-03,-1.85666473e-03,-1.49853370e-03
-1.20793326e-03,-3.41445614e-02,1.32597547e-02,1.66718145e-02,-8.70829403e-03,-2.16322176e-02,3.88844933e-03,1.88359458e-02,-6.20823536e-03,2.69461234e-02,-4.08499078e-03,-7.25895430e-03,1.14282344e-02
-4.19375268e-02,-4.60895200e-02,-4.08188349e-02,-2.38677765e-03,-9.68219659e-04,-9.15757306e-03,1.05700997e-02,1.76638839e-02,6.02529207e-03,2.83763492e-02,2.17092186e-02,-5.80108628e-03,3.38771552e-02
-2.73068110e-02,-3.62479207e-02,-3.60563405e-02,-2.55201334e-02,-7.72717269e-05,-1.33714915e-02,-4.95728949e-03,-7.40789468e-03,1.40592309e-03,-3.01809511e-03,-1.24682696e-03,-1.98617798e-02,1.16906046e-02
-5.60085772e-03,2.37180998e-03,-2.14938691e-02,-2.76668627e-02,2.99445739e-03,-2.77609472e-02,-1.78351879e-02,-2.09790440e-02,-7.25125820e-03,-1.03934288e-02,-1.58012965e-02,-1.20170795e-02,-4.25498725e-04
-1.28351023e-02,9.67718485e-03,-9.45622684e-03,-5.59506249e-03,2.07258635e-02,-1.03334987e-02,-4.05162562e-03,-8.29313575e-03,-8.89375270e-03,-9.22777103e-03,-2.93940344e-03,-1.91738906e-02,-1.25669283e-02
-1.56927497e-02,1.03552123e-02,2.84488812e-02,-1.16154562e-02,-7.66593540e-03,1.73963347e-02,-7.75532894e-03,1.82509363e-02,4.69625962e-03,-2.35036068e-02,-4.37158408e-03,-7.23400258e-03,5.13839723e-03
-2.88405317e-03,4.73284833e-02,4.67114002e-02,-1.72923527e-02,-2.68302028e-02,3.74043427e-02,-2.37662853e-04,6.64641366e-03,-3.97852316e-03,-1.16569203e-02,1.51432477e-02,2.06972366e-02,7.03134539e-03
1.67193759e-03,5.24243105e-02,5.24185663e-02,2.36280097e-02,7.79550741e-03,3.36831382e-02,2.67483751e-05,-2.65622124e-02,-8.60358686e-03,9.83214590e-03,2.36009416e-02,8.43809970e-03,-1.00847993e-03
6.92394719e-05,2.96249383e-02,3.95633034e-02,4.03143506e-02,1.04075497e-02,1.16622546e-02,-8.40678881e-03,-2.74390533e-02,9.69435764e-03,3.53829053e-03,1.01801764e-02,-5.02224185e-03,5.85338591e-03
-3.73300009e-03,4.93570908e-03,-8.82294973e-03,2.70980059e-02,-4.38975586e-03,2.22460397e-02,-1.27587011e-03,-4.64886582e-02,6.43268874e-04,1.25278472e-02,-2.47812765e-03,-3.10425003e-03,-2.50864120e-03
-2.93705610e-02,-5.13381315e-02,-5.86228629e-02,1.22165164e-02,3.38107356e-03,9.89654855e-03,-2.22787465e-04,-2.47357652e-02,-3.41401255e-03,2.40639525e-02,2.91552366e-03,2.81245902e-03,-2.02030438e-02
-6.75217713e-03,-7.22684335e-02,-4.90146134e-02,1.08354279e-02,2.38301620e-02,-1.62493088e-03,2.85548558e-03,1.67311087e-02,1.14070876e-02,-6.95150608e-03,2.89150620e-03,1.02784970e-02,-2.04247214e-02
4.62702358e-02,-3.79389366e-02,-3.40411341e-02,2.73732286e-02,3.59639068e-02,7.46561819e-03,7.81342134e-03,5.70505533e-03,6.38108697e-04,-5.26905081e-03,-2.01149337e-02,7.81512618e-03,-1.91344209e-03
1.89096708e-02,-4.19065410e-02,-4.64451554e-02,1.99888113e-02,3.06810685e-02,-4.79071512e-03,7.82093359e-03,-1.74493645e-02,-1.26164295e-02,1.46510565e-02,-1.53392189e-02,-8.84886491e-03,-6.74589252e-03
-1.38080933e-02,-4.49379650e-02,-1.63825519e-02,-1.15752470e-02,4.09176205e-03,-1.59519468e-02,-4.16577328e-03,4.80436604e-03,-4.77824939e-03,5.25869391e-03,-2.09393944e-02,-6.44597270e-03,9.94638943e-03
-1.03583921e-02,9.86732032e-03,2.46811091e-04,-5.28213911e-02,-1.39213010e-02,1.70297443e-03,-8.99294331e-03,2.08196430e-02,4.60091089e-03,6.58879446e-03,-4.72956083e-03,9.14001434e-03,8.00959254e-03
1.86829371e-03,4.02751633e-02,1.34944754e-02,-4.21926793e-02,-3.19330556e-03,1.06393432e-02,-4.79912562e-03,1.28697654e-02,1.75740492e-02,1.68000783e-02,9.83881905e-03,-4.78098952e-03,6.69526964e-03
1.07951568e-02,3.19499427e-02,1.64644913e-02,2.74291515e-04,1.41476660e-02,-2.26651763e-03,8.39899558e-04,2.15839674e-02,2.51415158e-02,4.53039655e-03,6.75356470e-03,-1.36015222e-02,2.21073206e-02
-5.90248523e-03,5.46442991e-02,4.72830815e-03,2.01337957e-02,7.43274202e-03,6.73995925e-03,5.44770934e-03,4.70479140e-03,1.25132192e-02,-1.47426528e-02,1.01162352e-02,-5.82931082e-03,1.76307296e-03
-2.56870500e-02,4.37016506e-02,4.34158838e-03,1.00779306e-02,-1.90926618e-02,-2.27441367e-02,-6.44291911e-03,4.67279643e-03,2.94099926e-03,-2.46763110e-02,-2.49808139e-03,1.80352414e-03,-1.52786935e-02
-2.11446064e-03,5.13425556e-03,6.90256028e-03,1.03394440e-04,-3.23824734e-02,-2.25897614e-02,-1.11372775e-02,1.91146105e-02,-9.14374975e-03,-2.20609100e-02,1.37496310e-02,1.72219953e-02,-1.65656971e-02
2.58443575e-02,-1.32456471e-02,1.87205168e-02,1.30372380e-02,-2.36775379e-02,5.67794028e-03,1.68307899e-03,1.75954138e-02,-2.50298253e-02,-1.51772044e-02,1.70438559e-02,2.87532858e-03,-8.73925640e-03
2.41205862e-02,-4.70653690e-03,1.53969878e-02,2.90137664e-02,-9.18335065e-03,-1.29950180e-02,1.19492286e-02,-1.98783272e-03,-2.93192653e-02,-2.37881196e-02,-5.51186392e-03,-3.25427207e-03,-3.93756754e-03
1.46449291e-02,-5.47885549e-03,1.79784034e-02,1.74654219e-02,4.36967613e-03,-1.38233953e-02,-3.46934440e-03,-1.23672074e-02,-1.81128881e-02,-2.45696344e-02,-1.45488121e-02,1.05388265e-02,-1.53851122e-04
-1.31376053e-02,-7.60377001e-03,1.59271827e-02,-1.68672643e-02,3.97316430e-04,1.16917493e-02,-1.96654011e-02,-8.83964076e-03,7.89617264e-03,-1.48528493e-02,7.60352371e-04,1.42101195e-02,-4.11284202e-03
-2.21806097e-02,7.80066353e-03,1.18556301e-02,-2.02164411e-02,-4.93288891e-03,2.32592823e-02,1.06304478e-02,-2.00968946e-02,2.13913800e-02,3.35947166e-03,5.75602242e-03,3.11606351e-03,3.73616303e-03
-3.72476056e-02,-5.41320376e-03,-1.46312021e-02,-3.46538728e-02,-9.20973868e-03,-1.52548715e-02,8.45981834e-03,-1.55955020e-02,6.20688196e-05,1.46658555e-02,6.82242827e-03,7.23419252e-04,4.39980230e-03
-4.09492385e-02,9.81515138e-03,-2.55447391e-02,-1.60492792e-02,1.24660803e-02,-1.96526272e-02,-5.67369111e-03,1.16412467e-02,-1.35928936e-02,2.53342559e-03,2.01418771e-03,-1.31094200e-02,-5.59039905e-03
-7.32068765e-03,2.82809745e-02,1.63187843e-03,2.76342790e-02,2.78958948e-02,-4.39043179e-03,1.40527512e-02,1.96108080e-02,4.10367453e-04,5.16173566e-03,-2.62374844e-02,-6.34774733e-03,2.18113274e-03
-2.77109083e-03,1.83009291e-02,9.48879252e-03,1.56832479e-02,2.93107662e-03,-4.53085917e-03,1.11456035e-02,1.22874230e-02,1.27120440e-02,2.30126217e-02,-1.74663839e-02,1.36051575e-02,5.97870736e-03
-8.66153756e-03,-1.98625072e-03,1.21619934e-03,-4.01602793e-03,-5.60111107e-03,2.42838643e-03,1.20413409e-02,2.11482984e-02,3.12113008e-03,2.80931476e-02,7.00388571e-03,-9.59091755e-03,-3.47055578e-03
5.45745611e-04,-1.04230370e-02,-1.81650822e-02,-1.75997940e-03,-1.43377277e-02,-7.73041896e-03,-2.17956587e-04,3.17763972e-03,4.23607599e-03,-5.92097708e-03,-1.06817266e-02,-8.16077441e-03,-1.80861939e-02
2.65855792e-02,-6.24680180e-03,-3.50695124e-03,7.77977071e-03,-1.36681356e-02,-6.96562227e-03,-1.33522936e-02,-1.59372814e-02,1.34427295e-02,-1.15559761e-02,-2.50420224e-02,1.58182268e-02,-7.81563697e-03
3.83874008e-02,3.67346492e-03,2.34441277e-02,1.09110760e-02,1.73233630e-03,1.26631047e-02,-8.29701900e-03,-6.82076766e-03,2.59947924e-02,-3.82653019e-03,4.97323882e-03,2.21282525e-02,1.57447273e-02
2.57358872e-02,-4.55028786e-03,2.02479772e-02,7.01071725e-03,-2.12608752e-02,1.48749021e-03,-7.24264875e-03,-1.32320897e-02,1.41995104e-02,-1.16074482e-02,2.15392303e-02,4.93359764e-03,6.13768234e-03
-2.04010844e-02,-4.32539335e-02,-3.66612841e-03,-2.52678950e-02,-4.11161225e-02,-1.91674174e-02,-5.78712862e-03,-1.99955920e-02,2.97325261e-03,6.73294219e-03,2.64249540e-02,3.72862260e-03,-1.59015198e-03
-2.28748842e-02,-1.82188276e-02,-8.40945182e-03,-3.78203905e-02,-3.33945134e-03,2.34704112e-03,-7.28426587e-03,1.67403234e-03,-1.09843118e-04,1.41809710e-02,2.18096010e-02,-9.86171009e-03,2.34762155e-02
2.32145806e-02,2.94749784e-02,7.27277365e-03,-6.30881673e-04,1.63031698e-02,2.42585587e-02,-2.48376485e-03,1.30200912e-02,-2.64735479e-02,7.28955781e-03,-8.29473827e-03,-1.81445977e-02,1.91290973e-02
1.70250164e-02,3.02289221e-02,6.09636234e-03,1.06264417e-02,7.14110115e-03,1.21242778e-02,4.69418346e-03,7.35891826e-03,-3.02114752e-02,1.55378432e-02,-5.80926445e-03,-3.71958185e-03,1.77454021e-02
-7.79367665e-02,5.47198983e-02,-6.35817563e-03,7.71607489e-03,2.04815893e-02,-1.57810549e-03,2.38387225e-02,3.65766784e-02,-2.45092211e-02,-5.39289370e-04,2.30278930e-03,-2.59488077e-02,-8.15168052e-03
-1.05503047e-01,9.50990604e-02,-2.92006275e-03,3.65390283e-02,1.06725140e-02,-2.74243858e-03,7.99690501e-03,2.16908969e-02,-1.91522763e-03,-3.51104033e-02,-6.65227649e-03,-2.78722765e-02,-3.34011284e-02
-1.42564323e-03,1.05287347e-01,1.30265645e-02,5.96095272e-02,2.13900184e-02,2.43645347e-02,5.96859571e-03,-1.14527159e-02,2.41648871e-02,-1.55844610e-02,-1.71478919e-02,-6.13035977e-03,-2.56861525e-02
2.58795031e-02,9.73620180e-02,1.66912328e-02,5.69803247e-02,4.12892552e-02,3.30581979e-02,2.52540167e-02,-4.43565980e-03,3.44377514e-02,-7.39623057e-03,-4.95524804e-03,3.97619787e-03,-1.25862498e-02
-2.40702854e-02,4.20894164e-02,4.23225416e-03,2.50817179e-02,6.51563163e-04,5.88910308e-03,-1.50490294e-02,-8.37651013e-03,8.96749814e-03,-2.45806481e-02,7.59908185e-04,2.45762742e-03,-6.38882057e-04
-4.95921361e-02,-3.40349989e-02,-2.15130126e-02,-1.76735553e-02,-2.06605385e-02,-2.36191296e-02,-1.06510132e-02,-1.30353926e-02,-1.37790854e-02,8.84012900e-04,1.17429252e-02,1.65766957e-03,-3.25997818e-03
-7.02082973e-03,-6.35192315e-02,-2.03706294e-02,-3.10766429e-02,-4.58552620e-03,-1.97791199e-02,1.00561099e-02,-9.88394641e-03,8.77297873e-04,1.53791675e-02,2.81712857e-02,1.58585992e-02,3.66965682e-03
6.37278709e-02,-6.29919078e-02,4.31724686e-03,-3.25909178e-02,1.57661387e-03,1.15606676e-02,-1.88604817e-02,-1.22218182e-02,-1.11922987e-02,-2.43699585e-03,-2.90368889e-03,2.19355065e-02,-2.09752144e-03
9.16089841e-02,-1.18595474e-01,-1.29293789e-02,-5.02392097e-02,-1.01173110e-02,1.47907258e-02,-1.94500001e-02,1.37438394e-03,-2.18961789e-02,2.00691916e-02,4.74860791e-03,2.42633512e-02,2.84316627e-02
2.03990052e-02,-1.30431350e-01,-1.72622575e-02,-5.98715291e-02,-7.98366623e-03,-4.29938440e-03,-6.19921676e-03,2.64082080e-02,-2.26925073e-02,2.06226334e-02,7.51049855e-04,1.68046912e-03,2.39548722e-02
2.19204853e-03,-6.70578799e-02,2.37061266e-03,-3.29128277e-02,-4.76687437e-03,-2.49783100e-02,-5.94612655e-03,6.98083061e-03,9.12370156e-04,7.22789770e-03,-1.35361554e-02,3.33173051e-03,-4.12341072e-03
7.90633769e-02,-2.90426735e-02,4.49003944e-03,-4.52780532e-03,9.83054078e-03,-5.89035810e-03,4.99744065e-03,-2.46095996e-02,1.97766662e-02,1.46396334e-02,-1.34270034e-02,2.21005393e-02,1.32152866e-03
8.55147893e-02,-1.45955431e-02,2.27146395e-02,2.50725339e-02,1.88488312e-02,-2.97936545e-03,1.36984276e-02,-2.82363981e-02,1.01319187e-02,-7.62726038e-03,-2.36719586e-02,5.40648472e-03,2.42033568e-03
2.28717894e-02,-2.71819645e-02,1.23940379e-02,2.06283753e-02,4.04558381e-03,4.45828751e-03,5.70822223e-03,-1.65018191e-02,6.50788854e-03,-2.15063615e-02,-3.46238785e-02,-6.03621840e-03,8.91934058e-03
-4.14903933e-02,-4.06428762e-02,-2.08069347e-02,-7.28595202e-03,-1.52100154e-02,-1.46654931e-02,9.40331702e-03,-5.53456795e-03,-1.59055089e-02,1.13524821e-02,-7.03208054e-03,-4.53016301e-03,1.00131661e-02
-2.64637225e-02,9.13265730e-03,3.95923105e-04,2.07719587e-02,-1.73445653e-02,-2.49486798e-02,-4.55512735e-03,-1.20107072e-02,-2.02588168e-02,-3.22789475e-03,4.38587019e-02,7.44848092e-03,-1.37549569e-02
1.01839655e-02,6.39667918e-02,3.39956061e-02,3.25748127e-02,3.99875247e-03,7.62729489e-03,-2.86258423e-02,-1.29946612e-02,-5.11150186e-03,-2.74917919e-02,1.78047510e-02,7.80212611e-03,-2.29705593e-02
-1.46326270e-04,3.99164092e-02,5.42020999e-03,5.32083477e-03,-3.06387034e-04,7.11144995e-03,-5.86947114e-03,2.03404632e-02,-6.95480219e-03,1.48920297e-03,1.31467423e-02,-1.27587899e-02,-8.93065800e-03
1.30531868e-02,1.47115936e-02,-1.96662194e-03,1.32443272e-02,-8.41956537e-03,1.45094975e-02,1.32302748e-02,4.61129455e-02,-1.66209220e-02,6.74918311e-03,1.29207346e-02,-2.20149659e-02,-1.23903464e-02
1.80701543e-02,2.81943291e-02,5.70383777e-03,3.15596009e-03,-7.77873408e-03,2.45565002e-02,1.47886840e-02,2.38440431e-02,6.06704686e-05,4.65958827e-03,-1.07060662e-03,-1.62161700e-02,-5.54950628e-03
-8.22068908e-03,3.87859878e-02,-4.77093271e-03,-3.42293195e-02,-1.16102742e-02,2.32332714e-02,7.66833448e-03,-1.23249809e-02,1.22387642e-02,3.38275124e-03,-1.92388045e-03,-8.14061368e-03,1.80122798e-02
-1.03645468e-02,2.52491373e-02,-4.01853991e-03,-2.42222730e-02,-1.25078970e-02,-2.40687069e-03,3.42483205e-03,-1.36475561e-02,1.54304885e-02,-1.00897095e-02,-1.50161305e-02,-4.98039171e-03,1.10462905e-02
-2.28116544e-02,-9.86721917e-04,-2.23559838e-02,-3.69155486e-03,7.20328141e-03,-1.97381950e-03,1.32502287e-02,5.23187953e-03,2.09406421e-02,-1.22512356e-02,-2.57294712e-02,-2.14971335e-02,-9.91113918e-03
-5.45345266e-02,-3.24891633e-02,-3.99709223e-02,-1.45820927e-02,1.12706976e-02,-9.11679958e-03,1.14382266e-02,3.30357561e-04,-2.17636700e-03,1.28913860e-02,-6.17224486e-03,7.37138158e-03,2.15934813e-03
-4.57088522e-02,-1.45270258e-02,-1.88456381e-02,-1.96368653e-03,-2.37801544e-03,-3.56426436e-02,-1.30059492e-02,-6.56566540e-03,-3.70761903e-03,4.46722363e-03,1.81974298e-02,3.43229574e-02,1.04157216e-02
-1.57154493e-02,1.92005193e-02,1.79534473e-02,9.73023998e-03,9.72126073e-03,-3.18123383e-02,-3.59792504e-02,-3.34699145e-03,1.17418584e-02,-5.36293144e-03,9.63285466e-03,1.61994974e-02,1.14147190e-02
-6.61295588e-03,1.38995849e-02,2.24386590e-02,4.43922840e-03,2.22665144e-02,-1.04572432e-02,-7.56802183e-03,-9.87813035e-04,3.67394365e-03,1.29823040e-02,7.17591357e-03,1.14891523e-04,1.70161772e-03
9.51283107e-03,-1.43857386e-02,-1.45178519e-03,1.83625227e-02,1.41315898e-02,-5.23237865e-03,1.52798997e-02,1.29210165e-02,9.72239571e-03,1.04846443e-02,4.98740144e-03,7.03333454e-03,-1.04611754e-02
1.36658990e-02,3.07522939e-04,2.13697997e-02,1.81095205e-02,1.20314871e-02,-7.86708715e-05,-8.02372627e-03,1.07811375e-02,5.71152896e-03,-8.06359959e-03,-4.91366647e-03,-3.46556374e-03,5.37771744e-03
7.52909791e-03,2.08336440e-02,4.52110369e-02,-8.09768818e-03,3.61904166e-04,1.71565126e-02,-6.49163424e-03,-3.89397520e-03,-9.42533680e-03,-6.39812372e-03,-1.39070078e-02,-1.95809406e-02,1.86154502e-02
-8.16485384e-02,5.49267124e-03,2.48254016e-03,-2.62627491e-02,-2.73645977e-02,4.96443985e-03,1.19791079e-02,6.98598821e-03,-2.87839229e-02,-1.88006165e-02,6.44524769e-03,-1.20580940e-02,-8.34498055e-03
-1.44694609e-01,8.91696213e-03,-2.40592197e-02,1.78075503e-03,-2.66627871e-02,2.05820966e-02,-4.15171606e-03,1.30372074e-02,-1.54656556e-02,-3.98628244e-03,2.32876836e-02,-3.56858332e-02,-3.65778761e-02
-1.02857174e-01,2.23283235e-02,-3.16670722e-02,1.08102401e-02,-2.08310109e-02,2.32988399e-02,-4.90519137e-03,-9.38329751e-03,1.23168101e-02,2.52685500e-02,1.14376313e-02,-5.82611056e-03,-9.35987810e-03
-5.43825481e-02,3.84859001e-02,-3.17262727e-02,3.88032976e-03,-1.70093829e-02,-2.59552191e-02,-2.08641629e-03,-4.18259976e-03,3.29796797e-03,-8.62051554e-04,-1.08441213e-02,2.43698975e-02,3.63537088e-03
2.51064223e-03,2.41792746e-02,-1.33626589e-02,8.40996611e-03,-1.96710896e-02,-3.13156844e-02,-1.32268426e-02,-1.69306876e-02,-1.08311456e-02,-6.92934524e-03,-3.46777574e-03,5.07784939e-03,3.37779403e-03
5.55799802e-02,-4.54961094e-03,-2.65120126e-03,3.09661030e-03,-2.48739639e-02,-7.38097078e-03,1.25287664e-02,-3.74766265e-02,-2.26787501e-02,-1.11704301e-02,-2.48292791e-03,-8.97164616e-04,7.09948125e-03
9.42014917e-02,-1.63996132e-02,1.15239588e-02,9.69951838e-03,-7.56126971e-03,8.05356239e-03,2.54917017e-02,-4.00875072e-03,1.11252669e-02,-8.17290429e-03,-1.85631818e-02,1.82010509e-03,1.24278421e-04
1.33527326e-01,-2.35407781e-02,2.42685335e-02,2.07401443e-02,2.14797243e-02,3.44026339e-03,-1.26315561e-02,2.22015540e-02,4.02382445e-02,-2.10135237e-03,-1.22577555e-02,-3.51312707e-03,-4.63488599e-03
1.71924809e-01,-3.39721497e-02,3.69677788e-02,2.05347029e-02,3.58126714e-02,-2.97431451e-03,-8.13645241e-03,1.49892891e-02,2.80574794e-02,1.09741828e-02,-2.35280200e-02,-6.07482251e-03,4.28317491e-03
8.03846407e-02,-3.46815580e-02,3.00082267e-02,-1.90588998e-02,1.56609256e-02,-8.54575802e-03,2.15925988e-02,2.15301560e-02,-8.80875594e-03,1.70920150e-02,-8.92855777e-03,-2.87434565e-03,4.49214878e-03
-2.57470425e-02,-6.01624385e-02,-5.65412580e-03,-4.04492278e-02,1.10452979e-03,3.26245572e-04,-5.78983746e-03,2.89627104e-02,-1.19000958e-02,1.11228742e-02,1.39475988e-02,-1.22782048e-02,-1.56303862e-02
-1.90396573e-02,-3.65302942e-02,-2.88129431e-02,-2.49390461e-02,-5.99867017e-04,2.57230139e-02,-5.82378535e-04,1.51696680e-02,3.15113172e-02,2.34136929e-02,3.42198258e-03,7.25243884e-03,1.52580112e-02
-9.14773428e-03,1.68616385e-02,-1.33625578e-02,-3.71787765e-03,1.30313564e-02,3.05847806e-03,8.60248258e-03,1.51629297e-02,2.31133487e-02,1.46560819e-02,3.23658180e-03,2.25287520e-02,2.59591723e-03
-3.21455170e-02,1.48051506e-02,-1.38833816e-02,-8.39609261e-03,8.25142802e-03,1.20503177e-03,4.29648411e-03,-2.19930605e-02,-4.06126396e-03,-1.08301883e-02,7.81172677e-03,1.68233251e-02,-1.53378251e-02
-2.10790753e-02,2.77063135e-02,-8.32337886e-03,-1.27683272e-02,-1.27559750e-02,1.63652802e-02,2.77167844e-02,-4.91123469e-02,-2.84494272e-02,-2.62548476e-02,6.12600565e-03,2.29145799e-03,4.14498852e-03
3.12636926e-03,4.27395889e-02,1.38402106e-02,1.32643065e-02,6.52587173e-03,3.94011946e-02,8.93665801e-03,-2.74514084e-02,-3.28998063e-02,-1.60741302e-02,7.03401879e-03,3.69571259e-03,-5.04700125e-03
-7.64107072e-04,1.39704206e-02,-1.99099041e-04,1.47288714e-02,2.05762353e-02,2.69391091e-02,-2.29718529e-02,-8.02395390e-04,-1.01896079e-02,-9.98029476e-03,1.89951070e-02,1.31484721e-02,-1.09325377e-02
4.88247147e-03,-1.59966804e-02,-2.09990767e-03,2.62183110e-02,3.35355486e-03,-1.90539555e-03,-2.02955941e-02,9.25195240e-03,2.93418082e-03,8.06253673e-03,2.05892016e-02,-5.59390592e-03,3.89159963e-03
7.05635461e-03,7.31538149e-03,2.94851052e-02,2.50515929e-02,-1.02532942e-02,-1.15977543e-02,-8.48232878e-03,-2.76995706e-03,1.58369304e-03,2.90910487e-02,1.13978672e-02,-7.38265073e-03,2.42509967e-02
1.43317160e-02,-4.64206104e-03,1.72328311e-02,1.03430098e-02,1.68492096e-03,-2.18028158e-02,-9.13295791e-03,1.10202136e-02,-1.06699638e-02,-5.31835905e-03,-4.45942082e-04,1.07126450e-02,4.80256989e-03
3.92935630e-02,-2.77342754e-02,-1.58944470e-02,9.17739654e-03,4.03385368e-03,-1.90591097e-02,3.66873418e-03,1.69573224e-02,-4.66016730e-03,-2.59020711e-02,-1.63153316e-02,9.61350598e-04,-1.91712670e-03
2.01808666e-02,-3.06913322e-02,-7.29239562e-03,2.19756991e-02,-5.53772238e-03,-3.62530155e-02,9.61373558e-03,6.98817594e-03,1.77565351e-02,5.55132555e-04,-1.25718540e-03,-2.63916626e-03,-1.21628958e-02
-1.82769429e-02,-1.47789497e-02,-1.15064361e-02,-5.37910474e-03,-3.31885362e-04,-2.61417329e-02,9.75362450e-03,5.88079661e-05,3.97152284e-02,-2.30427416e-03,8.65186274e-04,-5.61125887e-03,-1.71007036e-02
-1.36383616e-02,2.72687650e-02,3.60030907e-04,-2.45089447e-02,-1.80412700e-03,3.91094985e-03,2.52870611e-02,-2.61471335e-03,1.70170685e-02,-1.54892489e-02,8.69697902e-04,-9.71504958e-03,6.93899869e-03
-8.70723176e-03,8.04104425e-03,-2.33131815e-02,1.39148151e-02,9.16895831e-03,3.05777239e-02,6.72706949e-03,-2.06685094e-02,-1.64718665e-02,-7.17654337e-03,-6.80064886e-04,-7.51770728e-04,7.28313935e-03
-3.84094904e-02,-1.23805881e-02,-4.99533124e-02,-1.19930979e-02,2.20392299e-02,3.58096984e-02,-1.43539385e-02,-2.21028494e-02,-1.71441548e-02,1.84147994e-02,-5.63528749e-03,1.56453125e-03,2.21533897e-02
-4.90251678e-02,-1.30647626e-02,-5.81299874e-03,-2.86143474e-02,-8.52944231e-03,1.36324468e-02,-1.41132786e-02,8.73755470e-03,3.15686751e-03,4.72107682e-02,9.67558734e-03,-1.45238606e-03,3.43812017e-02
-1.55834027e-02,-8.18427717e-04,2.45741952e-02,-1.24304964e-02,-2.98358256e-02,-1.43815940e-02,-2.18257675e-02,5.48991889e-03,-3.06743707e-03,2.91205702e-02,8.79227231e-03,3.49186898e-03,2.14782834e-02
2.47005863e-02,2.41996653e-02,2.33589123e-02,-2.28045008e-02,-8.22854110e-03,7.09069150e-03,-4.94048924e-03,1.03155191e-02,-2.77704815e-02,1.48607358e-03,-9.67109855e-04,2.90320867e-02,8.13714567e-03
3.97187563e-02,9.39475762e-03,1.72330512e-02,-9.92824029e-03,8.35736667e-03,9.63926486e-03,1.66741662e-02,1.86095368e-02,-3.73293418e-02,2.43962118e-03,-4.14613818e-03,4.36047936e-03,-1.83200343e-02
1.45691416e-02,-4.07155243e-03,1.62672950e-02,1.34547123e-02,-9.19378465e-03,-3.43015796e-02,1.18911365e-02,1.21581560e-02,-2.54927372e-02,-4.03407161e-03,-2.03300913e-02,-2.21497332e-02,-3.67367451e-02
1.26828734e-02,2.89287843e-02,3.89099225e-03,-2.87163501e-03,-5.93637435e-03,-2.05277960e-02,1.33331202e-02,1.60387254e-03,1.58983437e-02,-1.49527881e-02,-1.87735528e-02,-2.12169050e-02,-2.59061502e-02
-1.33384823e-02,3.78295297e-02,-1.28968928e-03,-9.52581481e-03,1.84612897e-02,8.09560463e-03,6.59286392e-03,-1.17668170e-02,3.66097219e-02,-6.18309603e-03,1.80463078e-02,-6.90165062e-03,1.11253950e-03
-6.49042717e-02,1.33210300e-02,-2.06627591e-02,1.22172087e-02,2.65193968e-02,1.27924285e-03,4.15459515e-03,-1.56786814e-02,2.38226834e-02,-2.39111803e-02,-1.63997229e-02,-1.09559798e-02,-1.67011851e-03
-4.29753718e-02,2.00669400e-02,-4.21698122e-02,2.71800711e-02,3.49049806e-02,3.26323900e-02,3.61269290e-02,1.07662188e-02,3.11671349e-02,-2.12125639e-02,-4.91944623e-02,-1.76845509e-02,-7.99427531e-03
5.76231252e-03,4.08398550e-02,2.20173653e-03,5.68060443e-02,1.93831433e-02,3.08685582e-02,2.07074175e-02,1.84998761e-02,3.10695283e-02,-1.18561142e-02,-1.56268679e-02,-6.92746349e-04,7.37940321e-03
-2.25759947e-02,3.53383212e-02,3.30476706e-02,5.38248162e-02,5.72590290e-03,-5.64860336e-03,-3.03905028e-02,6.50246538e-04,1.61103676e-02,-1.54430778e-02,1.54466339e-02,9.23317578e-03,-7.64330965e-03
-5.65907386e-02,1.35704623e-03,1.83428107e-02,-2.03059822e-02,-5.29831485e-03,1.40543977e-02,-3.09223582e-02,-1.32471520e-02,6.05730614e-03,6.66176221e-03,2.32277980e-02,2.60829724e-02,-8.31463814e-03
-1.64874045e-02,-8.22765970e-03,2.20067247e-02,-3.38225910e-02,-1.78075259e-02,6.48875322e-03,-3.03181255e-02,-1.77542626e-02,-3.38354637e-02,7.41241655e-03,2.06927301e-02,8.71386128e-03,-4.08666432e-03
2.24214241e-02,-7.63153140e-04,2.72542377e-02,-1.92939968e-02,-2.29650991e-02,-3.02277989e-02,-4.70958203e-02,1.02251312e-02,-4.44212068e-02,1.17413089e-02,1.57720213e-03,-2.40887439e-02,-9.35559703e-03
6.30562809e-02,-2.18709479e-02,-7.20697569e-05,-3.67650201e-02,-3.01617690e-02,-2.21213267e-02,-3.14967956e-02,-3.58645399e-03,-3.38873365e-02,2.30021819e-03,-6.67559901e-03,-7.44308738e-03,9.26234569e-03
4.63086667e-02,-5.93914167e-02,-8.46006346e-04,-2.75421328e-02,-2.38915397e-02,4.83560592e-03,-1.37231010e-02,-2.86889724e-02,-1.68805554e-02,9.23820223e-03,3.74705274e-02,1.77840912e-02,1.15311246e-02
-3.43667386e-03,-6.72450706e-02,9.77477565e-03,-3.23870826e-02,-1.16199104e-02,-2.13131041e-02,-1.26113136e-02,-1.43470677e-02,-8.12550497e-03,2.28460236e-02,2.96735067e-02,4.49756946e-03,5.58343807e-03
3.71998006e-02,-4.02968923e-02,-3.42538266e-02,-2.76290726e-02,-5.08419536e-03,-1.49929116e-02,3.53980865e-02,2.21612252e-02,8.62644230e-03,6.96143173e-03,-1.51492992e-02,3.43155431e-03,1.27118676e-02
8.83367213e-02,-2.06639966e-02,-4.36469359e-02,1.35682406e-02,-5.51238267e-03,4.42560996e-03,4.66066168e-02,2.10882337e-02,2.40855959e-02,-2.18209318e-02,-1.70905718e-02,8.91136073e-03,1.39410805e-02
4.68180055e-02,-1.63102917e-02,-6.41299491e-03,4.24356202e-02,1.52519904e-02,-2.12460808e-03,1.68534569e-02,-1.47857075e-03,2.65911088e-02,-8.56359137e-03,8.15860052e-03,7.21811535e-03,-7.05203241e-03
-7.29899819e-03,-2.56368048e-02,-1.94195304e-02,1.10970422e-02,2.59865187e-02,1.16102564e-02,1.69253283e-02,-1.15858552e-02,3.39525900e-02,1.09545733e-03,6.80033600e-03,7.02535601e-03,-8.98799933e-03
-2.13192234e-02,-4.43511176e-03,-1.90899609e-02,-1.47496362e-02,-2.34715396e-03,-1.01691467e-03,6.99150318e-03,-1.53904687e-02,-1.26198320e-03,-1.75291575e-02,-4.42905219e-03,-3.10924236e-03,3.94954495e-05
-2.31027296e-02,4.05597611e-02,3.74851585e-03,4.08910824e-03,-2.17723471e-03,-2.70816481e-02,-6.42771235e-03,2.15096925e-02,-1.89959766e-02,1.66261143e-02,-8.44074853e-03,-3.96266166e-02,-4.82950821e-03
-1.56449223e-02,1.78271440e-02,-5.35851838e-03,-1.68193923e-03,1.33603471e-02,-6.91484362e-03,-6.77907132e-03,1.27877495e-02,-2.05598382e-02,1.40843680e-02,-4.30696173e-02,-2.05971573e-02,-1.44093870e-03
-1.66434900e-02,-4.92352078e-03,1.32066538e-02,-2.47461011e-04,2.02839013e-03,3.95638609e-02,1.14778259e-02,-7.04544420e-03,-1.14076439e-02,-1.42783642e-02,-3.04627820e-02,2.02462256e-02,-1.39142029e-02
-2.33810308e-02,5.62268928e-03,3.69167806e-02,1.40435318e-02,-9.28517191e-03,1.55292694e-02,-7.53753236e-03,-5.51718626e-03,-1.94301011e-03,4.53505529e-03,1.36253555e-02,1.27728613e-02,-1.09475897e-03
-1.51359743e-02,1.56137497e-02,2.42856554e-02,-1.05153068e-02,-1.86224253e-02,-7.17196913e-03,-2.78802489e-02,-7.77688998e-03,-1.76373906e-02,6.92905758e-03,1.36537837e-03,3.08566399e-04,3.13916275e-02
-2.68713648e-02,4.69101643e-03,-7.54400376e-03,-2.77516238e-02,-1.62362039e-02,1.60701836e-02,-1.49352661e-02,-8.40361836e-03,-9.57595145e-04,5.17116758e-03,-8.80409121e-03,4.54558743e-04,3.13513146e-02
-1.17275023e-02,-9.78333221e-03,-5.17333282e-03,-7.67036730e-03,-1.43883812e-03,1.64674128e-02,-2.07332822e-02,-2.36861335e-02,2.80555527e-02,9.10305463e-03,1.02169277e-02,1.21317161e-03,4.64781964e-05
2.43534145e-02,8.24786882e-03,8.52493452e-03,1.01091242e-02,8.88541806e-03,8.74659167e-03,7.12403387e-03,-1.50313493e-02,1.55417587e-02,-2.51464324e-02,1.03195793e-02,1.47425596e-02,-8.47930044e-03
1.45140211e-02,2.92585971e-03,-4.94219816e-04,6.30040857e-03,-8.08135345e-04,-1.16430158e-02,2.19306615e-02,5.68748445e-04,6.65537801e-03,-3.64804632e-02,2.13876593e-03,2.30525982e-02,2.80051342e-03
-1.09427636e-03,4.19127538e-03,-1.02749107e-03,1.98184557e-02,3.11507723e-03,-4.61981675e-02,-2.79199345e-03,3.33814692e-02,2.91222627e-03,-1.43416869e-03,2.57386836e-03,-2.12300377e-02,-1.73115459e-02
-1.95354408e-02,-6.75094217e-03,-2.38020480e-03,6.78098010e-03,1.96391120e-02,-1.73197159e-02,5.92431539e-03,3.93920743e-02,-1.03998193e-02,1.85628483e-02,-6.63231687e-04,-1.26697543e-02,-2.81431817e-02
-4.07552777e-02,-3.01067108e-02,-2.69199131e-02,8.61666791e-03,1.12032176e-02,2.12559044e-02,6.90604415e-03,-4.64852490e-03,-1.89876939e-02,4.18995630e-04,5.41617813e-03,1.64585716e-02,-3.68326084e-03
-8.48597448e-02,-1.41465983e-02,-3.59929813e-02,4.51173415e-02,1.25281500e-02,-1.95959251e-02,-1.11052250e-02,1.78465258e-03,4.15303530e-03,-2.56290585e-02,-1.97017146e-03,-1.85974852e-02,1.74069157e-02
-1.02766232e-01,-3.76722546e-03,5.56492127e-04,3.81234908e-02,3.62766201e-02,-8.82234431e-03,-3.30819168e-03,1.32354218e-02,-5.67260256e-03,-3.18530979e-02,-2.52170458e-02,-3.67169102e-02,1.16999305e-04
-1.07301878e-01,1.33789043e-02,5.56336839e-03,-9.58694172e-03,7.48580998e-03,3.09406838e-03,7.70230016e-03,1.46304068e-02,-1.33622014e-02,-3.23217958e-03,-1.94749396e-02,-1.50981511e-02,9.20829708e-03
-5.80754338e-02,4.36029264e-02,8.34200271e-03,-1.46501456e-02,-4.32527743e-03,-3.43807642e-03,-2.29290515e-03,3.55493842e-03,2.81271809e-02,3.00859620e-02,8.45162743e-03,-1.31709835e-02,1.03328379e-02
2.03987096e-02,5.91631672e-02,2.96478404e-02,5.60833129e-03,1.10805175e-02,2.23831129e-02,3.42008929e-02,-4.24809330e-03,-2.56131264e-03,1.92886361e-02,1.57197853e-02,-2.01665866e-03,3.52337337e-03
5.29316282e-02,2.34693702e-02,7.50080294e-03,-8.85027628e-03,-1.44689841e-02,8.02999220e-03,3.48903963e-02,-5.62895136e-03,-1.90697548e-02,-2.42990552e-03,-1.59336670e-02,5.16944217e-03,-3.42453581e-03
8.27635207e-02,1.67868121e-02,1.68252935e-02,-1.57129388e-02,-2.53996600e-02,-1.92437620e-02,-1.52186990e-02,-8.86868132e-03,6.63654015e-03,2.08722870e-02,-1.08543177e-02,-3.94127538e-03,-3.15025924e-02
7.85719355e-02,2.49470973e-02,3.57238156e-02,-4.81385462e-02,-4.07164630e-02,-4.00813030e-03,-5.45881749e-03,-2.00019988e-03,-2.30485429e-03,2.87292347e-02,2.09526561e-02,2.62137174e-02,-1.34971548e-02
7.60087155e-02,-1.40518776e-02,-2.05380505e-02,-2.48014238e-02,-2.33993609e-02,2.29463846e-02,3.97714841e-04,-2.95402632e-02,-1.76113707e-02,3.41061407e-03,2.01445396e-02,3.36418796e-02,8.41233121e-03
7.30743286e-02,-4.70090796e-03,-3.86585097e-02,2.16382845e-02,2.39048089e-02,1.93074637e-02,-1.07881362e-02,-2.32722581e-02,3.37849853e-03,-1.63513909e-02,4.46685906e-03,-5.55221079e-03,1.36099239e-02
3.22389029e-02,-1.33197272e-02,-8.22781534e-03,3.64023241e-02,4.95307916e-02,5.07537371e-02,5.23379487e-03,2.28569935e-03,1.86866856e-02,-2.12522589e-02,-2.75096239e-03,-1.20526983e-02,-6.04646879e-03
-7.89164251e-03,-2.45352943e-02,8.06183252e-03,2.94860809e-02,2.04111479e-02,3.05552964e-02,5.11112068e-03,1.75030175e-02,9.49487545e-03,-2.92994620e-02,-4.36499025e-03,2.95350415e-02,-1.12096483e-03
-1.76294451e-02,9.72198760e-03,2.59369711e-04,-5.63177215e-03,-4.93006688e-03,-3.22895182e-02,-1.48702527e-02,2.81590756e-02,2.32971277e-02,1.20339083e-02,1.87852697e-02,3.44163403e-02,9.88778331e-03
-1.39196841e-02,2.00271610e-02,-6.56832517e-03,-1.29777217e-02,-6.63796041e-03,-2.12949815e-02,5.04729108e-03,1.15737725e-02,1.41612532e-02,3.23214861e-02,2.00680980e-02,4.22649095e-03,1.34267264e-02
3.99498715e-03,-1.10958486e-02,7.54737020e-03,-7.94235063e-06,-2.34919499e-02,-3.82313140e-03,5.23277963e-03,-4.56185047e-03,5.31881206e-03,6.56437999e-03,-1.12328693e-02,-2.38313810e-02,1.02641009e-02
1.12568920e-02,-1.36810440e-02,2.55240770e-02,-6.62642282e-03,-1.51738078e-02,-1.78679851e-04,-2.25806932e-02,-6.77324744e-03,1.20946133e-02,4.63458457e-02,5.43924546e-03,-2.84270189e-02,-2.75573460e-03
-2.40719350e-02,-7.42756368e-03,3.12941888e-02,-4.98815698e-02,-2.59564288e-02,-1.39913675e-02,-2.34917105e-02,-1.60195053e-02,-9.31609540e-03,2.23015299e-02,7.26329779e-03,-1.83407448e-03,1.15100155e-02
-2.11895851e-02,-4.88450299e-02,-1.41087977e-02,-4.10406336e-02,-2.14643714e-02,-2.45478797e-02,3.26186644e-03,-1.08941157e-02,-1.75419180e-02,-2.25395789e-02,-1.36416000e-02,1.13209737e-02,-3.12476248e-04
2.48196052e-03,-4.25098158e-02,-4.82435385e-02,-1.29178080e-02,3.39449359e-02,1.78904508e-02,3.38872051e-02,-1.14046035e-02,-1.68140780e-02,-1.22261932e-02,-2.24977275e-02,-2.42798957e-03,-1.99395414e-02
4.13035665e-03,1.93302765e-03,-2.37756006e-02,8.09738647e-03,2.53984917e-02,4.30249149e-02,1.11891464e-02,-1.69775386e-02,-9.05395430e-03,-1.09887026e-03,-1.74798285e-02,-1.31777913e-02,-8.96810820e-03
3.28488154e-02,7.79241184e-03,-1.09054698e-03,3.18780831e-02,6.27489381e-04,1.34129908e-02,-1.14285422e-02,1.37948163e-04,-1.24428754e-02,-1.76213289e-02,2.70532061e-03,2.12053962e-02,1.41907028e-02
3.91432458e-02,-3.00826264e-03,-2.06179765e-02,2.60335594e-02,1.25404595e-03,-2.08691076e-02,-4.40697414e-03,5.88437571e-03,-1.13868428e-02,-1.62050539e-02,8.11743293e-03,2.52124535e-02,1.75218591e-02
-7.53137199e-03,-1.26617297e-02,-3.30837735e-02,-3.05214591e-03,-3.31655230e-02,-2.68208862e-02,-8.30984552e-04,5.43915108e-03,4.65162317e-03,1.38414054e-02,1.02416359e-02,7.18857232e-03,1.44218278e-02
5.60465720e-04,-2.56001568e-03,7.13353413e-03,7.37895766e-03,-3.40699433e-02,-2.43347667e-02,-7.51836595e-03,8.46324284e-03,1.24957724e-02,-6.12134430e-03,1.56511115e-02,-5.70695084e-03,3.56169036e-03
1.79555785e-02,2.76373183e-02,4.09288257e-02,3.83490630e-02,1.10644810e-03,-1.36043573e-02,-2.41643174e-02,-7.17985913e-03,2.30612205e-03,-7.12838632e-03,1.60312575e-02,-1.35362894e-02,-9.19711025e-03
-1.79971873e-03,4.22653505e-02,4.18068194e-02,1.98722666e-02,1.64972621e-02,-1.93213652e-02,-3.58620298e-02,-7.32063241e-03,1.53381816e-02,-9.88989161e-03,4.45746204e-03,-2.14032403e-02,-2.64721932e-02
5.87968044e-03,4.38399543e-03,3.33592340e-02,-1.24696364e-02,8.29198543e-03,-1.38982439e-02,-1.22266030e-02,3.30786952e-03,1.80178521e-02,-1.08074157e-02,-4.29588602e-03,-2.38098598e-02,-2.26722909e-02
-1.92800976e-02,-3.51536910e-02,7.98268747e-03,-2.51735784e-02,2.89145410e-02,3.05039914e-02,4.01969115e-02,1.43600483e-02,1.72204324e-02,1.76837861e-02,-1.14331267e-02,1.10650395e-03,-1.90615468e-02
-2.15200953e-02,-1.04631717e-02,1.18577245e-02,-3.96752728e-03,1.79578823e-02,3.17663939e-02,3.19237701e-02,1.90334123e-02,9.63907748e-03,1.66714769e-02,-1.44370662e-02,-3.30776071e-03,-2.14485833e-02
2.61993196e-02,1.53790720e-02,1.45324839e-02,-7.84455341e-03,-1.65745592e-02,2.97599108e-03,-1.61242315e-03,8.11745565e-03,-2.28575726e-02,9.54348789e-03,-2.21895987e-04,-1.64371974e-03,-1.23084404e-03
3.64280066e-02,4.05750986e-03,2.26569423e-03,1.06745785e-02,-4.86949237e-03,-5.47531145e-04,5.19510438e-03,-3.97079425e-03,-2.17068692e-02,7.49530548e-04,4.90368404e-03,5.70494467e-03,1.99816317e-02
1.29100173e-02,-1.34676335e-02,3.10475022e-03,1.11105244e-02,-9.03845681e-03,1.80800393e-02,1.88923079e-02,-5.90754990e-03,-2.29807924e-02,-6.69085146e-03,-2.82906085e-04,-1.49119671e-03,3.49622364e-02
6.77204469e-03,-2.19807934e-02,-1.78127877e-02,-3.45247187e-02,-9.57808781e-03,1.07723532e-02,-1.33546850e-03,1.12427220e-02,-1.52157467e-02,-1.07775807e-02,8.06893959e-03,3.09439114e-03,1.58627704e-02
-3.82867892e-03,-2.79698362e-02,-2.77445609e-02,-2.15673934e-02,-1.40319230e-02,-2.06179807e-02,-3.11456368e-02,-1.54536566e-02,-8.57387688e-03,-1.21403486e-02,1.57669338e-02,3.10236463e-02,2.55774113e-03
-1.08905803e-02,8.51722611e-04,-1.87461916e-02,1.89670767e-03,-1.84214035e-02,-2.83077477e-02,-2.72845136e-02,-2.26791142e-02,5.04594304e-04,-2.13371732e-02,1.10018735e-02,1.49880378e-02,-1.06895868e-02
8.75537660e-03,1.94314760e-02,-1.82390761e-02,-1.27663098e-02,1.26805222e-02,-1.64365825e-03,-1.60560031e-02,-1.03523064e-02,1.50970035e-02,-1.05333487e-02,-5.71237369e-03,-3.37305807e-02,-1.82886925e-02
-2.67802056e-04,-2.00708046e-03,-1.24416045e-02,-2.44622490e-02,2.19037410e-02,1.07853902e-02,1.12936122e-02,7.32605287e-03,4.06203038e-02,2.25735423e-02,3.19179381e-03,-8.58952270e-03,-7.31695809e-04
6.07530132e-03,3.87527441e-03,3.32035863e-03,-2.91827959e-03,1.12468154e-02,-7.65287525e-03,2.98783924e-02,2.65502934e-02,2.07815975e-02,8.79827123e-03,6.64875241e-03,7.18977363e-03,-1.51041277e-03
1.66173509e-02,5.17172514e-03,1.08688138e-02,5.04803144e-03,-2.53677435e-03,-2.32007396e-02,1.39917560e-02,1.19293978e-02,-2.34571127e-02,-1.49119941e-04,-2.18735117e-02,-1.29707342e-02,-3.23664125e-03
-9.90891433e-03,6.70319187e-03,1.94110866e-02,1.31681470e-02,-3.42223269e-03,-5.36292964e-03,9.41382678e-03,2.30244758e-02,-2.43714628e-02,1.04047215e-02,-2.84275579e-02,-1.14492566e-03,1.23387172e-02
4.20250950e-03,1.12282820e-02,2.68933362e-02,2.66235041e-02,8.75459410e-03,6.54141220e-03,1.95797510e-02,2.25023453e-02,-2.88718185e-02,-1.54435673e-02,-2.13503813e-02,6.34983714e-03,9.86026519e-03
-1.53128251e-02,-1.09725361e-02,8.11253846e-03,1.61485807e-02,4.06448936e-03,-7.12364692e-03,3.72843412e-04,2.15363792e-02,-1.44687318e-02,-1.13336580e-02,-4.52119689e-03,-3.70361381e-03,3.17053650e-03
-3.48378870e-02,-2.24564588e-02,1.25136931e-02,8.53937900e-03,-1.66326221e-02,-1.62620546e-02,-1.64142937e-02,-2.66468209e-03,4.63851052e-03,1.25167462e-02,6.94897319e-03,2.37085461e-02,-4.66549089e-03
-3.72809032e-02,4.94832383e-04,4.15266033e-02,1.53824119e-02,-2.30650845e-02,-1.06727251e-02,1.05971663e-02,-2.16902145e-02,6.18361717e-03,3.24144941e-03,7.93439166e-03,4.53330621e-02,-1.26230576e-02
-3.22258652e-02,9.16985196e-03,1.02494080e-02,2.12641392e-03,9.07928455e-03,2.00301787e-02,5.20281521e-03,-2.70182562e-02,2.78243856e-03,4.18814519e-03,4.90278285e-03,2.35873126e-03,-1.92330283e-02
1.01794287e-03,-8.11179800e-03,-3.09644788e-02,-6.32019073e-03,1.89758386e-02,4.11586726e-02,-6.88785305e-03,-4.41027584e-02,1.98535205e-02,4.50407116e-03,1.61930691e-02,-1.53373390e-02,-1.44302250e-02
7.85932634e-03,7.45627204e-03,-3.44993726e-02,-8.90630525e-03,5.19595370e-03,7.08229525e-03,-1.00829292e-03,-2.50155826e-02,2.00511381e-02,-1.19933460e-02,1.83399949e-02,-5.72829162e-03,8.79666276e-04
1.87292341e-02,5.04857902e-03,-3.07550251e-02,-1.76272124e-02,1.35967819e-02,-2.76593059e-03,-5.92364278e-03,-9.40744447e-03,2.07457968e-03,-8.88964512e-03,-1.30148379e-03,-1.79258718e-02,2.23389126e-03
1.34729754e-03,1.38149227e-02,-1.32388933e-02,-9.92236884e-03,9.72399949e-03,2.18515608e-02,2.15381446e-03,2.91660128e-03,6.78633708e-04,-4.31213183e-03,-2.87006018e-02,-1.80373069e-02,1.27906442e-02
5.23976981e-03,2.13665706e-02,-1.48849692e-02,-1.27144447e-02,-5.11479106e-03,-1.03707511e-02,-6.79987135e-03,1.85084531e-02,-1.25005137e-02,-1.03327834e-03,-2.40644194e-02,-1.35425962e-02,-1.42565002e-03
-1.67825215e-02,4.61863724e-03,-1.17685270e-02,9.91593423e-03,-9.64377765e-03,-3.07820303e-02,-2.66566126e-02,3.72027401e-02,3.37453142e-03,2.14243805e-02,-2.30780070e-03,-3.30610586e-02,6.70534254e-03
-2.35960626e-02,2.49352415e-02,1.21889401e-02,2.45998779e-02,-7.28735249e-03,-2.07925798e-02,-2.39024873e-02,1.40237914e-02,-8.34999644e-03,1.03664668e-02,7.56325350e-03,-1.92544151e-02,5.70260196e-03
-1.75690294e-02,3.76082999e-02,5.59223766e-02,1.66865147e-02,1.03539475e-03,-3.21170122e-02,1.20970210e-03,1.41395866e-03,-1.46737409e-02,1.81434375e-03,1.74651533e-02,1.73307973e-02,5.62897474e-03
-2.52439675e-02,2.77403824e-02,4.09759775e-02,-1.67462914e-03,1.08401004e-02,-2.50083750e-02,-2.90405311e-03,6.05996974e-03,-4.05791557e-03,1.07865215e-02,1.17144371e-02,1.46012178e-02,1.58791626e-02
-1.29925031e-04,1.82149674e-02,-1.90191390e-02,-1.30501453e-02,1.05647786e-02,1.85064370e-02,-1.10636802e-02,-2.08210552e-02,-2.32584340e-03,-6.32199703e-04,-4.90040083e-03,-2.62648517e-03,-1.89991599e-03
-2.49412223e-03,8.22354515e-03,-2.58423237e-02,-1.94006522e-02,-1.44781555e-02,3.00068540e-02,1.34193329e-02,-7.76980812e-03,1.93722892e-02,-6.96445176e-03,-2.90928424e-03,2.55945975e-04,-5.04765095e-03
1.89498264e-02,-1.65289507e-02,-2.81216558e-02,-1.63902224e-02,-1.50927086e-02,3.53674765e-02,2.08307097e-02,-1.33059150e-02,4.09471962e-03,-1.88875371e-02,-7.22330906e-03,2.25558613e-02,-4.47255692e-03
2.52353428e-02,-4.07355613e-02,-2.44488177e-02,4.93728893e-03,6.58472756e-03,5.85600010e-02,3.66518864e-02,-1.98710541e-02,7.75230377e-03,-1.01988847e-02,-1.89960650e-02,2.72645952e-02,-3.75632909e-03
-9.28809315e-04,-4.59894465e-02,-2.57776673e-02,-8.14295852e-03,-2.33404866e-04,3.62211777e-02,3.97678285e-02,7.10587324e-04,-4.99578762e-03,9.27511068e-03,1.11436239e-02,1.83806409e-03,-3.47328946e-02
-2.39267552e-02,-2.48135171e-02,-1.72976962e-02,-4.57591583e-04,-1.62904682e-02,-1.47898760e-02,7.47344478e-03,1.98138929e-02,-4.47022292e-03,2.13051425e-02,8.14368643e-03,-2.20884389e-02,-3.29268823e-02
-3.78236610e-02,-8.83566679e-03,-1.70595105e-02,3.40749311e-02,-1.42764026e-02,-3.42799185e-02,-3.40096263e-03,1.75409625e-02,5.60437077e-03,7.01756698e-03,7.85671167e-04,-1.04857406e-02,-1.26274391e-02
-4.23832484e-02,-7.55937345e-03,-2.36549058e-02,3.29863906e-02,-2.52376850e-03,-3.89820258e-02,-1.23371675e-02,-5.09089509e-03,-3.01466016e-02,-1.85260070e-02,1.98337351e-02,6.33429626e-03,7.18414012e-03
-7.96195931e-03,2.53939207e-02,-2.17931055e-02,1.44590071e-02,4.06077273e-03,-3.28036353e-02,-3.48555311e-02,-5.47682184e-03,-1.59150100e-02,-6.08059829e-03,2.09803874e-02,2.09216365e-02,3.88483277e-02
1.55796346e-03,2.61568870e-02,-2.50644664e-02,-8.50376711e-03,1.00988813e-03,8.71203081e-04,-3.97479485e-02,1.71253875e-03,9.79618861e-03,6.83787106e-03,2.41894096e-02,3.72568811e-02,2.50381606e-02
-2.11670444e-02,-1.91088035e-02,7.19417725e-03,-1.57233970e-02,-5.31816243e-03,1.92919659e-02,-6.29100252e-03,2.06251046e-02,2.25702935e-02,3.93517038e-03,2.51923240e-02,1.62945346e-02,1.25217474e-02
2.18539583e-02,-2.96280562e-02,4.17399426e-02,2.60011110e-02,-9.40745779e-03,-1.67074663e-02,-1.44134687e-02,1.19581196e-02,1.29694764e-02,-3.06036082e-02,-1.17567899e-02,8.33482954e-03,9.81071406e-03
4.37704702e-02,-1.58068202e-02,6.14354197e-02,4.52585263e-02,5.64800553e-03,-6.15989564e-03,-1.79827799e-02,4.37168596e-03,-1.01959833e-03,-3.02772689e-02,-1.96284776e-02,1.47304273e-02,9.65218951e-03
1.58754862e-02,1.68399275e-02,7.02092016e-02,7.45869486e-03,2.64944064e-02,4.06058438e-02,2.83059081e-02,-5.31281414e-03,-3.93258919e-03,4.73242936e-03,1.28064058e-02,-1.65270649e-02,-7.79441984e-03
-2.79232258e-02,4.04877597e-02,7.30967311e-02,-2.69825741e-02,2.05969443e-02,1.88349322e-02,3.70085202e-02,1.31658074e-03,5.35625050e-03,1.53769343e-02,1.61169580e-02,-2.31541091e-02,-1.86672255e-02
-1.97759839e-02,3.06652680e-02,6.19810367e-02,-3.02142453e-02,1.36735648e-02,3.12370281e-03,2.66025850e-02,1.33176951e-02,1.78813700e-02,-5.92583630e-03,-2.08086175e-02,-1.65267527e-02,-8.82372488e-03
-5.23044268e-03,1.27006401e-02,-1.13757126e-03,-3.90081797e-02,3.53859656e-03,-7.76231702e-03,1.17357130e-02,-2.73690705e-03,-1.55903322e-02,-1.23713755e-02,-3.74861236e-02,-6.48502380e-03,-1.23426141e-02
2.61783918e-03,2.95813694e-02,-5.08106647e-02,-4.05005359e-02,1.71799033e-03,-6.93884588e-03,-1.16385616e-02,-1.55916204e-02,-2.90409388e-02,1.01965052e-03,-3.41846169e-02,8.09000407e-03,1.98653076e-02
2.33908216e-02,2.39312685e-02,-5.62517620e-02,-3.33806647e-02,-6.11973090e-03,3.55317056e-02,-1.81074677e-02,-2.28933258e-02,3.55618028e-04,4.83545460e-03,-3.01816895e-03,2.95396025e-02,2.75709589e-02
6.56749824e-03,-4.75131825e-02,-6.85480837e-02,-2.58917171e-02,3.40054350e-04,5.00909249e-02,2.21792397e-03,2.20136273e-03,1.53234678e-02,1.61763035e-02,1.35695459e-02,2.49986922e-02,9.59206225e-03
4.62841757e-02,-6.59630745e-02,-6.61604687e-02,6.27160571e-03,8.09178922e-03,-1.47030997e-02,-1.01150216e-02,1.04994971e-02,-8.43716088e-03,4.81617514e-03,-2.87532302e-02,-5.42167062e-03,1.25372612e-04
5.84831574e-02,-4.05388811e-02,-4.36396316e-02,2.98799726e-02,3.70081947e-03,-3.67041646e-02,-1.70090768e-02,6.70173809e-03,-2.31010169e-02,-6.09460746e-03,-2.84065557e-02,-7.47051009e-03,-1.78401567e-02
6.79812060e-03,-2.44671124e-02,-1.91097811e-02,2.98898312e-02,6.01333659e-03,-1.74218372e-02,5.92457384e-03,-2.22483003e-03,1.90405731e-04,7.97071410e-03,-1.65727891e-02,-3.39955517e-02,-1.62973424e-02
-2.88736736e-02,2.29751977e-02,1.57796116e-02,1.52468848e-02,-4.19869194e-03,-7.34611552e-03,2.78259070e-02,-7.62710594e-04,2.72159181e-02,2.45013555e-02,1.45506371e-02,-3.90094898e-02,-3.27682150e-03
-1.58889591e-02,4.31034958e-02,4.04910879e-02,-5.80821732e-03,-6.07411625e-03,5.96441017e-03,1.30730146e-02,-6.76918091e-03,2.94771401e-02,1.77409560e-02,2.67842621e-02,-2.06419017e-02,-5.09106241e-03
-6.49005274e-03,2.14332510e-02,3.21398065e-02,-1.16808148e-02,-1.76148022e-02,-5.13346621e-03,-3.08029144e-03,-1.13742386e-02,-1.16525919e-02,-3.00450415e-05,6.11054070e-03,-3.87480202e-03,-1.94582653e-02
-3.89250140e-02,9.46542121e-03,1.21683398e-02,7.73160691e-03,-1.66136348e-03,-4.74347572e-03,-6.54637216e-04,-7.90257983e-03,-2.05053301e-02,-5.98539184e-03,9.29325276e-03,-1.05474698e-02,-7.89460352e-03
-5.01959434e-02,1.33687337e-02,3.63654791e-02,2.62515013e-02,-4.89136105e-03,6.20879464e-03,-2.38936032e-02,-2.60578944e-02,1.30899734e-02,-1.05688591e-03,4.38049741e-02,1.50890841e-02,1.52024236e-02
-2.91812650e-02,2.58562809e-03,3.45006562e-02,1.93975803e-02,-1.87800977e-02,4.62318443e-03,-2.65038393e-02,-1.04285431e-02,2.42608482e-02,5.06754476e-03,4.07405480e-02,3.49026346e-02,1.35204273e-02
1.29825987e-02,-1.55662712e-02,-2.13606715e-02,9.03582800e-03,-1.93553989e-02,-2.81246023e-02,-2.88401232e-02,4.84713433e-04,1.11088086e-02,1.31993115e-02,2.10144377e-02,1.90071989e-02,2.92107398e-02
2.23150232e-02,-2.06310716e-02,-3.15243227e-02,4.11110453e-03,4.11758369e-03,-1.65824264e-02,4.30419343e-03,1.09330793e-02,4.75439707e-03,6.73284786e-03,-3.37816698e-03,1.37849955e-02,1.30727201e-02
5.33744042e-03,-3.85887717e-02,-1.88650188e-02,-1.20718079e-02,1.54980142e-02,5.86381198e-03,3.04263865e-02,1.12417785e-02,1.55626841e-02,-1.94084056e-02,-4.36764643e-02,-4.08471131e-03,-2.39214454e-02
1.88127797e-02,-1.48350615e-02,-2.61317265e-02,-2.09114021e-02,-1.49637618e-03,1.05487976e-02,2.37590107e-02,6.15442756e-03,1.33902094e-02,-2.73646721e-02,-2.74346124e-02,-1.89347979e-02,2.68633960e-03
5.28762934e-02,2.60678556e-02,-5.71628802e-03,-2.96214155e-02,4.32239676e-03,1.40117061e-02,2.09039332e-02,7.16197945e-03,1.16932717e-02,-8.05512725e-03,-1.13880987e-02,-3.33515625e-02,7.38135666e-03
3.80164692e-02,3.53785949e-02,1.89720361e-02,-2.96347807e-02,-1.04942674e-02,6.36292618e-03,-1.08782745e-02,-1.27145156e-02,-2.05883538e-02,-2.32059062e-02,-1.35218468e-02,-2.23323980e-02,-9.58367966e-03
1.85126314e-02,2.53438279e-02,2.88389475e-04,-4.81222479e-03,9.95365331e-03,5.65654150e-03,-4.20744108e-04,4.30723804e-03,-1.94076851e-02,-2.57590136e-02,6.67056802e-03,-1.38372849e-02,-7.40812449e-03
7.27942666e-03,2.69744670e-02,2.52332569e-02,1.28599813e-02,1.60132547e-02,-6.50054060e-03,4.25988868e-04,1.47267545e-02,-1.06583180e-02,4.53623898e-03,2.51942429e-02,-1.36579036e-03,-1.21762921e-02
3.25803404e-03,2.41611037e-02,4.85536269e-02,1.71055040e-02,-1.89591260e-02,-3.54380834e-02,-2.51701801e-02,-6.06725945e-03,-4.21560538e-02,1.41691801e-02,1.43557982e-02,9.75096864e-03,-1.28612330e-03
-4.35225135e-04,5.73003778e-03,2.24883840e-02,3.54636198e-02,-2.90793392e-02,-5.06838138e-02,-2.54527837e-02,3.74487466e-03,-6.52868114e-03,2.63560965e-02,1.35944259e-02,2.22155255e-02,2.62211727e-02
-2.44438005e-02,-1.45769853e-02,6.79836011e-03,3.22997471e-02,-3.77085523e-03,-1.75781660e-02,-9.27111102e-03,2.06921003e-02,2.76432834e-02,3.83199036e-02,-5.57211006e-03,2.15973972e-02,1.29288626e-02
-3.44940139e-02,-2.62154369e-02,-1.55861992e-02,2.32924496e-02,1.92624367e-02,7.96145612e-03,1.57600067e-02,3.41481907e-03,2.06531907e-02,2.42927046e-02,-3.91476562e-02,9.10718964e-03,-1.11192920e-02
-3.77713277e-02,-2.38139571e-02,-3.29288119e-02,2.96450483e-02,1.44643391e-02,2.42192655e-02,3.30683645e-02,-3.68436448e-03,-2.54841955e-03,-4.50168981e-03,-2.56216369e-02,5.68056396e-03,-7.50820009e-03
-9.07521642e-03,-2.81096663e-02,-2.64275621e-02,1.29055710e-02,2.13167272e-02,4.12930567e-02,3.17631760e-02,-1.00113753e-02,-2.27292478e-02,-9.64181067e-03,-1.50138365e-02,-1.63591767e-02,-1.88784631e-02
-8.41337747e-03,-2.16312060e-02,-9.62099515e-03,-1.35899533e-02,1.64200431e-02,5.72143750e-02,1.37040836e-02,-1.73764884e-02,1.02302599e-02,1.41517569e-03,-5.59079525e-03,-2.32843721e-02,-1.97659622e-02
-3.29125261e-04,-1.53034245e-02,-1.04527566e-02,-3.84852944e-02,1.89318200e-02,3.85643147e-02,4.67182284e-03,-5.51404286e-03,2.08659112e-02,-9.43788620e-03,2.61861327e-02,1.92274667e-04,4.46600876e-03
3.09871946e-02,-1.15509437e-02,-6.95331550e-03,-3.63119504e-02,2.05606568e-02,9.20316012e-03,-2.22724514e-02,-2.35065919e-03,-1.02074311e-02,-1.79895011e-02,4.13079030e-02,-9.27758114e-04,-2.71154786e-03
6.54293607e-03,-3.29050311e-02,-1.45162494e-02,-4.19523881e-02,1.87429757e-03,-9.30676980e-03,-3.89889187e-02,-2.45572028e-03,-3.01889323e-02,-6.20397096e-03,4.02242901e-02,3.86832455e-03,9.37427459e-03
2.92856077e-04,-1.59308330e-02,1.05757355e-02,-2.30172354e-02,-1.95343143e-02,-4.06535363e-02,-2.31251576e-02,1.17089842e-02,-2.07275058e-02,-1.66385712e-02,1.57158205e-02,2.40366183e-02,2.71876326e-02
1.23792255e-02,2.82418608e-02,4.65304053e-02,-1.79251967e-04,-2.24779760e-02,-2.64172615e-02,-8.91734081e-03,2.56273464e-02,1.74900076e-02,-9.40589628e-03,-1.31777989e-02,1.69261182e-02,6.96558351e-03
1.59748675e-02,1.65938199e-02,9.58880962e-03,2.05366539e-02,-7.91095696e-03,-8.46869933e-03,1.31050008e-02,2.10724607e-02,2.73777011e-02,1.39965519e-02,-4.11225565e-02,6.92532249e-04,1.29341567e-03
1.75393460e-03,1.70144070e-02,-2.10075764e-02,2.88909046e-02,-1.21866571e-02,9.11697174e-03,2.55368020e-02,2.94920187e-02,1.07183858e-02,1.13322957e-02,-3.31672040e-02,-1.31833004e-02,-8.61021116e-03
5.16404428e-03,4.39546762e-02,-4.67757772e-03,1.74004031e-02,-2.23365271e-02,7.30763774e-03,9.40577908e-03,1.28641557e-02,-2.18432333e-02,-1.68265015e-02,-4.19491811e-03,-4.70658505e-03,-8.37451550e-03
-2.06699476e-03,3.45293238e-02,4.42021568e-03,2.44966502e-02,-1.10823356e-02,2.77709540e-03,2.06439067e-02,3.77127896e-03,-1.25462811e-02,-8.77079281e-03,3.55345865e-03,-7.49352441e-04,-1.33231148e-02
-4.85269423e-03,1.12388384e-02,7.01502514e-04,1.16586125e-02,2.33514836e-02,2.39340017e-02,3.01914870e-02,-1.04463202e-02,7.06147128e-03,-3.19859009e-03,-1.34840417e-02,-1.99018134e-02,-2.19609154e-02
2.76516092e-02,-4.08996684e-03,9.15783902e-03,1.31756533e-02,4.20298944e-02,1.72035971e-02,-9.06374673e-03,-5.22584957e-02,-4.53188300e-03,-1.10724883e-02,-1.02529835e-02,-2.60255195e-02,-6.43034954e-03
-4.41360513e-03,-4.13001819e-02,-1.43886613e-02,-2.62890670e-02,1.47923241e-02,-3.01713426e-02,-4.22897938e-02,-4.62470652e-02,6.20910740e-03,2.12954995e-02,2.56827211e-02,5.13774159e-04,1.59383428e-02
-3.15265419e-02,-2.95405191e-02,1.51604707e-02,-1.05425671e-02,-1.52824938e-02,-7.62433054e-02,-6.77712367e-02,-4.20845875e-02,1.77839573e-02,3.60498856e-02,2.96022157e-02,2.43093350e-02,2.01311306e-02
-2.95831250e-03,1.67389766e-02,6.78016247e-02,1.07654302e-02,-1.57072437e-02,-4.87721149e-02,-3.83752141e-02,-2.23697841e-02,1.68445246e-02,1.41549063e-02,1.33991928e-02,1.53611383e-02,1.05128385e-02
2.49425830e-02,4.02632990e-03,2.47018319e-02,-1.99943708e-02,-3.20726210e-03,-7.53538361e-03,1.79639523e-02,2.05999477e-03,-1.83409562e-03,3.18066742e-03,-5.68593866e-03,1.37594549e-02,1.34602618e-02
2.03837639e-02,-1.45029283e-02,-1.51543150e-02,-2.71935762e-02,-2.22922947e-02,2.58187401e-02,1.90280848e-02,2.29920063e-02,-3.73149349e-03,1.27073893e-02,-1.40855464e-02,5.29354965e-03,1.22814040e-02
3.22504508e-03,1.37718459e-02,-2.10300401e-02,-3.35312116e-02,-5.22603190e-02,2.25402997e-02,2.06785112e-02,4.31907727e-02,-8.29560290e-03,-7.36610917e-03,7.72044665e-04,2.24268540e-02,2.74883668e-02
-4.11701980e-03,2.52318209e-02,-1.91013857e-02,-1.25174572e-02,-1.40047545e-02,3.83686824e-03,2.38675702e-02,5.02683506e-02,-2.32370185e-02,-1.30993295e-02,1.02213664e-02,2.78855987e-02,1.04230084e-02
-1.00055271e-02,5.51094467e-03,-4.98289265e-03,2.08283378e-03,2.89143126e-02,5.15691765e-02,4.19341840e-02,3.41205596e-02,-1.33405824e-02,-1.76666774e-02,-1.56277219e-02,-1.03662597e-02,-3.21031119e-02
-1.28109990e-02,-1.88791132e-02,-1.84685239e-02,-5.47240856e-03,4.95763673e-02,5.94831731e-02,3.63428858e-02,-6.03516493e-03,-1.81278526e-02,-3.46294237e-02,-1.36463012e-02,-1.75184083e-02,-2.90691090e-02
-6.71864110e-03,-4.24781607e-02,-3.56380518e-02,-2.62652724e-02,3.13933245e-02,2.97768964e-03,-6.38228955e-03,-9.70939258e-03,-3.12979590e-04,-1.30217502e-02,1.90144657e-02,-1.61999730e-02,-1.25104991e-02
-3.07858922e-02,-1.94414304e-02,2.02727870e-02,3.09529629e-02,-9.45097514e-03,-4.88756268e-02,-4.77661026e-02,-1.51852290e-02,4.49034679e-02,3.14537409e-02,2.68815293e-02,-1.91828531e-02,-1.00431771e-02
-3.73560394e-02,2.99720029e-03,4.63046309e-02,6.26426132e-02,-2.15929583e-02,-3.69320034e-02,-3.48055976e-02,-2.27528937e-03,3.81329174e-02,3.43336314e-02,1.80827466e-02,-3.09758138e-02,-1.90174080e-02
-1.27332215e-02,2.40429650e-03,6.11168258e-03,2.41121300e-02,-8.46606274e-03,9.52277125e-04,-9.40736833e-03,6.98188833e-04,1.00932292e-02,1.64659081e-02,1.75327398e-03,-2.33116659e-02,-1.38665570e-02
-1.24420792e-02,2.63324049e-03,-9.75715197e-03,1.25808852e-02,1.06541240e-03,8.79704167e-03,-2.43985471e-02,-2.54601516e-02,-8.37253478e-03,-1.43805088e-02,-1.44588477e-02,-1.60227045e-03,1.26544108e-02
-1.80295586e-02,-4.98924098e-03,-4.09685447e-02,9.51094905e-03,-2.14336374e-02,1.26584141e-02,6.86772685e-03,-2.71536171e-02,-3.77431720e-02,-4.02722168e-02,-1.67847494e-02,1.13995341e-02,2.44635328e-02
4.82071484e-03,4.60814415e-03,-4.77997474e-02,-1.47894000e-02,5.67908291e-03,2.02573713e-02,2.51023489e-02,-1.64856757e-02,-3.38988670e-02,-2.44947977e-02,-3.45837390e-02,1.53431329e-02,9.16095311e-03
4.91839393e-02,6.17359422e-03,-8.76477996e-03,-1.73005023e-02,1.71469595e-02,2.92632885e-02,3.64663545e-02,-7.21450467e-03,-2.21291775e-02,-1.77262944e-02,-4.95852295e-02,7.15628575e-03,-6.69319860e-03
5.86854242e-02,-7.22964933e-03,-1.59391465e-02,-3.42260460e-02,-6.94446639e-03,8.19660993e-03,2.03299416e-02,-5.64157546e-03,-3.34874952e-02,-1.04268101e-02,-1.22049565e-02,8.81606348e-03,2.43737142e-03
5.77032169e-02,-8.47370660e-03,-2.60073932e-02,-5.59621890e-02,2.14973130e-03,-1.46437408e-02,-1.68186763e-02,-2.89045228e-03,5.53669020e-04,-9.93457102e-03,9.20866876e-03,1.07982237e-02,1.31566687e-02
3.71188309e-02,1.40266930e-02,2.38831161e-02,-1.77527621e-02,-1.28433033e-02,-2.94318711e-02,-2.50533414e-02,7.31001846e-03,1.65753673e-02,-1.33331776e-02,1.71532016e-02,2.77450789e-03,9.83166516e-03
4.49422737e-03,3.03068172e-02,5.10609958e-02,-5.23864640e-03,-2.53217768e-02,-2.67811115e-02,-8.69005259e-03,1.93565674e-02,2.55736475e-03,2.12520081e-02,3.24657237e-02,-3.96880001e-03,1.13621095e-02
-2.78261446e-03,3.87564274e-02,4.99680407e-02,7.26314360e-03,-1.05941380e-02,-1.27838137e-03,-3.03493179e-03,2.21209725e-02,2.72024731e-02,4.70336201e-02,1.09663070e-02,-1.43799848e-02,2.76560155e-03
-2.17356966e-02,1.99973962e-02,3.64899191e-02,4.32456576e-02,2.24254066e-02,-7.79807877e-04,-1.91163778e-02,2.69574775e-02,3.85424115e-02,3.11874613e-02,-4.38853789e-03,4.09978839e-03,4.00185093e-03
-3.94907682e-02,6.55842610e-03,4.71569389e-03,5.29931270e-02,2.51555260e-02,-1.09804832e-02,1.35485511e-02,2.17754421e-02,2.33159987e-02,1.55768161e-02,1.83499037e-02,1.22316452e-03,5.22226418e-03
-3.37173459e-02,4.59867500e-03,-6.02459491e-03,6.81460746e-03,5.43196003e-03,2.50237887e-03,3.44716012e-02,-1.08167195e-02,5.92071138e-03,3.25747826e-03,1.61867082e-03,-1.04892318e-02,-5.98966819e-03
-6.95685241e-03,-1.26279819e-02,-5.34277232e-03,1.03106344e-02,2.05550278e-02,1.66381600e-02,2.87588200e-02,-1.98157247e-02,-4.60230742e-03,-7.79581380e-03,-2.21177516e-02,1.13639515e-02,-5.54461243e-03
9.20930912e-03,-1.07252423e-02,4.47281689e-03,2.90537607e-02,-1.68172063e-03,-6.41982488e-03,1.02319867e-02,-1.09616874e-02,-1.01514444e-02,-1.91758546e-03,1.08194246e-02,4.46772802e-03,-6.13115888e-03
2.44552696e-03,-9.45192195e-03,2.92968124e-04,1.79570479e-02,-2.61487703e-03,-2.75033000e-02,-1.24190228e-02,-8.29818373e-03,1.12055134e-02,-1.07507264e-02,-1.15485349e-02,-1.99657290e-02,-1.13373253e-02
-1.08344019e-02,-1.87668387e-02,-5.60865232e-03,2.27484496e-02,-6.73842133e-03,-2.10241372e-02,-2.28140457e-02,1.04564200e-02,3.10072909e-02,-1.97805496e-02,-1.88898003e-02,-2.41247570e-02,-2.44867761e-02
-1.89341307e-02,-6.18765333e-03,3.06374532e-03,-3.89053629e-02,-3.31936503e-02,-2.47671254e-02,-2.72540965e-02,3.12394664e-03,-4.63005509e-04,2.27984327e-03,2.41701932e-02,-2.27619578e-03,-2.16843946e-02
1.74093237e-02,1.62029990e-02,-9.67926520e-03,-5.85216970e-02,2.96880943e-03,7.40834006e-03,-2.13492178e-02,-1.61955424e-02,-2.46995946e-02,1.43108194e-02,2.52173294e-02,1.04833612e-02,-6.48661593e-03
3.98423231e-02,-9.14809357e-04,-5.28531296e-03,-1.15688722e-03,2.76861866e-02,2.94188591e-02,-3.38891562e-02,-1.40904329e-02,-3.52265826e-02,1.65096173e-02,1.23948082e-02,3.89761302e-02,6.34212850e-03
2.74667961e-02,-1.82965899e-03,-1.17931382e-03,1.44580825e-02,2.06748195e-02,1.17017917e-02,-2.59868084e-02,-1.92167435e-02,-3.13497099e-02,1.59832714e-02,2.18449062e-02,4.35313707e-02,1.44995717e-02
-2.40455793e-03,3.50992416e-03,-2.91158993e-02,-1.62501308e-02,3.26506760e-03,1.10155511e-02,1.42022967e-02,-2.44418465e-03,-2.42377876e-02,1.58805831e-02,1.79773222e-02,2.47784980e-02,2.02063260e-02
-2.98133338e-02,-2.48424394e-02,-3.09234082e-02,-1.89828921e-02,-9.92047339e-03,2.30206516e-02,3.83314680e-02,2.54443872e-02,1.86636256e-03,1.26231224e-02,-1.54783747e-02,8.52974126e-03,2.66593592e-02
-4.30726039e-03,-1.46655146e-02,-2.47212100e-03,2.35352492e-02,-1.07637132e-02,2.01283030e-02,5.32630986e-02,8.94651343e-03,5.35651873e-03,-1.16957677e-02,-1.37165632e-02,-2.32411389e-02,9.21837280e-03
-1.14671995e-02,1.45394800e-02,-3.16393138e-03,8.71623005e-03,1.09637646e-02,2.94242753e-02,5.63888644e-02,-2.10499293e-03,-3.66843941e-03,-2.66515378e-02,-3.53101876e-02,-4.81624369e-02,-7.68255807e-04
-4.15540809e-02,-7.33411336e-03,-5.01749991e-04,1.00570271e-02,1.08560556e-02,2.46822495e-02,2.42300450e-02,9.84081815e-03,3.85057457e-02,-1.31680100e-02,-5.90624537e-02,-5.34764634e-02,-9.10745148e-03
-2.85884361e-02,4.08646680e-03,1.05320891e-02,-4.29995731e-04,-1.98663584e-02,-2.49507476e-02,1.99693585e-03,3.38438612e-02,2.99831735e-02,-2.03006342e-02,-2.45037707e-02,-3.83203054e-02,-3.28503382e-02
2.52986600e-02,1.97402855e-02,-5.21711301e-03,-3.43032227e-02,-3.33539140e-02,-4.41848272e-02,2.31620455e-03,4.18416185e-02,2.06458978e-02,-2.24823542e-02,-9.19913882e-03,5.13158311e-05,-3.41260964e-02
7.74969546e-02,-3.53128849e-03,-6.59597304e-03,-8.26805286e-03,-1.58646903e-02,-3.08354622e-02,-2.89540922e-02,8.31766596e-03,1.06592252e-02,-1.31774563e-03,1.12145159e-02,3.95135998e-02,-2.89441017e-02
6.07878168e-02,-7.54123384e-03,2.42692763e-03,1.92829316e-03,-6.35321901e-03,-1.92190392e-02,-5.50001652e-02,-3.83728224e-02,-2.19992047e-02,-6.21323145e-03,3.26521897e-02,3.27332308e-02,-1.93804006e-02
5.62639142e-03,-1.04485330e-02,-8.18310495e-03,-2.34166041e-04,2.34454031e-03,-1.18105685e-02,-3.57289002e-02,-3.37393082e-02,-2.73820747e-02,-7.38457264e-04,3.28053447e-02,4.31058135e-02,1.66871661e-02
-1.41859625e-02,-2.98384946e-02,7.88899551e-03,3.04253742e-02,1.45213287e-02,7.71640149e-03,-2.94975578e-02,-1.30446660e-02,3.12994665e-03,1.44581822e-02,3.40058727e-02,2.55003611e-02,2.98474897e-02
-4.43425306e-02,-3.28168197e-02,4.27352001e-02,6.91526227e-02,9.14460113e-03,2.10310670e-02,-1.87238122e-02,-3.53664657e-02,-1.50276508e-03,1.53629467e-02,2.37483750e-02,-5.21371125e-03,2.14738635e-02
-5.83772029e-02,-6.46290413e-03,1.46191651e-02,8.49565702e-03,4.98635164e-03,4.33266373e-02,1.08642632e-02,-2.74275502e-02,-1.78564556e-02,1.88088155e-02,1.30820205e-02,8.02447636e-03,3.09087296e-02
-3.33381769e-02,3.92693848e-03,3.53204592e-04,-2.69623723e-02,4.89431228e-03,3.55569610e-02,1.35575791e-03,-1.45184977e-02,-1.65443684e-03,1.96361591e-02,-1.60261114e-02,-1.78376957e-02,1.84478952e-02
-2.13453338e-02,4.19754973e-02,6.88376565e-03,-1.52061179e-02,2.52224995e-02,1.63239900e-02,5.70037049e-04,-3.18319258e-03,-1.36371866e-02,-6.95504025e-03,-2.30356739e-02,-3.50850665e-02,1.15994708e-03
-3.38736831e-03,7.11207814e-02,-5.16763408e-03,-3.04682496e-02,8.54823821e-03,-1.47419476e-02,2.79998103e-02,2.62895443e-02,-1.27860527e-02,-1.87255029e-02,-7.30114006e-03,-1.15571379e-03,9.08165940e-03
1.47202884e-02,1.44305216e-02,-2.37078747e-02,-1.51964464e-02,-1.54332866e-03,-4.09209320e-02,5.43008703e-03,1.99444982e-02,-8.88204910e-03,-5.24374451e-03,-2.48677859e-03,1.40034134e-02,-9.57827521e-04
1.00924947e-02,-1.00969722e-02,-3.97314873e-02,-1.82187791e-02,1.23694518e-02,-3.31870373e-02,-1.56632283e-02,2.50945739e-02,1.95673593e-02,-1.05138430e-02,-6.91310839e-03,-1.08120953e-02,-3.61139233e-02
-6.57269086e-03,5.35005789e-03,-1.43149980e-03,-1.43643285e-02,-1.43955049e-03,-7.24411330e-03,2.05454613e-02,4.15159378e-02,2.62111472e-02,-8.43880751e-03,-3.35201347e-02,-2.44075754e-02,-3.30477630e-02
1.27586978e-02,-1.64317502e-03,3.89764708e-02,2.03661240e-02,4.60787115e-04,-1.66627271e-03,2.07175524e-02,5.88601895e-03,1.36975150e-02,-7.65460619e-03,-2.94488907e-02,-2.60659875e-02,-1.09785201e-03
-3.30895392e-02,-2.46336584e-02,4.35760472e-02,5.03936556e-02,-1.32220679e-03,-1.20911691e-02,1.54365644e-02,-9.80721073e-03,9.29821824e-03,4.12427210e-03,6.68714631e-03,1.02633507e-03,2.04340023e-02
-4.87622596e-02,-4.08317267e-02,1.36566366e-02,2.78573943e-02,-2.20003559e-02,-1.46298493e-03,1.94432160e-02,-9.83272166e-03,-1.71392008e-02,1.75694506e-02,1.84117562e-02,3.85263445e-02,3.09828629e-02
1.72710127e-02,-2.88500000e-02,-1.15532324e-02,-1.23123485e-02,-4.04673199e-02,-2.37126998e-03,9.65716283e-03,-5.07210946e-03,1.43927549e-03,3.00867102e-02,-1.20085067e-03,8.63993979e-03,7.67909499e-03
3.99856538e-02,7.35720449e-03,1.40242781e-02,-3.47078698e-02,-3.42711790e-02,2.06023597e-02,1.05727856e-02,9.16028986e-03,2.18408039e-02,2.90008113e-02,-1.20505764e-02,-1.16981531e-02,-1.04832189e-02
5.26480412e-02,4.36984185e-02,9.42554629e-03,-4.42438045e-02,-1.44833224e-02,3.48918410e-02,-6.57960178e-04,-1.11410282e-02,-1.51442205e-02,-4.70166405e-05,3.37201396e-02,9.05428910e-03,-3.32478601e-03
3.32423066e-02,9.59000163e-03,-3.91630443e-02,-4.70330368e-02,-1.66715323e-02,2.20108497e-02,-1.71828221e-02,-2.99553939e-02,-4.03788423e-02,-9.90507406e-03,5.41500483e-02,2.52435363e-02,9.03728015e-03
1.89750642e-02,-1.18237137e-02,-6.98645063e-02,-4.32286949e-02,5.02862903e-03,1.41940827e-03,-2.49530972e-02,4.89863532e-03,1.58923148e-02,-2.52697083e-02,1.98268117e-02,8.83157100e-03,-1.12833834e-02
8.66505081e-03,6.03101541e-03,-3.85229917e-02,-1.04836769e-02,1.43398378e-02,5.55384512e-03,-9.73449546e-03,6.17071349e-02,3.57123056e-02,-2.43373136e-02,-1.65459034e-02,-3.17062494e-02,-2.99011818e-02
-1.57626580e-03,1.46651725e-02,1.23793830e-02,1.99915411e-02,1.25475555e-02,-1.20516242e-02,6.62728603e-03,4.01469022e-02,1.23756803e-02,-1.96689984e-02,-3.56735689e-02,-3.05221236e-02,-1.12008218e-02
-1.31301652e-02,6.17561293e-03,1.74746213e-02,4.94601121e-02,4.54039704e-02,-3.38188776e-02,1.55708802e-02,1.67272999e-02,1.81591434e-02,-3.56961868e-02,-2.08046651e-02,-3.34509044e-04,-6.36235831e-03
-4.16201805e-02,-4.06440908e-02,-1.23255683e-02,4.32649375e-02,2.68057845e-02,-3.13839712e-02,4.79494334e-03,-1.33867197e-02,-1.26804201e-02,-2.62029315e-02,8.13604365e-03,2.33473025e-02,9.95498516e-03
-1.18310521e-02,-4.84850600e-02,-3.24636182e-02,2.80175891e-02,2.03583600e-02,-2.16974043e-02,6.90325505e-03,-3.44337554e-02,-2.67086871e-02,1.42985465e-02,1.31468508e-04,1.08182452e-02,2.58811485e-02
2.69921131e-02,-1.09060274e-02,5.63641176e-03,2.69356831e-02,2.82727012e-02,2.00962577e-02,2.45002865e-02,-1.95772200e-02,-1.58001437e-02,3.39524487e-02,-2.37785001e-02,-1.12601485e-02,9.70213258e-03
3.26163151e-02,5.80076168e-03,4.10350942e-02,6.70391683e-03,1.86862572e-02,4.34526713e-02,-2.29192118e-02,-5.31794460e-02,-1.79820132e-02,1.36013742e-02,-5.66468135e-04,3.52450169e-03,6.71009390e-03
1.74904440e-02,3.48449844e-03,3.26307318e-02,-5.88217921e-03,-6.96026235e-03,4.13644806e-02,-4.81384150e-02,-5.79281376e-02,-1.68593311e-02,1.28096339e-02,2.09301502e-02,2.87384960e-02,1.43430127e-02
-5.02687819e-02,3.12578781e-03,9.61348856e-03,-1.93235797e-02,-3.86613028e-02,1.82989758e-02,-2.33672834e-02,-4.46176785e-02,2.24341892e-03,1.85987228e-02,1.98058308e-02,1.90750122e-02,7.22477744e-03
-5.41052340e-02,2.36557639e-02,3.97842333e-03,-1.11931596e-02,-1.85226608e-02,5.87077086e-03,-6.00362500e-03,-8.25270037e-03,9.22796300e-03,2.92524449e-02,2.16844899e-02,-2.96342165e-02,-2.63756291e-03
7.37164792e-03,5.12163288e-02,2.88618283e-02,1.99133422e-02,1.09272689e-02,-7.79483603e-03,-7.02469846e-03,1.00535091e-02,7.17771169e-03,4.04340244e-02,2.32951418e-03,-4.91714201e-02,5.04502737e-04
-6.25685023e-03,3.77073293e-02,3.52930048e-02,2.34402283e-02,5.95365209e-03,-3.65039190e-02,-1.07095840e-02,2.20592115e-02,2.05115328e-02,1.63763224e-02,-2.43878310e-02,-2.10368683e-02,-9.57692355e-03
-1.76454764e-02,-1.84452482e-02,-5.54871950e-03,5.67539126e-03,-1.96620734e-02,-4.88202753e-02,-4.83506060e-03,3.80847193e-02,1.20984382e-02,-7.92332925e-03,-7.81201911e-03,-5.88394218e-03,-1.92354824e-02
2.22092867e-02,-4.69604780e-02,-1.38115968e-02,2.15636709e-02,-6.24656865e-03,-3.89262403e-02,1.39933139e-02,2.97959631e-02,-3.30830415e-03,-7.32289628e-03,1.14026899e-02,-1.88884319e-02,-1.28350958e-02
3.90422009e-02,-2.81485361e-02,-9.71424582e-04,1.38282504e-02,9.67210844e-03,-6.52669521e-03,3.54525253e-02,2.03191165e-02,-1.34610718e-02,-1.61301237e-02,2.34161103e-03,-6.83366676e-03,-1.19827710e-02
4.32349983e-02,-6.26054771e-03,-9.59064773e-03,-3.72543496e-02,5.65715503e-03,1.97525194e-02,2.60762294e-02,1.91484027e-02,-9.16676446e-03,-3.70374071e-02,-1.90997415e-02,1.69731204e-02,-8.52072510e-03
3.56357461e-02,-7.26527966e-03,5.16413895e-03,-4.10845735e-02,-2.50804599e-02,-7.49467053e-03,-2.29659813e-03,3.94080073e-02,2.67353310e-02,-3.12040700e-02,-3.14762965e-02,2.15327450e-02,9.07898901e-04
-5.35269510e-02,-2.13656942e-02,-6.06338515e-03,-2.35092493e-02,-6.37867000e-02,-3.81098814e-02,-1.45859575e-02,2.29960261e-02,2.52911444e-02,-1.70578040e-02,-1.01698358e-02,1.47645285e-02,-1.26704619e-03
-6.55736143e-02,-8.49832343e-03,-6.30384590e-03,5.46979567e-03,-6.50897033e-03,1.82846098e-02,9.59523127e-03,2.45350342e-03,-1.15617013e-02,-1.67002621e-02,8.74851000e-03,-3.05541681e-03,-6.19261682e-03
-1.71906000e-03,1.47386763e-02,7.57303457e-03,1.93965224e-02,3.34979542e-02,4.84654948e-02,2.17390487e-03,-3.50327203e-02,-2.65829610e-02,-1.28662718e-02,1.09743426e-02,5.58991932e-03,1.78865849e-02
-1.18694912e-02,2.33870449e-02,-1.05958343e-02,-6.20127304e-03,-5.63430822e-04,1.88137932e-02,-5.91579569e-03,-2.44203322e-02,-7.55142784e-03,1.52949922e-02,7.52176438e-03,2.47055662e-02,2.95546660e-02
5.62373649e-03,2.65594670e-02,-2.46556509e-02,3.74895277e-04,9.66627044e-03,1.16762978e-02,2.07220516e-03,7.34070419e-03,3.12229084e-03,3.40681051e-03,-1.37564980e-02,1.44450377e-02,9.92203772e-03
3.76625187e-02,8.36078546e-03,-2.21367201e-02,2.87591757e-02,1.18761827e-02,6.69220951e-03,5.44413319e-03,1.08752842e-02,2.87227926e-02,3.86679421e-03,-1.04871342e-02,1.28643071e-03,4.29510496e-03
3.15218449e-02,5.18499307e-03,-5.20660200e-03,2.14327999e-02,2.89529648e-03,-5.49791718e-03,3.24031244e-03,2.71417686e-03,2.18519015e-02,2.69108613e-02,2.61925693e-02,2.36166792e-02,6.00404490e-03
2.13208782e-02,4.08284665e-02,1.03798424e-02,-4.59506484e-03,1.05306209e-03,-6.69420470e-03,-2.98282050e-03,-3.61236764e-02,-4.48020051e-02,-7.60355233e-03,1.15745447e-02,2.07225967e-02,-2.88765593e-03
8.84303254e-03,5.43329094e-02,3.29379816e-02,3.03167885e-03,-1.71835638e-03,-2.00148071e-02,8.36783257e-03,-1.71585289e-02,-4.98602845e-03,-2.37578436e-02,-1.98482695e-02,-3.82815720e-03,-1.16676305e-02
-1.51065633e-02,3.22625919e-02,1.42310394e-02,2.42392095e-02,-2.19586054e-04,-6.31013541e-02,3.45868224e-03,7.87379876e-03,1.37708607e-02,-1.20141954e-03,-5.02753494e-03,-2.50155674e-02,-3.51730761e-02
-1.56155453e-02,8.56173667e-03,1.34205438e-02,3.97764555e-02,1.89049036e-02,-3.32463641e-02,-7.24549422e-03,3.53004676e-03,-2.97190043e-02,-7.69579436e-03,-2.56044855e-03,-3.66387940e-02,-3.61579805e-02
-8.09109182e-03,6.46779702e-03,3.02295922e-02,1.76832247e-02,1.26817805e-02,7.62591796e-03,-1.29849768e-02,-1.76097900e-02,-2.25800980e-02,-2.34427761e-02,7.27322410e-03,2.89440618e-03,-4.37793668e-03
-1.45058453e-02,-3.71359577e-03,-2.10045731e-02,-2.90711628e-02,-3.59656220e-03,1.40318293e-02,1.05762733e-02,-7.82547799e-03,9.80735368e-03,-3.45418963e-03,3.18593573e-02,1.71268672e-02,2.24172872e-02
-1.00042131e-02,-2.84185907e-02,-5.29060776e-02,-5.03362727e-02,2.76454077e-02,3.47943405e-02,2.99302342e-02,1.50878240e-02,7.27234791e-03,4.02542176e-03,1.66420652e-02,7.42177517e-03,2.98140952e-02
-2.07023092e-02,-6.33552769e-02,-5.63272649e-02,-5.78626778e-02,2.43034748e-02,4.26990758e-02,2.59623848e-02,2.55339245e-02,1.93043030e-02,1.67390253e-02,1.29666965e-02,2.87323508e-02,3.50177167e-02
4.12269106e-04,-5.98321650e-02,-5.57381865e-02,-4.75778938e-02,-5.69238699e-03,2.53128936e-02,-4.33282422e-03,2.75235309e-02,3.02484511e-02,3.72016250e-02,3.03380302e-02,3.02548258e-02,5.31169748e-03
2.92680593e-02,-1.34890126e-02,-2.63053640e-02,-5.28806357e-02,-2.98257845e-02,4.84433011e-03,-3.51450207e-02,-1.09993154e-02,-1.75216162e-02,1.65433282e-02,1.98630478e-03,-7.91192297e-03,-1.62933439e-02
4.79708617e-04,-9.27850980e-03,-1.49355373e-03,-2.27770529e-02,-1.76251896e-02,2.73389102e-02,-1.50778170e-03,-3.25881385e-03,-9.19028214e-04,6.05877266e-03,-2.39244953e-02,-2.47211731e-02,2.76795009e-03
-4.40247979e-03,-2.24288969e-02,1.82759129e-02,2.67695680e-02,-4.67151138e-03,-2.66403315e-03,1.00705705e-02,-5.13086984e-03,1.63174865e-02,2.02868232e-02,-2.02311315e-02,-2.43033149e-02,-1.21067546e-02
1.12161973e-02,-1.34642040e-02,3.32535875e-02,4.19335887e-02,-8.19874228e-03,-2.11375456e-02,-5.39740081e-04,-2.50884011e-02,-1.75411678e-02,2.11612964e-02,-1.75260658e-02,-3.71641794e-02,-2.30440657e-02
6.07605438e-03,1.03740166e-02,5.35296035e-02,4.27193525e-02,-1.53312807e-03,3.17233714e-02,-4.29682969e-03,-1.08589944e-02,-7.65537874e-03,1.58615789e-02,-1.85833067e-02,-3.48629209e-02,-1.84005919e-02
1.90798000e-03,2.25095652e-02,5.54102809e-02,2.49530650e-02,-2.50970415e-02,2.61765614e-02,-1.38158525e-02,1.68704663e-02,1.59243289e-02,-6.27546639e-03,-1.49595364e-02,-1.84443374e-02,5.52507310e-03
3.32329389e-03,1.90928346e-02,8.03428211e-03,1.08546238e-05,-2.50340960e-02,-1.90204844e-02,-2.13908645e-02,2.91178780e-02,1.89239205e-02,-2.00340827e-02,-6.38078228e-03,3.34534492e-03,3.52372389e-02
-1.30823249e-02,-1.06581007e-02,-1.61750674e-02,-8.16079919e-03,1.43159528e-02,-1.16932786e-02,-9.80051932e-04,-6.76166204e-04,1.30909122e-03,-1.99392103e-02,2.27710281e-02,4.37910496e-02,3.25789695e-02
1.31430651e-02,-1.03294884e-02,-1.30314891e-02,1.59707004e-02,2.22672832e-02,1.84972749e-03,2.09353531e-03,-1.81762428e-02,-1.38186078e-02,-2.32026803e-02,2.73146406e-02,5.00462262e-02,-9.82105888e-03
4.50526541e-02,1.75059099e-02,1.16777563e-02,2.24586160e-04,1.97641828e-02,-1.78391874e-02,-2.96987890e-02,-5.96390204e-03,-1.10000333e-02,-1.76530882e-03,2.77787443e-03,1.83700928e-02,-2.90421930e-02
7.98700587e-04,-1.13873388e-02,-2.58157973e-03,-2.57435848e-02,2.28055623e-03,-3.40191753e-02,-1.71809551e-02,9.47001926e-03,-1.12066821e-02,1.01020739e-02,2.84598709e-03,6.13418769e-03,2.10507064e-03
-3.08978875e-03,2.22933514e-03,-5.05024780e-03,-6.97921159e-03,-1.43961935e-02,-5.22981110e-02,-1.76144240e-02,-2.29205286e-02,-1.58724982e-03,3.98647962e-03,-3.72948780e-03,-7.08528804e-03,3.33825150e-03
1.06939427e-02,4.06791106e-02,2.66812062e-02,2.87931914e-02,9.53877942e-03,-3.65880619e-02,2.73179078e-03,-4.76998981e-02,-8.71746308e-03,6.66768522e-03,-1.45640740e-03,-1.08690120e-02,-1.42131870e-02
-1.51439089e-03,1.12289906e-02,6.41293751e-03,1.98293505e-02,3.28535471e-02,2.81545602e-02,3.75344335e-02,-3.15367099e-02,-1.41030228e-02,1.05978579e-02,-6.65038905e-03,-1.96613685e-02,-1.25435703e-02
-5.34608164e-03,-3.72915867e-04,-3.87456065e-03,-1.29081976e-02,-1.70619459e-03,3.93960811e-02,3.18763602e-02,1.02966225e-03,-9.07080950e-03,-1.43701430e-02,-2.53183752e-02,-4.35069906e-02,1.18200386e-03
-3.35503434e-02,1.32740377e-02,1.02500072e-02,-1.23945151e-02,-2.52868117e-02,1.15698017e-02,6.20439436e-03,3.70052445e-02,1.27547941e-02,-3.78051343e-02,-2.98995427e-02,-1.75057610e-02,1.15337444e-02
-2.21215373e-02,1.90377791e-03,9.33522802e-03,8.29341781e-03,-5.23404700e-03,1.43415877e-02,1.24201230e-02,1.65191959e-02,2.59850542e-02,-2.66238107e-02,-1.34097228e-02,1.41722062e-02,-1.03746024e-02
1.61331397e-02,-1.90257061e-02,-1.49465598e-02,1.82246661e-02,-1.54581337e-03,2.99596739e-02,1.32265124e-02,1.10200172e-02,1.64643751e-02,-8.13750385e-03,-5.13233571e-03,-5.10758335e-03,-2.30108043e-02
1.80769908e-02,-2.08378041e-02,-1.04596392e-02,2.97766731e-03,1.46392325e-02,2.29223618e-02,-1.65022790e-02,3.59504153e-02,1.61592413e-02,2.98914866e-02,-7.81169473e-04,-1.93391080e-04,4.73650976e-03
-3.23761077e-03,-1.63803743e-02,-1.31261575e-02,-3.23391546e-02,-1.69065677e-03,-1.02726316e-03,-2.07711862e-02,2.97167875e-02,6.10624466e-03,2.72927752e-02,1.84985454e-02,3.07265084e-02,8.32405470e-03
-1.24261989e-02,2.68047250e-03,-3.11180744e-02,-4.85814467e-02,-2.97793200e-02,-1.58875784e-02,-2.66603952e-02,-9.58195975e-03,-8.03644786e-03,2.60363123e-02,3.36973142e-02,1.27937272e-02,7.03169535e-03
-5.06555006e-04,1.23867448e-02,-7.56882180e-03,-1.24956509e-02,-4.88446700e-03,-2.14029641e-02,-1.85557308e-02,-1.93046427e-02,-1.85821060e-02,2.24529517e-02,2.56940441e-02,1.51060192e-02,3.07703608e-04
1.48046442e-02,-1.19306876e-03,1.88235688e-03,-7.91712972e-03,2.32240934e-02,-1.20366488e-02,-4.33501258e-03,-1.38963332e-02,-1.64461970e-02,9.75784811e-03,6.64705956e-03,1.35362359e-02,9.85719010e-03
-3.14066717e-04,-3.33319692e-03,-1.26005415e-02,-1.52429558e-02,1.21632438e-02,1.86389689e-03,5.76833871e-03,-1.95754160e-02,3.57301820e-03,-4.49740868e-03,-1.32850406e-02,-3.48842472e-02,2.39546283e-02
-3.10934423e-02,1.40693968e-02,-6.91127042e-04,-8.10351261e-03,1.82003894e-03,1.47062370e-02,1.49411119e-02,6.81691759e-03,1.79146842e-02,-3.56529863e-02,-2.76679585e-02,-2.13073285e-02,1.45801152e-02
-2.56910680e-02,8.84098647e-03,2.98443656e-02,2.04245768e-02,-4.14466179e-03,-1.88103991e-04,2.07503179e-02,3.06941748e-03,1.51423752e-02,-2.64764501e-02,-2.42584091e-02,-3.24247725e-03,-7.73949908e-03
-1.96799092e-02,-3.13980417e-02,2.72930916e-02,4.81379568e-02,-6.24889841e-03,-1.37542516e-02,8.77809379e-03,9.72116922e-04,1.60064218e-02,-2.13625954e-03,-2.25449852e-02,-3.35522403e-02,-1.92164865e-02
2.81649343e-03,-2.69708829e-02,3.82793259e-03,3.56572990e-02,9.84594630e-03,-1.08250917e-02,-5.64351110e-03,2.08477090e-02,1.53448913e-02,1.72397751e-02,-2.30220463e-02,-2.32513087e-02,3.50537769e-03
1.93267319e-02,-1.17074468e-03,-3.72258455e-03,1.00993324e-02,5.11481071e-03,-1.17033822e-03,-3.47940741e-03,2.44674690e-03,1.98233374e-03,1.73824620e-03,-2.50609707e-03,2.79646624e-02,1.17681057e-02
1.03025300e-02,1.63498352e-02,-1.36625455e-02,6.74362477e-03,-1.96684826e-02,-1.00525520e-02,1.74511737e-03,-2.08038498e-02,-2.07691950e-02,1.07622875e-02,4.12101798e-02,2.28110937e-02,9.72646038e-03
3.43688694e-03,7.36725217e-03,-1.70648371e-02,2.11926290e-02,-7.93253733e-03,-3.84436562e-02,-1.64353541e-02,-1.36238176e-02,-2.18977504e-02,6.87686919e-03,3.89258318e-02,2.95738198e-02,3.20484212e-03
9.35392507e-03,-2.58239491e-03,-8.04925002e-03,5.95326643e-03,7.94674912e-03,-3.71302794e-02,-2.43758876e-02,1.74932493e-02,-1.62111876e-02,-9.00176582e-03,8.23605774e-03,3.14331756e-02,1.59081790e-02
-1.33524592e-02,-1.10519363e-02,1.42257952e-02,9.34559768e-03,1.42945830e-02,1.23932929e-02,1.83994683e-02,1.83198185e-02,-1.81088423e-02,-7.85717256e-03,-7.40678374e-03,-5.47662350e-03,9.92490373e-03
-2.06824296e-02,1.34001378e-02,1.61594377e-02,9.15781788e-03,2.47171216e-02,4.05276603e-02,3.10871338e-02,2.50962718e-03,-3.04477615e-02,-2.52357961e-02,-6.12599038e-04,-3.92402390e-03,-1.08403880e-02
-1.81206560e-02,3.47200161e-02,1.11754514e-02,-1.06788282e-02,-1.57392373e-03,2.22042179e-02,1.21588660e-02,1.19543713e-02,-2.61475228e-02,-1.03677030e-02,2.19595513e-02,-1.82530820e-03,-1.86813918e-02
-3.35817954e-02,-1.11488301e-02,3.12077100e-03,-1.21468497e-02,-1.27026901e-02,2.07380353e-02,1.66859789e-02,4.87056453e-03,-1.56658636e-02,2.59955802e-03,1.47555513e-02,-1.22144479e-02,-2.19572476e-02
3.31652153e-03,-2.38613676e-02,-7.29210937e-03,-1.69576287e-02,4.33126960e-03,2.63560543e-02,1.99552105e-02,1.14334610e-03,-6.74082872e-03,3.01928546e-03,-2.75683596e-02,-1.49190510e-02,-2.38245475e-02
7.83774837e-03,-2.58752740e-02,3.54597887e-03,-2.99099148e-02,3.18634651e-03,3.12589390e-02,1.79828353e-02,7.72033344e-03,2.07040622e-02,1.16703076e-03,-2.73345281e-02,-5.05045349e-03,-1.36749883e-02
8.68526416e-03,-7.16000531e-03,-9.23795768e-03,-2.73468794e-02,-1.43170384e-02,1.66026380e-02,5.85679285e-03,-5.82716962e-03,1.62102367e-02,2.74641459e-03,1.65433367e-02,-6.94415186e-03,5.32150082e-03
1.59966130e-02,6.27423298e-03,-4.58035082e-04,-1.54485923e-02,-3.82467128e-03,-6.19042166e-03,-9.64585004e-03,-1.13962152e-02,3.07207197e-02,2.50990012e-02,3.38594097e-02,5.11246017e-03,-4.77220648e-05
1.65341582e-02,1.28472942e-02,8.11560544e-03,-1.40441292e-02,-1.32441449e-02,-2.94604257e-02,-1.82124812e-02,1.36685833e-02,3.03633036e-02,1.07187486e-02,4.99181491e-03,1.27693186e-02,9.97958156e-03
1.76475760e-02,1.64991483e-02,4.53168921e-03,9.44475134e-03,-2.51827891e-02,-3.91429396e-02,-1.85596521e-02,1.32573510e-02,1.98725682e-02,3.25987684e-03,-2.18871155e-02,1.78516443e-03,4.18734412e-03
1.87618345e-02,1.32460952e-02,4.21968156e-03,1.80603589e-02,-9.00793584e-03,-2.33269398e-02,-2.10331399e-02,-2.22751821e-02,2.96580682e-03,5.34842643e-03,5.47581488e-03,1.37583736e-02,-2.35244920e-03
1.80834214e-02,2.61928017e-02,-3.92522618e-03,5.46416289e-03,-8.08887567e-04,-1.15038026e-02,-2.76590036e-02,-7.58339020e-03,-8.72248483e-03,3.08876432e-03,2.43126287e-02,1.79745870e-02,1.37751157e-02
-1.88807476e-03,1.08094200e-02,-1.09868779e-02,-5.09238673e-03,-9.43391650e-03,-1.49810841e-02,-1.67722144e-02,-4.85557756e-03,-1.74673508e-02,-8.57073252e-04,1.69995329e-02,-3.76442535e-03,1.02992109e-03
1.58736315e-02,4.63037895e-03,-8.70982834e-03,-9.49194066e-04,2.37735437e-04,-1.71046827e-02,-7.15334998e-03,-3.16049289e-02,-2.99860656e-02,-2.12462834e-02,-1.41635673e-02,7.21024235e-04,-2.45134763e-03
-1.64812898e-03,-2.15277952e-03,1.85720174e-02,2.82470877e-02,2.69981766e-02,1.57851411e-02,-1.30626760e-04,-2.12415407e-02,-2.88117428e-02,-3.64716379e-02,-2.50526915e-02,-1.52055865e-03,2.02201439e-03
-3.42604690e-02,1.74135391e-03,3.68379683e-02,3.91655981e-02,1.79940468e-02,2.46857401e-02,-2.45359372e-02,-2.66976656e-02,-1.67214406e-02,-1.31097651e-02,6.39411605e-03,-4.52817601e-03,1.57493737e-02
-2.02126399e-02,-2.80950617e-03,2.85729795e-02,1.53301616e-02,4.02439291e-03,3.21888219e-03,-1.87968888e-02,-2.00441406e-02,2.64077464e-02,1.59502562e-02,1.11093209e-03,-1.26183981e-02,8.17629069e-03
-1.00009549e-02,1.88198805e-03,1.91304029e-02,1.10600684e-02,-1.12567888e-02,-1.41466394e-02,2.18598593e-02,2.40279399e-02,1.51152204e-02,-1.17316182e-02,-2.40438404e-02,-1.72542159e-02,4.41093979e-03
4.84146508e-03,3.52376756e-02,9.09627052e-03,1.82594475e-02,-2.32769254e-02,-3.12419116e-02,1.46406320e-02,3.60645004e-02,2.57257340e-02,-1.02356885e-02,-3.79631776e-02,-8.41172380e-03,-3.46632367e-03
2.72234238e-02,9.91664815e-04,-2.79429467e-02,-2.32614119e-02,-3.39047092e-02,-2.35007858e-03,1.11977151e-02,2.47663100e-02,3.79377483e-02,1.53739796e-02,-2.13752275e-02,-1.05547827e-02,-1.25818874e-02
2.17596966e-02,-3.88717528e-02,-5.90652746e-02,-2.60690754e-02,-1.50667475e-02,2.54678180e-02,3.54140555e-02,4.19117417e-02,9.84805911e-03,-5.93522940e-04,-3.83056236e-03,-1.18217618e-02,-6.04802182e-03
-1.13855685e-02,-2.56234460e-02,-8.34950525e-02,-3.62730203e-02,5.57305803e-03,1.99505119e-02,4.44877950e-02,4.38563005e-02,8.20680978e-03,8.33118981e-03,-2.93729019e-03,-1.94283927e-02,-1.94514004e-02
-1.28607948e-04,4.33490948e-03,-4.44736979e-02,-4.65356167e-02,1.46097391e-02,8.86618579e-03,3.59723865e-02,2.07554654e-02,1.61253912e-02,2.16868282e-02,2.17225537e-03,4.76336092e-04,-1.33000847e-02
1.27977798e-02,1.95947618e-02,-6.45089121e-03,3.13723419e-03,4.38730153e-02,1.61334062e-02,3.35309656e-02,-1.42186259e-02,-2.31113548e-02,-2.42640317e-02,1.86481539e-02,1.08891372e-02,-4.51018473e-03
-1.50296189e-02,1.40727693e-02,-1.81717671e-03,1.27486972e-02,4.77604610e-02,1.34723432e-02,4.47174642e-03,-4.90483902e-02,-3.49359420e-02,2.97044911e-03,4.79339067e-02,1.56161450e-02,1.55883930e-02
-1.91620919e-02,-6.96996748e-03,1.95738047e-02,1.42569626e-02,2.80075303e-02,-1.57062413e-03,-3.51888051e-02,-6.10627513e-02,-6.17098329e-03,3.36585296e-02,3.16205837e-02,1.05394813e-02,6.27341531e-03
-2.23131165e-02,-9.25091258e-03,3.21344749e-02,2.92304760e-02,-2.74703731e-03,-1.02431538e-02,-2.19940434e-02,-1.79921753e-02,-5.93459963e-03,1.78254132e-03,7.89500086e-03,1.58513176e-02,5.22585678e-03
-1.17592282e-02,3.90421155e-02,4.78413931e-02,3.37964042e-02,-2.01734169e-02,-3.39207918e-02,-2.72056572e-02,1.27625653e-03,1.93560408e-02,-1.12152960e-02,-6.47506430e-03,1.80858894e-02,9.89799992e-03
1.51122027e-02,6.06530694e-03,2.61039935e-02,5.62350083e-03,-1.46482609e-02,5.26203433e-03,-2.17525268e-02,-9.36217830e-03,2.59679712e-02,3.88010005e-03,-1.73343111e-02,-7.91003272e-04,-2.08730569e-03
2.43000632e-02,-3.47055062e-02,6.09637864e-03,-1.59150690e-02,-1.73969765e-02,3.13697976e-02,-1.16831772e-03,2.22903670e-02,-4.12521394e-03,-2.05905416e-03,-3.30019356e-03,-2.28453827e-03,-1.27167237e-02
4.89165431e-03,-1.10181042e-02,-1.64917436e-02,-3.37522600e-02,-2.61101189e-02,1.77621769e-02,-2.19239892e-02,7.04738218e-03,3.04561315e-03,1.82544234e-04,-3.79667054e-03,1.59425126e-03,-1.25189868e-02
-1.34174985e-02,-1.13422686e-02,1.19497586e-02,-3.50715619e-02,-1.17511570e-02,2.28420071e-02,-8.16306637e-03,2.58414846e-02,1.46405982e-02,3.69369859e-02,-6.00412254e-03,7.54217712e-03,7.53543157e-03
9.51784401e-03,3.51949624e-03,2.09642022e-02,-1.17468231e-02,1.45787957e-02,-5.65564925e-03,-3.20466972e-03,2.85790822e-02,1.96889046e-03,1.66910663e-03,1.94431408e-03,-3.49952232e-03,-3.60294141e-03
1.34757181e-02,1.01234715e-02,-1.68317780e-02,-4.52368204e-03,1.56715548e-02,-3.29389940e-02,-6.13783008e-03,-4.11706866e-03,-2.55316202e-02,-2.20329879e-02,2.31194256e-02,-1.01718693e-02,3.85851281e-03
1.25510356e-02,-1.57263122e-02,5.42875142e-05,1.44127873e-02,4.36119232e-03,-1.01383399e-02,-4.65936098e-04,-9.89424134e-03,-4.52546293e-02,6.20523275e-03,2.35819440e-02,-1.32046955e-03,1.89373285e-03
1.31375080e-02,-3.10284910e-02,1.23070991e-02,1.15370693e-02,-8.60154944e-03,5.43043759e-03,2.31842716e-02,-5.75127280e-03,-2.59561115e-02,-3.67563452e-03,-7.52916351e-03,2.10311837e-02,3.11898901e-03
6.16316666e-03,9.29636885e-03,-1.19356171e-03,1.80338619e-03,-2.43060425e-03,-1.62003493e-02,2.32592289e-02,-1.10215554e-02,-1.34104654e-02,-2.20920792e-02,-1.89235161e-02,2.66053368e-02,1.66863143e-02
-5.02124559e-03,2.33123090e-02,-1.38925695e-02,1.59548718e-02,2.07072570e-02,-8.01587087e-03,3.60941610e-03,-3.91095357e-02,-9.34269615e-03,-9.09421019e-03,-3.07562802e-02,6.86089429e-03,4.58349159e-03
-1.10032103e-02,-9.10223391e-03,-2.01070117e-02,3.17863532e-03,1.90627256e-02,1.77291803e-02,2.31404833e-02,-6.69440357e-03,-5.49223943e-03,-4.29167673e-03,-2.58573160e-02,-4.54375160e-03,-1.32132220e-02
8.30724644e-03,-1.23411342e-03,-2.58839870e-02,-1.67027310e-02,-1.39307002e-02,1.45933741e-02,5.91547750e-03,-2.84300039e-02,-1.77515670e-02,-1.18061284e-02,-9.61418789e-03,-7.50432597e-03,-1.66092630e-02
-1.25667583e-02,-7.25399333e-03,2.59020950e-03,1.60333806e-02,-1.58334112e-02,3.40219651e-03,1.21317264e-02,-8.13114306e-03,-1.73138652e-04,1.16946801e-02,-6.75610706e-03,-1.85058176e-03,2.66366026e-02
-2.75547440e-02,-2.01838665e-02,-2.47494006e-04,2.69122169e-02,3.42025535e-02,1.33470734e-03,4.58736669e-03,1.36805629e-02,2.74446437e-02,8.42766917e-03,-7.63379204e-03,-4.55063926e-03,2.64402899e-02
-2.00292376e-02,-8.67729125e-03,-5.93128990e-03,2.27392776e-02,3.17516939e-02,1.21876813e-03,-2.03634735e-02,-1.39560720e-02,6.11904508e-03,-7.63363379e-03,1.64884751e-02,-2.49325085e-03,-2.58440746e-03
7.15526030e-03,9.12178538e-03,2.64287645e-02,7.18925845e-03,-2.94459345e-02,-2.10018622e-03,-8.47267757e-03,1.73666824e-02,7.85710381e-03,2.39089423e-02,2.06283024e-02,-1.61814196e-03,-1.19116121e-02
3.81373124e-02,7.79635583e-03,2.08280847e-02,-1.24993542e-02,-3.05275848e-02,-5.62598767e-03,7.28877896e-03,2.30966800e-02,1.92413586e-02,5.32920617e-03,-1.52806955e-02,-1.03966750e-02,-1.72873059e-02
3.28442223e-02,-1.62161225e-03,-2.20682150e-02,-1.74634609e-02,5.65764994e-05,4.97759970e-03,2.66146137e-02,3.85570564e-02,1.27770512e-02,-1.68596676e-02,1.27521863e-02,7.13080358e-04,-2.64555206e-03
1.27199251e-02,2.22011601e-02,-2.79005267e-02,-3.02379550e-02,-1.74258725e-02,5.20673627e-03,-3.05328370e-02,7.69708695e-03,5.26420691e-03,-6.24253600e-03,4.21138851e-03,-1.01975060e-02,4.73162046e-03
-1.25761461e-02,1.69079841e-02,-7.44676488e-03,-3.04885455e-02,-9.09915021e-03,2.26938228e-02,-2.14183144e-02,2.16653494e-03,8.95710597e-03,-1.46344820e-02,-1.87238652e-02,-2.10816182e-02,-1.49159603e-02
4.54865426e-05,1.05654483e-02,-1.38237169e-02,-3.60603571e-02,-6.18483914e-03,2.96585965e-02,5.14711686e-03,8.36145490e-03,-6.74641633e-03,-2.14994763e-03,5.77619332e-03,-2.79477053e-02,-3.24353895e-02
-1.24776063e-03,1.43640290e-02,9.79374174e-03,8.00214009e-03,-9.85120693e-04,-1.57721471e-02,-1.88448302e-02,-7.35395095e-04,-1.54890688e-02,8.18335442e-03,1.54492583e-02,-1.77299623e-02,-3.09687665e-03
