% normalize=-1
% resample=no
% samplerate=44100
% version=0.64
% yaafedefinition=MFCC blockSize=512 stepSize=256 > Derivate DOrder=1
2.37393201e-01,3.40193077e-02,5.54774735e-02,2.23836995e-02,2.28365189e-02,2.62067115e-02,-3.07905184e-02,7.26853041e-04,3.90253799e-02,2.42487840e-02,2.51912691e-02,2.26458893e-02,2.68213176e-03
4.17718056e-01,1.61743447e-02,8.51882925e-02,-3.18156882e-02,7.21423331e-03,4.07188278e-03,-3.18628522e-02,8.35715337e-03,4.10326083e-02,1.31209596e-02,4.75127935e-02,4.45507453e-02,8.12617012e-03
5.74824297e-01,2.98001044e-02,1.11616900e-01,-8.30060586e-02,3.18021972e-02,1.04681668e-02,-3.27933562e-02,1.76689191e-02,3.82752999e-02,-1.65629051e-02,5.33054268e-02,5.90615779e-02,1.31693089e-02
6.55012107e-01,3.09359698e-02,1.61252389e-01,-1.04479037e-01,9.02750106e-03,-6.51941315e-05,-1.30772736e-02,2.96626736e-02,2.55663811e-02,-3.18286879e-02,6.02228315e-02,7.66124561e-02,2.19790038e-02
6.61934120e-01,-6.47753422e-03,1.55128108e-01,-1.33116602e-01,2.52520416e-02,-2.48609007e-02,-2.59103262e-02,2.79589317e-03,1.95769848e-03,-1.98612744e-02,4.78400193e-02,8.63889650e-02,3.90895212e-02
6.17402022e-01,-1.88378279e-02,1.43912995e-01,-1.11521841e-01,8.42024698e-03,-1.84980810e-02,6.15797215e-03,5.96529787e-03,-1.69573716e-02,-1.67129128e-02,3.59661141e-02,7.08861443e-02,4.12124296e-02
4.87341944e-01,-6.06017327e-02,8.60960424e-02,-8.30958888e-02,9.90676416e-03,-1.47475634e-02,5.50930831e-02,1.98420671e-02,-1.95180935e-02,-4.83478580e-03,2.05672548e-02,2.99710425e-02,3.69455215e-02
3.44877544e-01,-7.60371992e-02,4.85936312e-02,-4.71878856e-02,1.82960855e-02,-8.27932861e-03,4.71729723e-02,2.76571349e-02,-6.98402352e-03,1.20819793e-02,-7.67936535e-03,-1.56040159e-02,7.66092839e-03
1.11032893e-01,-7.95154780e-02,1.45394558e-02,3.42108658e-02,-8.90311396e-04,1.03498260e-02,3.79823713e-02,-1.74275682e-03,-3.58354440e-02,1.76988551e-02,1.03990390e-02,1.74120601e-03,3.86858460e-02
6.40043207e-02,-7.94550382e-02,-2.20693882e-02,7.04993392e-02,-1.37152927e-02,-6.24767026e-03,1.81485463e-02,-6.53156983e-03,-2.88616755e-02,2.94699887e-02,6.91108485e-04,-2.57407774e-02,3.97410589e-02
4.05957498e-02,-7.81677476e-02,-4.29528679e-02,5.56294696e-02,-1.43593095e-02,-1.24631410e-02,1.57209827e-02,-9.14631290e-03,-2.00576578e-02,2.92317866e-02,4.25121082e-03,-2.64813566e-02,2.69099748e-02
2.91255962e-02,-4.66635107e-02,-5.90886637e-02,2.82305205e-02,6.11820922e-03,-1.86603600e-02,2.84447833e-02,6.68899626e-03,-1.06849854e-02,1.89908446e-03,-2.48294404e-03,-1.97976209e-02,1.78055840e-02
2.41070263e-02,-1.68516431e-02,-3.18695309e-02,2.69317690e-02,-2.34218629e-03,-3.89300318e-02,5.23029349e-02,1.72088199e-02,-1.45286231e-02,-9.11218627e-03,-3.99993155e-03,-9.93667257e-04,7.75849858e-03
8.39177599e-03,-1.51747068e-02,-2.01981234e-02,-2.26355564e-02,-4.51281123e-04,-5.42271153e-02,3.66024478e-02,-1.41744794e-02,-1.64676691e-02,6.43930572e-03,-2.32037087e-02,2.77315493e-02,-4.12461723e-03
-1.89429646e-02,1.86383093e-02,-1.32086131e-02,-4.99246701e-02,-9.87425610e-03,-2.70103868e-02,3.26141195e-02,1.19774291e-02,1.84433501e-04,1.19590172e-02,-2.35904496e-02,2.98588232e-02,-2.15548788e-02
-4.90000542e-02,2.72184905e-02,1.50701654e-03,-5.58318040e-02,3.03885677e-02,1.31565216e-02,5.99374275e-02,-1.30771350e-03,1.37456662e-02,-3.99292409e-03,-3.61252778e-02,-1.87651774e-02,-3.58468755e-02
-1.06261294e-01,2.44280590e-02,3.64160314e-03,-8.39025289e-02,2.71024135e-02,3.21568111e-02,1.96483135e-02,-2.93997856e-03,2.77385280e-02,-1.09744775e-02,-3.88222057e-02,-6.72789032e-03,-2.77616791e-02
-9.86802179e-02,3.90387285e-02,5.29715778e-02,-7.70327329e-02,-1.44252288e-02,4.63016893e-02,2.52616602e-02,4.16263419e-02,4.13487429e-02,-1.67665859e-02,-2.01757176e-02,-9.49249589e-03,5.86364679e-03
-7.96137312e-02,1.70535861e-02,3.26619981e-02,-7.17887470e-02,-4.47536584e-02,4.19987074e-02,4.40751364e-03,3.10115756e-02,1.39970144e-02,-4.57429462e-02,-9.96465292e-03,-1.19497990e-02,2.63969312e-02
-8.54562692e-02,-1.92492239e-02,1.04555105e-02,-4.98148257e-02,-3.04899832e-02,5.09993335e-02,6.00110724e-03,3.87999929e-02,3.85911293e-02,-3.54258099e-02,-9.82291998e-03,4.67021502e-03,3.68044791e-02
-5.80525335e-02,-1.89874831e-03,1.60162398e-03,-1.71229450e-02,-1.48498833e-02,4.75554275e-02,2.16689695e-02,6.04846963e-02,2.74136215e-02,-4.44358091e-02,-1.00804893e-03,-1.56003826e-02,1.98251203e-02
-1.96456706e-02,-2.76405137e-02,-2.72457970e-02,1.26882038e-02,8.11211468e-03,1.37069969e-02,2.24582288e-02,5.87810840e-02,1.60906270e-02,-4.38353815e-02,-2.10766281e-02,-3.37005637e-03,2.41501432e-02
2.83555174e-02,-2.43632064e-02,-2.74427758e-02,5.63884211e-02,6.15979409e-03,1.81392640e-04,4.48566056e-02,4.13552400e-02,4.04994066e-03,-4.47822137e-03,-4.47870151e-02,2.13467739e-03,-2.66287646e-03
4.92147968e-02,3.92093592e-03,-3.00700578e-02,4.96384860e-02,-3.65705033e-02,-2.28741380e-02,3.91059827e-02,4.97236515e-02,2.84464728e-03,1.55658104e-02,-5.05834814e-02,5.02195231e-03,-3.11827069e-03
6.58147182e-02,2.04959280e-02,-1.96110291e-02,5.68031277e-02,-2.01685056e-02,-3.68686677e-02,4.06455397e-02,-4.79116505e-05,-2.03163931e-02,-4.84375911e-03,-6.13057110e-02,-7.41182152e-03,-6.00990965e-04
1.22926360e-02,2.34797795e-02,-7.62802452e-03,1.90583280e-02,-6.08214596e-03,-1.25597577e-02,2.40787289e-02,9.99145620e-03,-9.21883238e-03,3.42209060e-02,-4.63477204e-02,-4.25128291e-04,-7.79674486e-03
2.19990646e-02,6.34330793e-02,1.94944688e-02,-2.53068691e-02,-2.13238200e-03,-3.37380888e-02,-5.57625837e-03,2.85962842e-02,-2.14727713e-02,2.99196411e-02,-3.46376112e-02,6.56177732e-03,-3.19493491e-03
5.41366566e-02,7.73848715e-02,3.30907296e-02,-2.79703561e-02,1.79762880e-03,-2.77209280e-02,-2.51245152e-02,-2.20107351e-02,-4.42287692e-02,-9.87602959e-04,-5.17799946e-02,-2.14204173e-04,-3.38481554e-03
5.31596736e-02,-1.08280840e-02,2.69369348e-02,-5.43736031e-03,2.35203187e-03,-2.55696898e-02,-2.29718184e-02,-5.12057561e-02,-2.43113516e-02,1.66590793e-02,-4.16841758e-02,-4.57701204e-03,-4.56120255e-03
-1.23500649e-01,-6.10281897e-04,-4.55234049e-02,6.41594094e-02,1.61921234e-02,-3.17461355e-02,-3.41427649e-02,-8.94467010e-02,-1.55504240e-02,2.15514415e-02,-1.63123938e-02,-8.52517585e-02,-4.46733687e-02
-2.23442184e-01,-1.38881468e-02,-7.09106741e-02,1.06659335e-01,4.51395144e-02,4.06411055e-03,-4.81755085e-02,-9.03129100e-02,8.23517346e-03,2.24893077e-02,-1.37019896e-02,-6.58957260e-02,-2.83795250e-02
-2.82752165e-01,1.10346082e-02,-6.95387056e-02,1.96050987e-01,8.55151608e-02,5.53990747e-02,-3.39888998e-02,-8.59167030e-02,3.80557429e-02,4.79982220e-02,1.66390523e-02,-9.01885085e-02,-6.16995404e-02
-3.15091621e-01,6.01404615e-02,-3.31129769e-02,2.12646291e-01,4.83390485e-02,2.60305627e-02,-2.44464596e-02,-8.30344610e-02,5.23431081e-02,3.82634073e-02,1.64224687e-02,-8.48685431e-02,-2.93832518e-02
-2.99703113e-01,5.76622169e-02,-6.58621333e-02,1.88331886e-01,3.24641659e-02,1.36414635e-02,-1.50958300e-02,-7.33365906e-02,4.37533956e-02,-1.02013386e-02,1.64427587e-02,-6.26974532e-02,-2.58159683e-02
-2.99501157e-01,9.02254387e-02,-5.59895814e-02,1.35097306e-01,1.05580035e-02,2.62122756e-02,6.81797963e-03,-2.51338937e-02,4.12387830e-02,6.85980067e-03,4.08760091e-02,-2.90323917e-02,-1.54589587e-02
-2.06922308e-01,1.50615163e-01,-3.49857660e-02,6.26881531e-02,4.40704853e-03,1.86673738e-03,-7.56943033e-03,2.27597595e-02,-1.42170444e-02,-2.76942453e-02,4.36807340e-02,1.03977872e-02,-1.71398930e-02
-7.15070288e-02,1.73453320e-01,-1.36523202e-03,2.34456870e-03,-2.72025974e-02,-1.53945987e-02,2.02671014e-02,1.71032008e-02,-3.21406977e-02,-6.14076697e-02,1.78271926e-02,5.93947583e-02,8.34699997e-03
1.38170152e-01,1.30883066e-01,8.33944521e-02,-4.83577107e-02,-2.46532036e-02,-2.27223579e-02,3.01617682e-03,1.12952600e-02,-3.87361727e-02,-4.05845027e-02,1.92485140e-02,8.80485575e-02,8.69607229e-03
1.03686225e-01,6.74844422e-02,3.56832092e-02,-7.29698595e-02,-4.47543701e-02,-3.14125376e-02,1.54306308e-02,-2.25924511e-02,-5.05990027e-02,-1.45536412e-02,3.11015970e-02,1.91667879e-02,-1.88872635e-02
1.25284473e-01,2.60187788e-02,1.16320668e-02,-1.05088051e-01,-3.32250872e-02,3.12561567e-04,8.14744035e-03,-1.32548494e-02,-4.07905860e-02,1.37009057e-02,4.42988970e-03,2.23917677e-02,1.17879977e-02
9.31670743e-02,2.67125848e-04,2.21216508e-02,-4.22330561e-02,-4.45162815e-02,1.42193127e-02,1.95498956e-03,1.67638440e-02,-4.23859781e-02,1.34994824e-02,-7.25787155e-03,-2.00888200e-02,1.41608749e-03
6.13853679e-02,-1.26620695e-02,4.76961624e-02,-1.27788891e-02,-4.69035717e-02,-1.72671344e-02,-9.37573010e-03,4.53382775e-02,-2.03764711e-03,2.41274714e-02,-2.11612247e-02,-3.86348832e-02,2.74927062e-02
9.05470114e-03,-7.38056776e-02,2.82340885e-02,-9.69370351e-03,-4.35903523e-03,7.53460884e-03,-2.32930345e-02,3.37845328e-02,-1.41381114e-02,2.19200185e-02,-5.65531319e-03,-3.04712500e-02,6.09758507e-04
-2.02139834e-02,-6.94618632e-02,-1.07341600e-02,-7.10320920e-03,-5.19460361e-03,1.59502646e-02,-4.62324510e-02,4.20246714e-02,1.24137109e-02,1.73714797e-02,-2.69880002e-02,-1.88110842e-02,3.88090845e-02
2.85264662e-02,-6.60114053e-02,-3.40615020e-02,1.00333634e-02,-2.05999342e-02,9.63801521e-03,-2.65900133e-02,5.42436811e-02,-4.14570350e-03,-1.32698308e-02,-2.24678748e-02,-2.31007846e-02,1.66890858e-02
8.70455883e-02,-4.62301160e-02,-4.36383015e-02,3.93688519e-02,-3.72115696e-02,-2.17577691e-02,-2.70483751e-02,1.82120783e-02,-1.56865821e-03,-4.89978917e-02,-6.03818626e-03,-2.28444521e-02,-9.30700570e-04
1.19393985e-01,-3.17216517e-02,1.35914186e-02,5.94559748e-02,-1.84509645e-02,-8.02985703e-03,-1.81260902e-02,2.64946075e-02,2.99920822e-02,-2.81996765e-02,1.86806110e-02,2.75798941e-02,-2.60233077e-02
1.37019244e-01,-4.73219093e-02,2.61961841e-03,3.56086472e-02,-3.02508977e-02,-4.00689862e-03,-7.90044335e-03,-1.46918859e-02,2.34057951e-02,-2.52430612e-02,4.54843348e-02,5.03574525e-03,-5.33828775e-02
1.83511311e-01,-2.02928144e-02,-5.69258812e-03,-1.38528417e-02,-1.53587264e-02,9.07579205e-03,-8.40741169e-03,-3.36751287e-02,3.38434655e-02,-1.19241600e-02,3.92222694e-02,1.00260627e-02,-4.66494996e-02
1.17988460e-01,-5.04459616e-02,-2.40155376e-02,-8.35495552e-03,-1.76408779e-02,7.86897227e-03,-1.14269534e-02,-2.11014726e-02,-1.15749475e-03,-5.64097829e-02,6.70418368e-03,8.77679811e-03,-4.15704086e-02
8.50894092e-02,-2.77858832e-02,-1.11473732e-02,-6.65571964e-03,-2.43067062e-02,-2.02957940e-02,-3.82771797e-02,-3.33790772e-02,1.91012696e-02,-4.01598056e-02,-4.32596226e-03,1.94562375e-02,-2.68097967e-02
7.57358759e-03,-2.92250901e-02,-1.87963817e-02,-3.34126806e-02,-2.60872730e-02,-1.55063756e-02,-1.15315051e-02,-1.95871520e-02,1.12032293e-02,1.14268619e-02,2.57833650e-02,4.87596851e-02,1.67841985e-03
-8.02032153e-03,1.57033299e-02,-8.79347772e-03,-3.00750458e-02,-6.35976011e-03,-1.29314619e-02,1.10168811e-02,-1.20788942e-02,-6.57985351e-03,2.46378951e-02,-1.30837146e-02,5.06382627e-02,3.11841435e-02
-3.53835214e-02,-2.80619029e-02,-4.77386374e-02,-3.82680799e-02,-2.23343295e-02,2.15974472e-02,4.50917292e-02,6.66727135e-03,-1.22937817e-03,3.81030089e-02,-1.45449392e-02,4.61652142e-02,5.13228467e-02
-7.13896050e-03,2.09744108e-02,-4.04925112e-02,-6.01750064e-03,2.02838509e-02,4.32097963e-02,3.86653390e-02,-8.97218777e-03,-5.62180925e-03,4.12359133e-02,2.77683973e-03,3.31972618e-03,5.46517334e-02
2.03152839e-02,1.26987621e-02,-2.13882759e-02,-1.26490327e-02,3.82458978e-02,5.87144494e-02,5.89049611e-02,1.67236148e-02,6.36949952e-03,5.58251157e-02,1.24834284e-02,-2.50365217e-02,4.99903003e-02
5.22819149e-02,-2.51464350e-02,-2.60036801e-02,-2.14426668e-02,5.84971476e-02,5.10794295e-02,1.81823861e-02,2.17470633e-02,5.38691384e-03,4.44869276e-02,5.19226150e-02,6.75211001e-03,3.29896942e-02
1.01065289e-01,-1.50407204e-02,1.40587371e-02,-1.30045876e-02,4.76174322e-02,2.80099287e-02,-1.37343202e-02,2.52915715e-02,2.79416780e-03,5.62549518e-02,5.35903260e-02,-5.74845448e-03,2.39751262e-03
8.02412831e-02,-6.88299840e-02,3.44320231e-03,-1.93650333e-02,4.68345226e-02,4.26874990e-02,-3.69806467e-03,2.12241578e-02,-1.21644681e-02,6.42439517e-03,3.12773421e-02,3.91622326e-03,-7.64837192e-03
3.33291119e-02,-8.44105387e-02,1.63661286e-02,2.95492171e-02,5.87536368e-02,3.92182135e-02,-2.13009499e-02,-1.02924017e-02,-3.85112211e-02,-8.62195228e-03,2.82424050e-02,1.69978278e-02,-2.25293175e-02
1.13516646e-02,-7.31089336e-02,1.74168443e-02,2.86921169e-02,7.04325682e-02,3.92556424e-02,-1.61634352e-02,3.91427719e-03,-1.43998882e-02,1.94903936e-02,3.48594256e-02,5.63948570e-02,-2.91349598e-02
5.37496371e-02,-9.77366538e-03,4.95199528e-02,3.98241510e-02,5.83331338e-02,-3.84960718e-02,-2.94736118e-02,-2.78400871e-03,-3.57882530e-02,1.15504355e-02,1.09756901e-02,3.95527563e-02,-5.00587056e-02
-7.76755283e-02,-2.08177788e-02,1.31079410e-02,5.05798488e-03,-8.91436779e-03,-1.55404480e-02,-1.72816648e-02,-1.49315630e-02,-4.26380238e-02,2.14921224e-02,9.58281981e-03,9.15310430e-04,-6.90155639e-02
-1.52777736e-01,7.48780341e-02,4.48631631e-02,1.83287165e-02,-1.00628486e-02,-9.05909816e-03,7.88900259e-03,-1.84755596e-02,-3.26156955e-02,1.32632470e-02,-1.09984410e-02,-4.64724893e-02,-5.14586103e-02
-8.34568864e-02,1.73993571e-01,7.93015118e-02,2.09623391e-02,-6.80713790e-03,-2.14316892e-02,1.75767246e-02,-2.08342227e-02,-5.38864346e-03,9.66823821e-03,-3.93507171e-02,-9.22352248e-02,-1.99950476e-02
-3.00639477e-02,2.44006713e-01,7.83914827e-02,3.49800943e-02,3.91790342e-02,2.47505498e-02,1.58114547e-02,2.08549407e-03,2.52492509e-03,-2.07893456e-02,-9.11298583e-03,-5.09024769e-02,-6.40745230e-03
-7.13258157e-02,2.52405757e-01,1.05923221e-01,5.25578234e-02,5.09227635e-02,2.95932242e-02,2.38978628e-02,2.23841919e-02,1.51109446e-02,-7.46063195e-03,-5.73045152e-03,-5.51146215e-02,1.06019611e-02
-8.78097972e-02,2.31196944e-01,6.93040635e-02,1.49691857e-02,2.46990726e-03,3.54170714e-02,2.84232973e-02,1.30073672e-02,5.06068559e-02,-2.53579575e-02,-3.68673444e-02,-4.87405702e-02,8.03540252e-03
-1.23355999e-01,1.85970071e-01,4.42957288e-02,6.71211183e-02,1.43834215e-02,5.70635650e-02,4.03098940e-02,2.36097721e-02,3.98602248e-02,-4.82290352e-02,-5.84040921e-02,-4.97452165e-02,1.70094332e-02
-9.70843716e-02,1.28056780e-01,1.63298413e-02,8.08296286e-02,2.88653378e-02,6.82603115e-02,6.38146787e-02,9.56438232e-04,3.14443366e-02,-3.73651182e-02,-8.40033730e-02,-3.71339305e-03,-4.44812412e-03
-3.87483748e-02,4.63084914e-02,-4.76111178e-03,6.56752543e-02,4.83984923e-02,1.50391219e-02,3.42698576e-02,1.73397424e-02,3.43495335e-02,-4.51223889e-02,-6.92520193e-02,4.55839512e-03,5.09216584e-03
-5.78911548e-02,-3.62169928e-02,-6.04454206e-02,2.05502542e-02,-1.38322515e-02,-1.40141320e-02,1.40479042e-02,1.26795717e-02,1.19997343e-02,-3.98646515e-02,-4.16260227e-02,6.51791941e-03,-9.18338183e-03
-4.07560905e-02,-9.27356576e-02,-4.76995653e-02,-1.42511571e-02,-2.91790245e-02,-4.09940544e-02,-6.38409167e-03,5.18131588e-03,3.23436585e-03,-4.41968340e-02,-2.35963422e-02,4.10925328e-05,3.19434421e-03
7.86218051e-02,-1.31447737e-01,9.67580013e-03,1.09709785e-02,-1.72092465e-02,-3.92498548e-02,-1.72158666e-02,1.17650357e-02,-1.83999885e-02,-3.10186557e-02,-2.56510472e-02,2.05208630e-02,-4.69463546e-03
1.36256935e-01,-1.09263230e-01,1.69342319e-02,1.38427118e-02,2.38360373e-03,1.95863400e-03,-8.07597442e-03,4.43828102e-02,-1.21083114e-02,-4.19741033e-02,2.12132270e-02,3.60307319e-02,2.71446722e-02
1.27678343e-01,-1.23087113e-01,7.41953196e-03,-1.42265653e-03,4.81551507e-03,5.42476959e-03,1.70671184e-02,3.32678891e-02,-4.64994408e-02,-3.42995229e-02,4.57937825e-02,4.35784364e-02,5.59049597e-02
1.02348937e-01,-1.53128680e-01,-3.08632205e-02,-6.91863998e-02,-1.70759620e-02,2.30513808e-02,-8.63800528e-03,-3.95886397e-03,-3.25304004e-02,-3.31642212e-02,2.93050949e-02,1.99364162e-02,2.50054157e-02
6.27116875e-02,-1.06706648e-01,-2.77077398e-02,-5.84186728e-02,7.18920681e-03,3.11393219e-02,-2.62895594e-02,1.83026563e-03,-1.04524596e-02,-3.23308402e-02,2.37010357e-02,1.72532788e-02,5.28173022e-03
8.61088876e-02,-5.88177650e-02,-2.95535703e-02,-3.15182805e-02,2.98954966e-02,6.62347248e-02,5.01627737e-03,-4.55689742e-03,6.80175506e-03,-4.02856249e-02,-2.55040448e-02,-5.38639435e-04,-1.05685554e-02
8.08571405e-02,-3.27171035e-02,-3.02382159e-02,-6.21729822e-02,1.32973554e-02,6.71114321e-02,9.09773499e-03,1.71210908e-02,2.40700903e-02,-3.93246485e-02,-1.83348217e-02,1.14739845e-02,-3.19872218e-02
8.61879807e-02,-1.62319603e-02,-2.80186762e-02,-4.41291807e-02,-2.23950408e-02,3.50188580e-02,1.61156313e-02,2.10001699e-02,3.39977340e-02,-1.81299393e-02,-1.91991098e-02,2.45855997e-02,-3.42376838e-02
1.12907194e-01,2.82383777e-02,1.30116346e-02,-3.62130520e-02,-1.08774934e-02,1.16916739e-02,1.58446485e-02,2.42554558e-03,1.65231568e-02,-3.62419628e-03,1.79011192e-03,3.85623330e-02,-1.01964758e-02
1.48559369e-01,5.41312153e-03,6.38305987e-02,-1.21132318e-02,-2.60982614e-02,-2.05480621e-02,1.80398024e-02,1.61277121e-02,-9.72224151e-03,1.03210803e-02,-2.21103370e-02,2.08722702e-02,-3.72347512e-02
1.10491327e-01,-4.00507450e-02,3.95311441e-02,-2.86942310e-03,-2.82940814e-02,-3.15727613e-02,2.36215471e-02,4.00974372e-02,4.10668607e-03,5.02680505e-02,-6.37986965e-03,2.40444244e-02,1.26599931e-02
6.46843152e-02,-8.67659185e-02,-1.78070712e-02,-1.68867871e-02,-2.80347008e-02,-3.88632082e-02,3.91800018e-02,5.14554799e-02,2.32834264e-03,6.70737788e-02,2.13081003e-02,9.27009768e-03,3.05195592e-02
5.58777054e-02,-1.12546586e-01,-3.25815368e-02,-5.39096898e-02,-2.84486249e-02,-5.83157442e-02,1.37069682e-02,2.52816479e-02,6.91853225e-03,4.42318602e-02,-8.87352358e-03,-1.56791352e-02,3.60412024e-02
5.34825998e-02,-8.20222985e-02,-6.07948093e-02,-7.22205125e-02,-2.20457860e-02,-9.43851025e-02,3.50962606e-03,9.49739181e-03,-1.21741738e-02,4.62869212e-02,-1.02944927e-02,-1.47640613e-02,2.96685617e-02
3.02075008e-02,-9.31922168e-02,-5.14939905e-02,-6.50998148e-02,1.30031022e-02,-7.89827417e-02,5.60371692e-03,8.69537635e-03,-1.08689731e-02,2.57763182e-02,-1.47523305e-02,-5.40269163e-02,1.09073457e-02
2.20971004e-02,-6.13118739e-02,-3.89704693e-03,-9.54514249e-02,-3.73776568e-02,-5.95924332e-02,-1.20010318e-02,4.59992644e-02,-2.78165451e-03,-7.20292494e-04,-1.90376609e-02,-2.92320664e-02,3.99453562e-02
2.44393945e-02,1.46474975e-03,4.19288098e-02,-9.96845202e-02,-4.06573034e-02,-4.17405631e-03,5.12839121e-03,2.19882037e-02,-1.88260195e-02,2.46247760e-03,1.55341649e-02,-1.26324430e-02,2.49700365e-02
2.54409756e-02,4.35367472e-02,1.00940086e-01,-4.81954056e-02,-2.17866420e-02,7.77384315e-03,-1.19475351e-02,-7.12516036e-03,-1.99888282e-02,1.89439993e-02,2.81642223e-02,-1.23558670e-02,3.79283963e-02
2.45778734e-02,6.07146263e-02,1.21055417e-01,-1.90558190e-02,-1.98422041e-02,1.91504530e-02,-1.16851864e-02,-3.28899029e-02,5.62695817e-04,9.53905866e-03,3.58945177e-02,-2.26769267e-02,3.66768083e-02
1.79749754e-02,5.34081654e-02,8.32941862e-02,6.00060626e-03,-3.05661537e-02,5.22659226e-02,-1.44992753e-02,-1.00102477e-01,-1.87022905e-02,4.39996938e-02,2.32079670e-02,-1.85643671e-02,3.29111139e-02
-3.41632485e-02,-4.19616367e-02,3.80969089e-03,5.37721377e-03,-1.30800569e-02,3.89435501e-02,-1.21307613e-02,-8.23614333e-02,-6.26532928e-03,5.76669637e-02,4.17255651e-02,-1.70520087e-02,-3.72927921e-03
4.47062111e-03,-9.11287016e-02,-1.47350407e-02,2.76714621e-02,1.70941703e-02,4.90160608e-02,-8.78830415e-03,-6.66402595e-02,4.11188463e-03,3.00966816e-02,2.89909794e-02,1.99262692e-03,-7.93832884e-03
5.83772232e-02,-1.17839510e-01,-6.42725773e-02,6.01236710e-02,5.88477568e-02,5.38747864e-02,3.49608133e-03,-7.09513227e-02,-4.98911188e-03,4.71288621e-02,1.49569769e-03,-1.42175635e-03,-7.55616338e-03
4.22899627e-02,-1.74941784e-01,-1.07625352e-01,6.76490847e-02,7.84563073e-02,3.94346306e-02,6.85356303e-03,-1.01538988e-01,-2.11209744e-02,5.93987945e-02,-1.68745853e-03,-1.57051029e-02,-2.14301139e-02
3.07610366e-02,-2.07715440e-01,-9.70376811e-02,3.69731769e-02,6.70312809e-02,2.19708929e-02,-4.83546523e-03,-6.13425906e-02,-1.45456107e-02,5.76462499e-02,-4.03830911e-02,-1.43137018e-02,1.23366155e-02
2.15731785e-02,-1.55207143e-01,-1.07131729e-01,-3.79936976e-02,5.06137053e-02,4.28405794e-02,-1.11323236e-02,-5.98997023e-02,-1.19191526e-02,7.25763835e-02,-1.11465802e-02,2.57492578e-03,-5.41092879e-03
3.44976240e-02,-1.27165113e-01,-7.00487303e-02,-4.74121817e-02,6.06446697e-02,4.32495793e-02,-1.44337165e-02,-3.56030597e-02,2.06024877e-02,9.12464065e-02,-2.07054530e-02,-2.38756808e-02,2.57271548e-02
4.31634921e-02,-9.13072575e-02,-7.42027467e-02,-3.74451146e-02,7.89090373e-02,3.83075442e-02,-9.45252447e-03,-1.67317674e-02,3.83638790e-02,8.16371766e-02,2.36054921e-03,-2.46281186e-02,3.88037123e-02
2.26926535e-02,-1.78765149e-02,-6.05921140e-02,-7.14459027e-03,7.55101538e-02,5.67294978e-02,-3.53829780e-03,-2.61934769e-02,4.56289260e-02,6.17611009e-02,-4.72982547e-04,-3.55343024e-02,2.92533007e-02
-8.21060789e-03,-3.90395626e-03,-6.55195699e-02,-1.72892534e-02,4.07237136e-02,-7.18072918e-03,-2.23383627e-02,-7.38617454e-03,4.42458775e-02,3.22845546e-02,-2.63561356e-03,-2.10210703e-02,8.24632541e-03
1.84637323e-02,-7.60800380e-03,-4.67869934e-02,-6.93780139e-03,1.07452070e-02,1.15499751e-02,-2.58128528e-02,1.20357442e-02,2.73414265e-02,1.76392809e-02,2.70262795e-02,-1.09031193e-03,-3.87809358e-03
4.34781072e-02,-3.03952505e-02,-2.80785363e-02,8.78522255e-03,-6.63136213e-03,4.17515139e-03,-1.89722047e-02,2.78046531e-02,-5.81377305e-03,1.93014569e-03,3.14520983e-02,-1.52704132e-02,-9.23218740e-03
6.67049047e-02,-1.70210776e-02,-1.59930178e-02,5.10897315e-02,-7.62149430e-03,-1.44400610e-02,-1.91439568e-03,8.06007877e-03,-3.12971041e-02,-2.99369583e-02,1.60025516e-02,-7.59885607e-03,-1.17532287e-02
7.27679654e-02,-4.13529615e-02,7.87827045e-03,4.37160664e-02,2.10799014e-03,-2.34716392e-02,-2.59108935e-02,3.07023822e-03,-4.20395493e-02,-4.72091232e-02,2.35447413e-03,5.80723988e-03,-9.53988964e-03
4.04296941e-02,-3.22286176e-02,1.58613475e-02,1.73552029e-02,-6.82686144e-03,8.94343764e-03,-4.12451978e-02,-9.61920274e-03,-1.55047588e-02,-5.96426570e-02,1.75232564e-02,2.08213830e-02,-1.99789127e-02
2.84067460e-02,-2.57516344e-02,3.15895308e-02,3.28318416e-03,-7.75778768e-03,2.30469254e-02,-4.64999796e-03,-3.71235510e-02,7.43210687e-04,-4.04901799e-02,1.38665190e-02,1.20393669e-02,-2.06756359e-03
-3.40655171e-02,-4.30550252e-02,-1.34010568e-02,-5.19525426e-02,-2.52463388e-02,-2.15663053e-02,-2.43255611e-02,-4.08102068e-02,-1.53806211e-02,-3.03109459e-02,3.11681129e-02,2.22682215e-02,-1.11793081e-02
-5.34917310e-02,-6.12133164e-03,-1.94999475e-02,-2.88153743e-02,1.71743730e-02,-1.62583290e-02,-1.59973802e-02,-1.38410575e-02,-2.64425765e-02,-3.54233287e-02,1.78948944e-02,-1.41794731e-02,-1.32483617e-02
-4.87068924e-02,1.35069239e-02,-1.01372999e-02,3.31601549e-03,3.05454509e-02,-3.03471689e-02,3.77994125e-03,-1.58859081e-03,-1.45598862e-02,-1.99874746e-02,-2.13068559e-02,9.57272680e-03,-6.81704264e-03
-5.90339127e-02,3.04805265e-02,-5.22362457e-04,2.55112156e-03,2.30365263e-02,-2.53200473e-02,6.29382673e-03,1.07337885e-02,-1.01848846e-03,1.06019147e-02,-1.70378734e-02,1.30308419e-02,-1.29094696e-03
-6.60299675e-02,9.53442247e-03,-7.70490122e-03,-4.71604036e-03,1.93432288e-02,-2.54903960e-02,2.78626231e-02,4.07080060e-02,-8.31762607e-03,3.61988206e-02,-7.29908449e-03,-9.60910830e-03,-1.37581542e-02
-5.79424214e-02,9.63445250e-03,-3.68525268e-02,-9.68837235e-04,-5.63892912e-03,-4.07808852e-02,5.85791355e-03,1.70890679e-02,7.45366352e-03,-1.24003950e-03,-3.84013266e-02,-3.29070693e-03,-3.74633348e-02
-1.28588090e-02,-2.95918112e-03,-1.47188037e-02,1.08435011e-02,-7.99304248e-03,-3.94216406e-02,1.15803582e-03,8.83344319e-03,1.85678330e-02,1.30868683e-02,-5.73831294e-02,2.20273453e-02,-2.93894281e-02
1.88323802e-02,1.69813823e-02,1.00357285e-02,2.08533148e-02,-2.17425652e-03,-1.54546759e-02,-1.07361245e-02,3.44753259e-03,5.94432484e-02,-8.89309987e-03,-2.84548489e-02,4.09657981e-02,-5.97388027e-03
3.86129653e-02,-1.20597568e-02,2.57771508e-02,2.48649356e-02,-5.05147928e-02,-3.64466602e-02,-1.33272617e-02,-1.76307362e-02,4.69668538e-02,-1.01280281e-02,-1.43046688e-02,3.18945406e-02,-1.71140635e-02
-2.19697887e-02,-6.95264847e-02,2.70347170e-03,-2.96824753e-02,-8.44065016e-02,-5.37895107e-02,-2.23103817e-02,-3.65436514e-02,6.53897536e-02,4.57278451e-03,2.43950590e-02,4.84230433e-02,-9.15418422e-03
-7.13680308e-03,-4.84974121e-02,8.95824715e-03,-5.07758454e-02,-5.71936955e-02,-3.17525779e-02,-2.78957934e-02,-1.42826715e-02,4.67471675e-02,1.82339139e-02,2.93145332e-02,1.21711205e-02,2.98383676e-02
2.44593726e-02,-1.05765280e-02,1.72490190e-02,-3.09442386e-02,-5.18001621e-02,-5.27239328e-03,-2.72779114e-02,-1.05034689e-02,1.24426578e-02,1.91519001e-02,7.80558248e-03,1.21338478e-02,2.91040104e-02
2.69132298e-02,1.19604322e-02,2.11509718e-02,-2.95229620e-02,-4.29114932e-02,-7.50402237e-03,-1.85074265e-02,4.35165004e-04,-1.36757828e-02,4.93096004e-02,1.76960043e-02,4.73195675e-03,6.53291717e-02
-1.31414160e-01,9.88632686e-02,4.53266775e-03,-1.55120888e-02,-1.08369834e-02,-8.42860425e-03,2.03995336e-02,6.26498878e-02,-3.65757843e-02,1.80733214e-02,1.24111611e-02,-3.97637677e-02,1.28006494e-02
-1.84092864e-01,2.02158553e-01,1.53108463e-02,4.35550945e-02,-2.15664652e-02,-1.29888995e-02,-2.51361649e-03,4.38169588e-02,-1.75062381e-02,-2.09112062e-02,4.39145131e-03,-5.10125963e-02,-1.47308509e-03
-1.34265447e-01,3.09437963e-01,3.05857968e-02,1.03706966e-01,3.19430535e-02,4.03004652e-02,3.23367250e-02,3.97444560e-02,1.17539899e-02,-1.30956006e-02,-2.18846227e-02,-5.20244872e-02,-3.85716556e-02
-1.32333858e-01,3.96882589e-01,4.86933120e-02,1.57515744e-01,6.10120452e-02,5.31274963e-02,4.79944169e-02,3.49456392e-02,5.13692647e-02,-3.57036673e-02,-5.51904476e-03,-4.30602006e-02,-2.66455848e-02
-1.82406018e-01,3.93616795e-01,3.90503051e-02,1.53870401e-01,3.32461798e-02,5.20786714e-02,2.23866621e-03,2.29914357e-02,2.96889862e-02,-6.22568968e-02,-2.03648063e-02,-4.71092324e-02,-3.98494197e-02
-2.31518131e-01,3.28812591e-01,5.66728681e-03,1.22168633e-01,1.96909683e-02,5.88923709e-03,2.66923906e-02,8.87485403e-03,2.38110940e-02,-3.39356415e-02,1.79668056e-02,-3.97448614e-02,-3.31655412e-02
-1.96447677e-01,2.66578332e-01,-1.69095369e-03,9.17171156e-02,2.40751274e-02,1.25204315e-02,2.23508859e-02,3.22354288e-03,3.14435819e-02,-3.14985619e-02,3.59777650e-02,-1.53920340e-02,-3.25101061e-02
-1.04062389e-01,2.02828776e-01,1.43017805e-02,5.69867976e-02,2.28441960e-02,2.90105723e-02,-1.10285729e-02,-1.55687823e-02,1.42649664e-03,-3.88096332e-02,1.21594278e-02,4.12615152e-03,-3.73605840e-02
-1.32297088e-02,2.93873836e-02,-2.75497115e-02,-8.76130368e-03,3.84050538e-03,4.21018831e-02,-1.65491143e-02,5.97231076e-03,-1.23487759e-02,8.63982138e-03,4.54749808e-02,3.31346684e-02,2.43532194e-02
-6.32643783e-02,-5.80339236e-02,-2.02227346e-02,-6.27562605e-02,6.87686353e-03,2.04118035e-02,-2.34270064e-02,3.72476337e-02,-4.39585180e-02,2.43563370e-03,1.36615275e-02,7.48708976e-03,1.05491604e-02
-8.84561178e-03,-1.04728376e-01,-2.28084862e-02,-7.45869590e-02,-5.69324336e-03,-7.85473691e-03,-2.84413674e-02,1.99339720e-02,-1.05240356e-02,2.30956168e-02,1.84026700e-02,3.97981294e-02,1.61063979e-02
9.48623756e-02,-1.16119270e-01,-1.12426557e-02,-7.18118711e-02,2.65379451e-02,8.63108732e-03,-1.34321251e-02,-1.19715654e-02,-4.40518566e-03,3.17149005e-02,-1.31924792e-02,5.16881683e-02,1.31922178e-02
1.62183967e-01,-1.33919462e-01,2.26207928e-02,-2.44418911e-02,3.20044191e-02,-1.38134678e-02,-1.04451210e-03,-3.65388242e-02,9.73980175e-03,7.84109601e-03,-2.89412473e-02,5.06110988e-02,2.09470693e-02
1.40605954e-01,-1.70483199e-01,1.35454202e-02,-3.05551206e-02,3.46291127e-02,1.75476623e-02,-2.01568065e-03,-4.49752036e-02,8.61059142e-03,-1.12978224e-02,-8.24402362e-02,3.96157315e-02,3.10308989e-02
7.92031801e-02,-2.15205215e-01,-1.89930767e-02,-3.90137952e-02,1.58438825e-03,-4.31444540e-02,1.77621219e-02,-4.76079601e-02,-2.20712160e-02,3.05460602e-02,-4.30054084e-02,4.15507728e-02,4.09734014e-02
8.76785094e-02,-1.52217885e-01,1.43372664e-02,1.09887968e-02,-6.00178708e-05,-3.23496973e-02,-1.11259354e-02,-6.89966179e-02,-3.19070422e-02,-1.77536119e-02,5.27716766e-03,5.45126933e-02,3.52098506e-03
9.95711110e-02,-8.72716311e-02,4.89981355e-02,2.61358303e-02,9.58189319e-03,-2.78898642e-02,-3.94895627e-02,-7.35972825e-02,-3.22942197e-02,-2.44375235e-02,-7.39590628e-03,5.71550250e-02,-4.96771723e-03
8.73858568e-02,-7.23850664e-02,2.51776864e-02,2.16304664e-02,-6.72791939e-04,-1.81267974e-02,-2.28648776e-02,-2.83156915e-02,-4.58166466e-02,-1.47752059e-02,3.15706522e-02,2.89951136e-02,-1.43403309e-02
1.25677485e-01,-5.78484438e-02,4.50648917e-02,5.26244848e-02,-7.25723755e-03,1.12913071e-03,-1.30290132e-02,1.86286084e-02,-6.55360637e-02,-1.09391572e-02,1.84455629e-02,1.31250931e-02,-2.97484101e-02
1.23526165e-01,-1.59964083e-02,3.65853619e-02,2.79423866e-02,-1.62302601e-02,3.09862030e-02,6.71249042e-03,1.93723947e-02,-4.56953056e-02,-5.45602938e-03,2.94294389e-02,-3.43722644e-03,-2.54393435e-02
1.09236106e-01,1.97235318e-02,3.55230262e-02,-1.58341541e-02,-3.04777860e-02,4.75956735e-02,2.30765580e-03,-6.02135330e-03,-4.10585352e-02,-4.17365476e-03,1.45978020e-02,-3.15613421e-03,6.27614943e-03
1.02797072e-01,3.45018664e-02,2.85482821e-02,-2.05021595e-02,-4.12460541e-02,2.61724616e-02,1.35621545e-02,-7.92271757e-03,-1.48343287e-02,-2.56354484e-02,-6.02822155e-04,-1.33980099e-02,-3.34676250e-03
6.36127977e-02,1.77500879e-02,-9.18894137e-03,-2.32172638e-02,-1.60712232e-02,4.36480345e-02,2.88081132e-02,4.44240576e-03,8.22748927e-04,-2.86761260e-02,-3.68611404e-02,-4.61504012e-02,-1.35461289e-02
-6.27198140e-03,-3.04764602e-02,-5.13935626e-02,-4.96663448e-02,-1.87046589e-02,7.93886248e-03,3.64386076e-02,-7.26200245e-03,-1.91870627e-02,1.47323509e-04,-1.29473119e-02,1.34475330e-03,9.71933770e-04
-2.78049068e-02,-1.13039637e-02,-4.68802176e-02,-2.71446369e-02,-2.08272541e-02,-2.76372527e-02,2.79621480e-03,-8.68892504e-03,-6.59248913e-03,-1.97416787e-02,-4.66280779e-04,2.24955135e-02,7.28531431e-03
-3.77028801e-02,7.92457830e-03,-1.54866679e-02,-3.02058649e-02,7.37862549e-04,-5.56858142e-02,-3.55198932e-02,-1.39559853e-02,4.29665421e-03,-1.05785394e-02,6.31839743e-03,3.37437480e-02,2.38013717e-02
-4.10308185e-02,1.64952061e-02,-2.00289954e-03,-1.82661801e-02,2.37057748e-02,-4.85517391e-02,-1.23398289e-02,-1.06645511e-02,7.55398169e-04,6.22292933e-03,1.38855464e-02,2.27252966e-02,1.06885497e-02
-1.86772179e-02,-2.08468990e-02,-1.83902383e-02,6.51918051e-03,2.90010422e-02,-6.61505715e-02,-4.96009387e-03,1.18860476e-02,2.37414456e-02,1.03907493e-02,1.62932003e-02,4.78104171e-02,2.87902086e-03
-1.36990205e-02,1.71102520e-02,4.07366999e-02,1.79528610e-02,4.77687489e-02,-4.87090808e-02,-2.83872814e-02,1.08977240e-02,1.21784561e-02,-9.90426985e-03,4.05821342e-03,1.57941691e-02,2.14439846e-02
-3.61902210e-03,2.08203891e-02,7.20318355e-02,-9.67619584e-03,2.97248506e-02,-3.18375464e-02,-1.79433624e-02,4.09809722e-03,4.89077203e-03,-2.40549816e-03,-1.15208153e-02,8.64853591e-03,4.01099213e-02
-1.76996097e-01,2.80955945e-02,4.57017802e-02,-3.45726373e-02,-6.96044658e-03,-3.87802011e-02,-4.42906555e-03,2.48697004e-02,-4.53893896e-02,-4.75055029e-02,1.69487088e-02,-8.32201891e-03,4.75402353e-03
-2.93008240e-01,3.86543133e-02,2.39133961e-02,-6.11468578e-03,-2.36007235e-02,9.32664677e-03,-2.62467945e-02,3.01725119e-02,-2.60405392e-02,-1.03780630e-02,3.50545519e-02,-6.27231304e-02,-3.30458310e-02
-3.82710445e-01,7.27522414e-02,-1.76323642e-02,-1.29521572e-02,-4.86224685e-02,7.81747867e-03,-1.42394483e-02,6.10310538e-03,-2.07557694e-02,3.03159708e-03,3.98239715e-02,-1.99742400e-02,-1.39657327e-02
-4.01773336e-01,1.15626114e-01,-3.95391494e-02,1.64597374e-03,-5.76194894e-02,-4.25837914e-02,-3.04196270e-02,2.18073124e-02,-1.94446032e-02,-1.21021661e-02,1.33663092e-02,-1.39833354e-02,-2.57750892e-02
-3.77689161e-01,1.21110791e-01,-4.43576820e-02,3.86777507e-03,-8.79646477e-02,-5.48138901e-02,-4.06931335e-02,-2.77582699e-02,-4.24180606e-02,-1.08270934e-02,3.28884200e-02,-9.81854124e-03,-7.21014462e-03
-2.90613375e-01,1.06526892e-01,-4.48415519e-02,7.83919433e-03,-1.07367417e-01,-5.73457330e-02,-5.36209434e-03,-5.31459406e-02,-6.48021035e-02,-3.44430264e-02,8.40045342e-03,-1.57776646e-02,-1.15761267e-02
-1.89286177e-01,8.83115642e-02,-2.13097644e-02,2.32668118e-02,-1.03087187e-01,-3.87067653e-02,1.02902699e-02,-3.57757713e-02,-2.01675268e-02,-2.71729020e-02,-4.23794353e-03,-6.17833106e-03,-6.96158777e-03
-2.35587227e-02,5.94453355e-02,3.69551502e-03,4.93194828e-02,-6.44079686e-02,-5.04652062e-02,-3.06252065e-02,-8.74283251e-03,1.56743856e-02,-3.86457312e-02,-1.61150576e-02,-2.28039188e-02,-2.08458987e-02
1.54563440e-01,2.03672649e-02,5.26257933e-02,6.43362177e-02,-3.14618444e-02,-4.46553943e-02,-5.98263494e-03,-5.79719318e-03,3.59474321e-02,-5.22453643e-03,-5.12939835e-02,-1.83279761e-02,1.60476205e-03
1.37210559e-01,-9.91778050e-03,6.37119684e-02,1.12016833e-02,-3.30861173e-02,-6.75567223e-02,1.25599912e-02,3.43174794e-02,-1.94312625e-03,-4.46170113e-03,-3.39721731e-02,-2.85526101e-02,-1.18616012e-02
1.03069355e-01,-9.99576121e-02,4.13175417e-02,-1.65622379e-02,-2.92527848e-02,-4.40029032e-02,-1.75623099e-02,5.21282277e-02,1.21472404e-02,1.70212119e-02,-2.33987859e-02,-4.28843856e-02,-2.96560103e-02
9.91312440e-02,-8.29783689e-02,6.08608218e-03,-3.86764089e-02,-3.42858514e-02,-1.61106944e-02,1.13952341e-02,6.46568155e-02,6.10795081e-02,4.23656848e-02,-2.71282080e-02,-1.40477324e-02,1.86544213e-02
8.47738867e-02,-6.62343351e-02,1.45924260e-02,-2.39979932e-02,-3.19007194e-03,-3.78859471e-02,-3.57344714e-04,8.24540870e-02,5.83739379e-02,4.63333758e-02,-1.69256222e-02,2.17311832e-03,-2.44641759e-02
3.48402100e-02,-5.33680677e-02,-2.16806810e-02,-5.54685941e-02,-1.77829953e-02,-1.37006309e-02,1.99882023e-02,2.06706945e-02,5.29569802e-02,2.07053082e-02,-1.15047544e-02,1.95989179e-02,-1.20212289e-02
4.26157362e-02,-1.08217082e-02,-2.05433167e-03,-4.95346476e-02,-2.87020220e-02,-5.15538673e-03,5.50762240e-02,-1.57706067e-02,1.47508349e-03,-6.17631944e-03,-4.67361094e-03,6.75603431e-03,-1.61741988e-02
4.10929485e-02,3.21111100e-02,5.99974022e-03,-2.89399811e-02,-4.73125186e-03,6.51017582e-02,3.78615183e-02,-3.42321224e-02,-1.28426323e-02,-1.14429522e-02,2.56328316e-03,2.69903431e-02,-2.21152314e-02
4.10875220e-02,1.71191331e-02,-2.45252975e-03,-2.00769049e-02,1.24504485e-02,4.87228314e-02,9.13251827e-03,-1.73753975e-02,-1.89041324e-02,-2.61369090e-02,3.33166031e-02,3.30529786e-02,-3.80392743e-02
5.08578914e-02,1.17749313e-04,1.79992488e-03,2.34966410e-02,1.97585786e-03,6.12909672e-02,-2.72966988e-03,-1.57282176e-02,-6.97427068e-03,4.68212129e-03,4.37416863e-02,1.58025312e-02,-1.43320321e-02
5.52002313e-02,3.17498960e-02,5.65176806e-02,3.00262809e-02,-8.05613982e-03,2.55273228e-02,-7.83213929e-03,-2.29153116e-02,-1.57367463e-02,3.20451885e-02,5.61123375e-02,1.82876771e-02,1.04627192e-02
7.95213234e-02,-9.16637278e-03,3.62655871e-02,4.41826605e-02,5.34569978e-03,1.76853356e-02,-2.09955857e-02,6.31220952e-03,-2.83141983e-02,-5.95459680e-03,4.28498022e-02,3.72278213e-02,-4.72689231e-03
1.33787357e-01,-2.37186547e-02,2.47287865e-02,4.83810740e-02,1.15675419e-05,-1.25908967e-02,-4.94670930e-04,1.09993331e-02,-2.50570809e-02,-1.97589537e-02,2.34816744e-02,2.02103783e-02,6.62846580e-03
1.19883057e-01,-7.05490372e-02,2.16807959e-02,8.81340586e-02,-5.72974499e-03,-5.48206954e-02,-1.76811454e-03,2.02885614e-02,7.19887184e-03,-4.84433169e-03,4.03354314e-02,3.19494888e-02,-2.90526838e-02
9.72334714e-02,-5.32765541e-02,1.71591440e-03,3.76228645e-02,-6.52203183e-04,-6.48743626e-02,1.90125781e-02,1.11169491e-02,5.43733759e-02,-2.43675021e-02,2.52120469e-02,8.98786055e-03,-2.75729415e-02
9.26063335e-02,-1.60115071e-02,2.24008577e-02,3.91161692e-02,-9.33799899e-03,-4.69987957e-02,4.88060076e-02,1.50591347e-02,4.12330088e-02,-3.58228295e-02,4.20748272e-02,1.25193896e-02,-1.51746865e-02
7.98190079e-02,-3.71944656e-02,-4.49104486e-02,6.54524948e-02,1.76857134e-02,-3.71891468e-03,3.24667170e-02,-3.02200697e-02,2.14296430e-02,-3.87205888e-02,2.38519171e-02,7.48431909e-03,-1.30066628e-02
1.57873526e-02,-4.07726833e-02,-7.75057671e-02,1.51299735e-02,3.47404607e-02,2.46206012e-02,2.00981306e-02,-2.91465641e-02,6.94469913e-03,1.00676935e-03,3.08042522e-02,1.56484521e-02,2.91320929e-02
-1.82313276e-02,-6.33239909e-02,-5.65364461e-02,8.22379994e-03,6.26828820e-04,2.35459789e-02,4.24015979e-03,-1.27449603e-02,2.77433780e-02,5.57009477e-02,4.32030918e-02,4.57954698e-03,5.57557406e-02
-1.53794527e-02,-4.24095387e-02,-2.83573766e-02,-9.73101932e-03,-2.49311905e-02,-4.14258682e-03,-2.35534045e-02,-1.81667263e-02,8.09824988e-04,5.92479097e-02,4.83887968e-02,2.26321901e-02,7.20886597e-02
3.11698450e-02,-1.49246602e-02,-9.81862157e-03,-3.73852017e-02,-1.58302534e-02,3.77273619e-02,-5.64081870e-03,7.88607795e-03,-2.77975850e-02,5.86730948e-02,4.12688721e-02,6.26437205e-02,7.20300319e-02
6.40580599e-02,-2.36200235e-02,6.10872588e-03,-2.95874999e-02,-8.21645719e-03,1.51359429e-02,9.79492795e-03,1.90523473e-02,-7.38488587e-02,6.41271521e-02,4.00965205e-02,3.13531488e-02,3.54485911e-02
6.03081282e-02,-2.30677651e-02,2.27159685e-02,-1.04757770e-02,-3.42178227e-02,-3.08757974e-02,1.81414543e-02,3.22023899e-02,-7.87830595e-02,5.06049516e-02,6.08689583e-04,1.83442540e-02,-1.44345817e-03
8.94238067e-02,3.42375452e-02,1.38907104e-02,-3.53307699e-02,-2.00892059e-02,-2.59196492e-02,3.64611683e-02,2.22600924e-02,-4.20521713e-02,3.42215760e-02,2.54941480e-03,-1.10806613e-02,-1.63637094e-02
3.36311637e-02,5.25912943e-02,2.01365900e-02,-2.95274066e-02,2.70475676e-03,-1.46845882e-02,3.13271822e-02,8.66875591e-03,-5.56361570e-03,3.82387595e-02,3.67013052e-02,4.54095277e-03,7.81620836e-04
-4.03847368e-02,6.08796052e-02,-2.74348079e-02,-1.08963525e-02,3.29495877e-02,-2.33611635e-02,4.47703586e-02,-9.09727034e-03,5.59319549e-03,-1.36007846e-02,-3.02500310e-02,-3.29926208e-02,-1.97039464e-02
-5.23195799e-02,9.27251743e-02,-6.42030345e-02,2.48327356e-02,7.25147180e-02,5.05801919e-02,1.03581040e-01,3.02011935e-02,5.67706541e-02,-4.18636836e-03,-6.16876194e-02,-3.08281490e-02,-1.52069298e-02
-2.88601117e-02,1.42559315e-01,-2.30313348e-02,1.02715736e-01,7.17158742e-02,3.83759530e-02,8.61851937e-02,2.79024819e-02,6.77322521e-02,-3.73130130e-02,-6.15037668e-02,-3.43781135e-02,-4.94514000e-03
-9.74715693e-02,1.63401817e-01,1.89230676e-03,1.32482368e-01,8.39665238e-02,3.92829852e-02,4.28000346e-02,3.15016866e-02,8.89913893e-02,-3.50725240e-02,-3.07943517e-02,-1.23617975e-02,-3.04935491e-02
-1.42041589e-01,1.45273408e-01,1.36542866e-02,6.21037717e-02,6.11192445e-02,6.64847485e-02,2.43404773e-02,1.40817800e-03,7.98468644e-02,-2.39894885e-02,-1.50481708e-02,1.77878312e-02,-2.15744163e-02
-1.30446378e-01,1.46946497e-01,4.59057562e-02,6.48371861e-02,4.83514721e-02,5.22604916e-02,-1.78362164e-02,-4.00683869e-03,2.13204619e-02,-2.02476909e-02,1.05911085e-02,5.06592508e-03,-3.86668777e-02
-9.71987407e-02,1.43747101e-01,6.81627620e-02,2.35157781e-02,1.51890463e-02,6.02915064e-03,-6.98511634e-02,2.18584404e-02,-8.99554924e-03,-5.06870794e-04,-1.18937666e-02,-3.03896567e-02,-4.02856103e-02
-4.33381634e-03,1.03204602e-01,4.57616167e-02,-8.69285406e-03,-1.19720659e-02,8.01783833e-03,-8.08298075e-02,-1.11797467e-02,-4.64542112e-02,-1.56472545e-02,-2.76008951e-03,-9.82024968e-03,-2.01421863e-02
-4.58140741e-03,2.49642680e-02,6.64707493e-02,-3.15684875e-02,-3.25940331e-02,1.57003625e-02,-9.72973654e-02,-3.55195043e-02,-4.27566601e-02,1.79695337e-02,6.30472882e-02,5.17852570e-03,-1.72233612e-02
-1.12071641e-02,-3.12855394e-02,6.53111680e-02,-7.34670193e-02,-3.52118867e-02,-3.46083700e-02,-1.06052435e-01,-3.98738820e-02,-6.27052211e-02,3.00447927e-02,5.65869238e-02,-8.25110753e-04,-8.97531020e-03
6.98181939e-02,-5.56295165e-02,-2.03690382e-03,-8.68266328e-02,-4.27624239e-02,-1.42854608e-02,-2.65011924e-02,8.80294616e-03,-2.55037755e-02,3.18923971e-02,3.27486898e-02,1.20416343e-02,8.20037401e-03
1.65466279e-01,-7.26135326e-02,-2.19827039e-02,-4.63305382e-02,-4.62366520e-02,-2.57571501e-02,-1.28392011e-02,2.30258537e-03,-1.45340292e-02,-1.35970709e-02,2.24057802e-02,1.69976107e-02,1.89068507e-02
1.63454205e-01,-8.82500999e-02,-1.48628936e-02,-1.95539245e-03,-1.22584431e-02,-1.85346769e-02,7.20572143e-03,5.84580465e-03,2.76784420e-02,1.47652144e-02,4.90658908e-02,2.64778650e-02,-5.90369082e-03
1.50868282e-01,-1.23887142e-01,-6.08217646e-02,-2.41364537e-02,5.73638545e-03,-2.53663720e-03,2.10114555e-02,-2.08691251e-02,5.33711507e-02,-1.14061563e-02,3.60064522e-02,3.10483227e-02,9.30852075e-04
1.20815758e-01,-9.71203234e-02,-5.30428154e-02,-3.14546648e-02,-1.69527511e-02,-2.05685063e-02,2.11887278e-02,-2.49351327e-02,2.51544756e-02,-2.02931005e-02,4.02077864e-02,2.02593803e-02,-5.82469992e-03
1.04662823e-01,-4.27676201e-02,-5.33247329e-02,-1.59582372e-02,1.38191602e-03,-5.66999335e-02,8.15603078e-03,2.21502599e-02,1.53791974e-02,2.18460722e-02,1.91249551e-02,-4.82049105e-02,-8.72816435e-03
8.95259133e-02,-6.14660355e-02,-6.37598521e-02,-3.48185433e-02,9.76794322e-03,-3.43981935e-02,7.63058514e-03,6.40366218e-04,-1.59652008e-02,7.87563539e-03,-4.59314482e-02,-2.09349343e-02,-8.70657733e-03
7.13758429e-02,-5.26146616e-02,-2.69114253e-02,-1.64531592e-02,5.43869629e-03,2.24277883e-02,3.11116825e-02,8.05937152e-03,-7.43609034e-03,-6.71065624e-03,-4.18006089e-02,-7.71245928e-03,-3.65565702e-02
4.27638517e-02,-5.02206569e-02,1.00737091e-02,-6.73147964e-03,-8.80240060e-03,-3.33965466e-03,-7.44447957e-03,-1.03940063e-02,-1.98512210e-02,1.69457460e-02,-1.86807372e-02,4.61078821e-03,-1.08960953e-02
4.11038943e-02,-2.13871623e-02,2.16598855e-02,-3.74837727e-02,-3.18061543e-02,8.08385002e-03,-2.46488152e-02,-7.49440844e-03,-4.27108716e-02,7.14745892e-03,-3.90698522e-02,-7.09532649e-03,2.62266847e-02
-1.09788779e-02,-4.08386241e-02,-5.01429839e-03,-6.22347273e-02,-4.12748083e-02,2.88007125e-02,-3.73150118e-02,-2.72012430e-02,-2.17664113e-02,2.72880811e-02,-3.62889197e-02,5.51990570e-03,5.18065340e-02
1.76488898e-02,-4.09538267e-02,1.13132198e-02,-5.28245073e-02,-3.46838306e-02,4.10186756e-02,-6.61153797e-02,-5.48666755e-02,1.34002338e-02,2.53535682e-02,-1.86359968e-02,-4.66898327e-03,2.63196411e-02
3.77279511e-02,-2.43428864e-02,1.20355706e-02,-4.20164790e-02,-2.35039722e-02,4.62938958e-02,-2.30669440e-02,-5.72639416e-02,9.31710615e-03,-2.30047836e-02,-1.56497610e-02,3.50050248e-02,3.48479331e-02
4.66769319e-02,-3.51021073e-02,1.03247802e-02,-4.02236902e-02,-3.63001012e-02,1.77326440e-02,-2.22540567e-02,-5.37291786e-02,2.67109898e-02,-4.76073582e-02,-1.43584649e-02,4.14362132e-02,3.19206679e-02
3.55393983e-02,-1.59603357e-02,9.98058850e-03,-2.37956747e-03,-1.72738178e-02,-4.61024392e-02,-2.86509309e-02,9.49899676e-03,1.51415587e-02,-2.58731210e-02,-1.05020243e-02,-7.45505058e-03,2.24841279e-04
7.60605032e-03,-4.86039917e-02,5.56437059e-03,-2.66617300e-02,2.97812275e-03,-1.69067878e-02,-1.04054259e-02,2.50549699e-02,5.91135110e-03,-1.04816615e-02,-1.56849283e-02,1.60967045e-02,-2.43656956e-02
-4.59711572e-02,-7.61737572e-02,-4.38592378e-02,1.48537684e-02,5.13261753e-03,-3.59063045e-03,-1.48388426e-02,2.01946961e-04,-2.28338292e-02,-2.50351298e-02,3.30331981e-04,2.54620926e-02,-7.14168040e-03
-1.62113439e-01,-7.68971883e-02,-6.64215920e-02,6.35729531e-02,2.80344227e-02,-5.60986380e-02,-3.26158759e-02,2.86242751e-02,1.42174217e-02,-6.17397786e-02,-1.96252712e-02,-2.10982659e-02,1.04481358e-02
-2.51503620e-01,-8.37082081e-02,-4.27462535e-02,9.11007500e-02,7.76858578e-02,-2.12353191e-02,-2.14552260e-02,2.66727905e-02,-3.41790343e-02,-8.87413255e-02,-5.01037596e-02,-4.79717277e-02,-6.90768179e-03
-3.76717195e-01,-5.01393797e-02,-5.52948552e-02,4.43990696e-02,4.30060426e-02,-4.99105012e-02,-1.72112755e-02,5.78850887e-02,-1.25069810e-02,-6.82041377e-02,-5.85751505e-02,-5.12945680e-02,2.88647300e-02
-3.67654488e-01,3.49764477e-03,-2.60622481e-02,6.18004589e-02,6.90353029e-02,-2.81114719e-02,-2.60410363e-02,3.37826674e-02,2.20753275e-02,-2.85694015e-02,-3.32005048e-02,-7.43136946e-02,1.37579939e-02
-3.35919776e-01,6.81869548e-02,4.00082548e-03,5.56157322e-02,6.51670776e-02,-5.14427542e-03,5.11905102e-02,4.93889021e-02,-1.76296063e-02,-2.96268656e-02,-2.71355798e-02,-5.53278853e-02,3.59114767e-02
-2.61791232e-01,5.04363852e-02,-1.10606422e-02,4.40999063e-02,4.00973347e-02,-1.20514875e-02,4.37397562e-02,2.25247647e-02,-1.60641821e-02,-3.34292126e-02,-6.50678387e-02,-6.39748103e-02,6.90892230e-03
-1.70392734e-01,1.01760579e-01,3.76514124e-02,2.41898545e-02,1.43677576e-02,-4.36317993e-02,2.07531121e-02,3.16515394e-02,-4.35652599e-03,1.21177084e-02,-4.88442152e-02,-6.32104361e-02,-2.70937082e-02
-1.04647361e-01,1.00330580e-01,6.03869891e-02,-5.21771861e-02,-4.13355912e-02,-2.00677481e-02,3.28221213e-02,1.85243649e-02,-2.06738906e-02,2.40292568e-02,-2.31625265e-02,-1.15473754e-02,-2.00853872e-02
-1.83753033e-02,7.36568238e-02,-3.42468864e-03,-2.54129931e-02,-3.24309641e-02,2.26096979e-03,2.15485418e-02,-2.74289870e-02,-3.95792674e-02,1.89389366e-02,-8.55513600e-03,4.07332303e-03,-1.02690458e-02
4.15012964e-02,9.09287640e-02,-1.69300304e-02,-8.90061707e-03,6.47402665e-03,1.85471793e-02,1.12458489e-02,-2.80201513e-02,-1.39168936e-02,-8.67352489e-03,-1.42288083e-02,-2.26517970e-02,7.13446065e-03
4.61025026e-02,4.70173694e-02,-1.98803193e-02,4.73916552e-02,6.66306191e-02,1.03768444e-01,3.20161315e-02,-2.28575883e-02,-2.20589629e-03,-2.35655812e-02,-1.40570608e-02,-2.00320736e-02,-2.23619833e-02
2.57180114e-02,4.18581754e-02,-8.06365383e-04,5.00715447e-02,4.72963224e-02,7.96577721e-02,2.14680902e-02,6.98588364e-03,5.07285731e-03,-6.72724489e-02,-2.29587888e-02,3.64182861e-02,4.89253099e-03
1.08436123e-02,6.64613446e-02,-1.93615799e-02,3.61281109e-02,5.67704853e-02,3.91894075e-02,2.27562616e-03,3.34605629e-02,4.43883591e-02,5.02235388e-04,2.35134786e-02,4.88006071e-02,-2.58641672e-03
-2.12135672e-03,8.19124974e-02,-1.39430157e-02,2.41161013e-02,3.40204016e-02,3.70678091e-02,3.15626724e-02,3.01334286e-02,3.33953638e-02,-2.62947676e-03,1.71774071e-02,4.48712680e-02,3.17459838e-02
1.88335866e-02,4.42696474e-02,-4.26683951e-03,3.61122262e-02,9.78658555e-03,3.15431447e-02,1.27411854e-02,2.43368620e-02,5.50259832e-02,1.36309954e-02,1.04774011e-03,1.13784509e-03,1.79417850e-02
2.03924273e-02,5.45504093e-02,3.71051383e-02,1.08632557e-02,3.67278607e-03,3.67104494e-02,-1.35987139e-02,1.65869337e-02,5.75845904e-02,9.00622147e-02,2.80558980e-02,-1.19827698e-02,2.62345145e-02
-2.93102834e-02,2.94145200e-02,5.83215382e-02,-6.36509134e-02,-4.21262721e-02,3.56040960e-03,-3.42422356e-02,-7.70214867e-03,3.63937924e-02,5.82340551e-02,1.55743357e-02,-2.53030388e-03,4.09618160e-02
-2.19867430e-02,-4.31396505e-02,8.88754298e-03,-7.12180115e-02,-3.92559567e-02,-1.23853101e-02,-7.07498104e-03,-5.20129758e-03,2.25007543e-02,4.49830568e-02,7.72698124e-04,1.06591776e-02,2.56095621e-02
-2.43463623e-02,-5.56051115e-02,-3.81655389e-02,-8.94865294e-02,2.57635997e-02,3.93413113e-02,3.35321746e-02,-3.05113556e-02,2.76563653e-03,3.37816687e-02,-2.94211193e-02,-7.38628302e-03,1.08273323e-03
-1.37260297e-02,-3.92735952e-02,-3.86636582e-02,-5.50232385e-02,1.15410267e-02,7.36645197e-02,1.53033119e-02,-3.91563748e-02,4.39284575e-03,4.27853163e-02,-3.41869588e-02,-1.56964050e-02,7.67334565e-03
4.13512685e-02,-4.00202878e-02,-4.03466328e-02,-2.57303632e-02,2.70185785e-02,6.61672928e-02,1.06750903e-02,-3.02354593e-02,-2.21201143e-02,-1.46098920e-03,-2.40104781e-02,3.50245095e-02,2.94641388e-02
6.45604620e-02,-4.52901205e-02,-7.98996112e-02,-2.95611982e-03,1.40491186e-02,3.19263046e-02,6.48936357e-03,-2.73876233e-02,-1.83808399e-02,1.03752085e-02,-1.79520930e-02,3.47285021e-02,4.27170639e-02
2.62885245e-02,-6.53437472e-02,-1.06514180e-01,-3.18346550e-02,-3.93124676e-02,1.25255204e-02,9.01312117e-03,-1.93571571e-02,-1.28168680e-02,2.62218216e-02,-3.52720628e-03,4.94016541e-02,5.83077944e-02
6.56813935e-02,-5.04101519e-02,-6.56325429e-02,1.18017955e-02,-5.40907681e-02,-1.67432288e-02,-8.54736832e-03,-1.04611376e-02,6.61070487e-03,-1.86748011e-03,1.33501301e-02,2.33146004e-02,4.98404446e-02
6.21996815e-02,-1.00691106e-02,-2.46565285e-02,4.48634711e-02,-3.70995714e-02,-1.46831941e-02,-3.93155135e-02,-3.37168754e-02,-8.20462392e-03,1.19650490e-02,2.85353086e-02,2.23290754e-02,3.99135739e-02
6.20819560e-02,3.41205491e-02,1.79810959e-02,5.15463286e-02,-2.10962438e-02,-5.53859592e-02,-8.02714279e-02,-2.51024025e-02,3.72870681e-02,-2.16472633e-02,2.22650542e-02,-1.94918801e-02,-3.10394172e-03
7.39590424e-02,-1.30111978e-03,4.20619396e-02,1.99241983e-02,-2.05156005e-02,-4.24796819e-02,-6.37687195e-02,-2.71011363e-02,2.78310802e-02,-9.64978250e-03,1.99435366e-02,-2.52906441e-02,-5.43100788e-03
2.35217607e-02,-3.61868329e-02,3.39464709e-02,1.19917173e-03,3.67328382e-02,5.62202367e-03,1.22395165e-04,3.61769411e-03,7.17279328e-02,1.37203088e-02,-6.01199224e-04,-1.72788722e-02,-4.12270352e-02
3.09188517e-02,-2.22274631e-02,6.57773885e-02,1.19891437e-02,1.54001640e-02,2.10531059e-02,7.88206926e-05,1.09656884e-02,4.71092352e-02,2.36931714e-02,-8.93059577e-03,-3.19061655e-02,-4.83281745e-02
7.59204000e-02,-5.42868886e-03,6.30114387e-02,-1.44899351e-02,3.58371987e-03,1.15740058e-02,-3.10245113e-03,1.98526054e-02,2.60127877e-02,3.28072846e-02,-1.04499120e-03,-2.05663117e-02,-4.36887233e-02
1.03774865e-01,-1.41124434e-02,7.03087769e-02,3.33383007e-02,5.66117927e-03,1.99580437e-02,1.04690295e-02,3.02409987e-03,3.69549684e-03,2.51922325e-02,8.76772324e-04,-2.04962762e-02,-8.36491100e-03
1.01740435e-01,-3.23639559e-02,6.92209392e-02,7.73111363e-03,-1.44931938e-02,4.77340844e-02,3.46821646e-02,8.03750561e-03,-1.99487971e-02,1.94255817e-02,-1.61080337e-03,-2.35487052e-02,2.62357496e-02
1.17318954e-01,-5.80740302e-02,3.46832014e-02,-3.57111368e-02,-1.34949964e-02,4.15027500e-02,7.79809246e-03,2.55095439e-02,-2.67359965e-02,3.63707116e-03,1.70146515e-02,-1.43074939e-02,2.33606299e-02
9.40830768e-02,-8.83036284e-02,1.37318174e-02,-3.54036731e-02,-4.25570398e-02,6.49812304e-03,-2.76091090e-02,-2.28698076e-02,-3.70965508e-02,-4.85511545e-03,2.99230642e-02,3.84985874e-02,3.13512318e-02
9.55377938e-02,-5.63705849e-02,-2.80918170e-03,-3.19177214e-02,-5.03378034e-02,-1.51127454e-02,-4.67709348e-02,-1.98486846e-02,-2.57268079e-02,-3.90372752e-02,3.90183984e-02,1.56685817e-02,1.98145634e-03
1.11593830e-01,-4.94406764e-02,-2.27463349e-02,-6.09362927e-02,-1.71959953e-02,3.21080655e-03,-5.97211151e-02,-4.35744205e-02,-6.90254391e-03,-2.59218128e-02,1.84983169e-02,-2.89625741e-02,-5.22615315e-03
9.50021896e-02,-6.03847458e-02,-2.76923907e-02,-8.08422195e-02,-6.53032151e-03,6.45803497e-03,-2.41837105e-02,-5.19657882e-03,5.55137998e-02,6.10980926e-03,4.54019860e-02,-1.51046371e-03,5.18064719e-04
1.23744433e-01,-4.16901276e-02,-1.61056176e-02,-6.67728519e-02,5.29763551e-03,-1.20949439e-02,3.56696964e-05,9.52616631e-03,3.46606511e-02,-8.32527039e-03,3.17958217e-02,-1.45830268e-02,-8.24697868e-03
1.28236891e-01,-5.00412956e-02,-5.95476309e-03,-7.07461566e-02,-1.16038702e-02,-3.99434442e-02,3.79980149e-03,1.86622167e-02,8.59957437e-03,5.81156938e-03,1.65496271e-03,-2.74519321e-02,-5.95521778e-03
1.03926604e-01,-2.82837439e-02,2.27165556e-02,-4.04365578e-02,-1.54682987e-03,-2.28208032e-02,1.88633233e-02,5.55751179e-02,-1.40822745e-02,1.24841726e-02,-2.50592942e-02,-1.68728781e-02,1.64304557e-02
1.36641910e-01,-2.75847315e-02,4.78319094e-02,-1.74991484e-02,5.90531797e-03,-2.68606198e-02,4.29593034e-02,6.36669074e-02,-4.91440626e-02,-2.50755652e-02,-4.10457999e-02,-1.47522578e-02,1.37653126e-02
7.33009538e-02,-5.02288160e-02,3.89416326e-02,-8.13939648e-03,6.58214885e-03,-3.70680971e-02,1.96090101e-02,9.86478763e-02,-4.30197381e-02,-1.01831434e-02,-3.41016879e-02,-2.42801057e-02,2.27715287e-02
6.69661364e-02,-7.24976492e-02,7.28592956e-02,-4.20390446e-04,-2.73599262e-02,-5.93847291e-02,1.01307161e-02,5.83375432e-02,-3.98670415e-02,-4.20728177e-05,-2.71478535e-02,3.26648344e-02,4.43433082e-03
-1.26085270e-03,-4.92391512e-02,1.21994839e-01,2.26254273e-02,-3.95480201e-02,-5.84135473e-02,4.08033426e-02,5.52674473e-02,-3.06525038e-02,-3.70024460e-03,-1.82329046e-02,6.63860185e-02,-2.47458644e-03
2.51440598e-03,-5.41579453e-02,9.33581116e-02,3.83243740e-03,-9.20135714e-03,-1.93243718e-02,2.05363465e-02,4.30103086e-03,-3.43021644e-02,8.33421756e-03,-1.73422878e-02,3.73822969e-02,-3.40317259e-02
7.75033036e-04,-6.54627472e-02,6.00658816e-02,9.98504581e-03,-1.59634285e-03,2.39037979e-02,2.70276365e-02,-3.29380694e-02,9.05453722e-03,5.30789771e-03,1.41532336e-02,3.57113405e-02,-3.13350364e-02
1.82330587e-02,-3.92454012e-02,2.43593665e-02,-1.39801731e-02,1.19055025e-03,-5.15978131e-03,1.85197607e-02,-4.57301344e-02,5.80011181e-03,-1.56524744e-02,1.93377020e-02,2.59257136e-02,-3.22723933e-02
3.82335012e-02,-5.53655892e-02,-1.44416849e-03,-2.52693790e-02,2.55972209e-02,1.83719367e-02,1.51803510e-02,-5.17529584e-02,1.32036966e-02,-1.24713925e-02,1.15502660e-02,-1.40403060e-04,-2.68672539e-02
2.09276537e-02,-1.16155559e-02,-2.11842015e-03,-3.38249108e-02,2.06385492e-02,3.85433403e-02,2.28273896e-02,-3.98969318e-02,7.15737923e-03,-2.42767381e-02,-3.80635017e-02,-1.01489001e-02,-6.69110493e-03
4.87130408e-02,-1.26324480e-02,-3.12141069e-02,-5.06982684e-02,1.53676388e-02,-2.36956543e-03,1.58060828e-03,-1.47360522e-02,-1.17973308e-02,-1.45379492e-02,-3.65785728e-02,-2.72255954e-02,-2.97185540e-02
-1.26373893e-02,-2.37828137e-03,-2.56554743e-02,-1.39930423e-02,1.35099392e-03,-2.30207204e-02,-3.04858356e-02,3.45085483e-02,1.39064421e-02,1.85720228e-02,-4.26791031e-02,-7.62710173e-02,6.71958014e-03
1.52091563e-03,3.72380350e-02,-6.83622680e-03,-1.49851249e-03,7.92933765e-04,-4.39547250e-02,-4.62243664e-02,1.33115306e-02,-2.84973237e-02,6.19498449e-03,-2.14520658e-02,-6.57344257e-02,-1.83133500e-02
-4.77754482e-02,7.28383185e-02,8.61892789e-02,1.93799871e-02,3.42178341e-03,-8.72547448e-02,-2.80664314e-02,3.73364657e-02,-1.54410398e-02,2.22007103e-02,-7.74879654e-03,-4.16094226e-02,1.79775296e-02
-4.89670194e-02,9.27187997e-02,7.51157283e-02,-4.84777077e-03,2.24731346e-02,-9.39714750e-02,-5.20324726e-02,2.54314701e-02,-3.66131548e-02,2.77680275e-02,1.97680832e-03,-3.65319901e-02,1.34449752e-02
-4.80352982e-02,1.09268253e-01,4.81510008e-02,-6.72030339e-03,2.45513406e-02,-5.02418709e-02,-5.01937919e-02,-4.30564477e-03,-2.00927266e-02,2.09363109e-02,-1.75495982e-02,-4.68623930e-02,1.41776976e-02
-5.39552639e-02,1.09165890e-01,2.34310808e-02,-4.36490752e-02,-6.48317635e-03,-3.39577671e-02,-2.51938068e-02,9.89185387e-03,2.13142363e-03,1.38391240e-02,-3.84176016e-03,-3.60200981e-02,3.34967330e-03
-1.01356455e-02,7.62103519e-02,-8.09231068e-03,-3.95007482e-02,-5.63407668e-03,2.04930820e-02,-8.53237242e-03,-3.09174747e-02,-1.19032873e-02,-1.68387632e-02,-3.19962163e-02,-1.75067045e-03,5.23258380e-03
-3.48457829e-03,2.76947675e-02,-2.54665546e-02,-3.37744974e-02,6.68627877e-03,8.31622349e-02,4.81099659e-02,-2.98502543e-02,1.76360312e-02,-6.55864547e-03,-4.18338902e-02,1.85090924e-02,-4.16298487e-03
-1.19932642e-02,-1.57685411e-02,-5.96476454e-02,-5.57866652e-02,-6.10088641e-03,9.29354374e-02,7.10032845e-02,-2.94963000e-02,-2.18948626e-02,1.71145814e-03,-9.70896840e-03,1.92545774e-03,-6.42332055e-02
-5.13380886e-02,-2.19322668e-02,-6.00619470e-02,-3.46896805e-02,-2.58946577e-02,5.35824830e-02,6.30568555e-02,9.77753146e-03,8.69558532e-03,3.60516395e-02,-2.55465173e-02,-2.56677854e-02,-7.00167495e-02
-8.76405861e-02,-3.34398747e-02,-9.37666663e-02,1.23631971e-02,-3.46536915e-02,2.43756004e-02,6.42013593e-02,5.58562490e-03,-1.06861211e-02,1.57465921e-02,-8.13762607e-03,-1.90460234e-02,-8.94880838e-02
-1.36104585e-01,-3.70510137e-02,-1.07371759e-01,3.12831006e-02,-3.09421947e-02,-2.43815685e-02,3.83825205e-02,-4.04258714e-04,-5.15976178e-02,-1.00037457e-03,1.41209529e-02,-1.29991929e-02,-5.56484693e-02
-1.03564505e-01,1.73479667e-02,-1.37352877e-01,4.12812113e-02,-2.65321461e-02,-4.12316702e-02,-5.50970285e-03,-5.36801879e-03,-4.25161411e-02,3.58539553e-03,3.38231486e-02,2.27972495e-02,-1.17914284e-02
-1.32988659e-01,1.52627603e-02,-1.57500691e-01,1.42755664e-02,-2.89224184e-02,-2.26391624e-02,-4.11133764e-02,3.02081878e-03,-3.20052406e-02,1.26753675e-02,6.24997720e-02,6.15145693e-02,-5.57214806e-03
-1.45898593e-01,-2.08696404e-02,-1.22964523e-01,9.83441723e-03,-3.71684709e-02,-2.64773841e-03,-1.80917079e-02,3.58821904e-02,2.62444600e-03,1.14557363e-02,8.42077966e-02,5.53863187e-02,1.32520664e-02
-8.92807419e-02,-4.39933520e-02,-7.40208062e-02,6.62777884e-02,-4.77373340e-02,-5.60540950e-02,-6.99403137e-02,2.69370580e-02,-6.06628772e-03,-4.85318488e-02,3.89861922e-02,7.81842284e-02,1.40492801e-02
-5.83576531e-02,-5.24832808e-02,-9.36833866e-05,1.00351470e-01,-2.58724599e-02,-1.49675297e-02,-5.40572677e-02,4.46255623e-02,5.85249345e-04,-4.90988014e-02,4.49508414e-02,8.48471733e-02,3.25564454e-02
-5.75297694e-02,-1.03134971e-02,6.63975970e-02,8.11951782e-02,5.25147886e-03,2.51575925e-02,-1.33284975e-02,1.63114297e-02,-1.39314661e-02,-3.90669901e-02,6.45990038e-02,4.51300985e-02,-1.53955962e-03
-1.14204105e-01,2.84922386e-02,1.46099779e-01,4.63863216e-02,1.53214288e-02,2.27023348e-02,1.99597728e-02,4.72587238e-02,1.12977503e-02,-1.83449328e-02,7.71847574e-02,3.85389551e-02,-4.77800556e-03
-9.70817373e-02,5.10170390e-02,1.90359670e-01,2.07666875e-02,3.25986085e-02,3.14049982e-02,3.98766726e-02,4.29468199e-02,2.18312739e-02,-5.09186627e-02,2.29817687e-02,1.20765932e-02,-1.91870094e-02
-1.24664990e-01,5.38935187e-02,1.43824636e-01,-3.16300378e-02,2.23986219e-02,7.17770074e-03,4.34311987e-02,4.17849097e-02,-1.98829142e-02,-4.30876837e-02,2.21251031e-03,2.55689075e-02,-2.94632337e-02
-9.18460589e-02,1.10179778e-01,8.87383410e-02,-6.02343843e-02,3.60345892e-02,1.75273064e-02,1.65995494e-02,1.17635791e-02,-3.62506038e-02,-4.88793617e-02,-4.53874650e-02,2.82566014e-02,2.05436058e-02
-7.78833469e-02,1.01756056e-01,3.13211122e-02,-9.83913672e-02,1.01591601e-02,7.82411119e-02,7.21626342e-03,-4.00174194e-03,-1.91716781e-02,-3.34167745e-02,-3.82382758e-03,8.46481124e-02,2.56786840e-02
-7.87110625e-02,1.51534127e-02,-4.83578263e-02,-1.12017819e-01,3.67146979e-02,1.17709156e-01,2.10353974e-02,1.61663046e-02,-5.60366811e-03,-1.65267547e-02,-1.82483732e-02,7.82539858e-02,3.97277303e-02
1.46850046e-02,-3.01700932e-02,-1.00999825e-01,-8.58481558e-02,2.63427385e-02,4.88349125e-02,-1.30137797e-02,1.69972523e-02,-3.60459999e-02,-2.37844242e-02,-6.13302879e-02,7.38047712e-02,2.59294292e-02
3.82552523e-02,-6.59243496e-02,-1.35637089e-01,-5.22578734e-02,4.41163368e-02,4.43008271e-02,-1.29827562e-02,2.95697808e-02,-5.18057020e-02,-2.87159696e-02,-7.50614846e-02,6.33129656e-02,4.04741683e-03
2.82812458e-02,-7.91043180e-02,-1.39219387e-01,-2.60684933e-02,3.83694117e-02,1.39912381e-02,-1.16463203e-03,1.25475923e-02,-3.56651884e-02,-7.84299598e-03,-9.44758661e-02,5.81366775e-03,-6.66525563e-03
-1.94920950e-02,-1.99739542e-02,-1.04077866e-01,-2.17641038e-02,3.57189529e-02,2.96085961e-02,4.26690578e-02,2.80443596e-02,2.62613422e-03,2.02867413e-02,-4.59602103e-02,-1.47060140e-02,-2.50622616e-03
-3.49667243e-03,7.10267361e-03,-5.82372116e-02,-3.76849279e-02,2.62211792e-02,2.59200585e-02,2.49813971e-02,-9.90769568e-04,2.32890917e-02,2.76389159e-02,-4.09073419e-02,-3.54701356e-02,-1.68473805e-02
-3.24722005e-02,2.28925477e-02,-3.97982534e-02,-4.51257334e-02,4.89348582e-04,1.93416636e-02,3.65084750e-02,5.29588241e-03,-2.06790496e-02,2.02266512e-02,-3.37391289e-02,-2.24556180e-02,-4.14227568e-02
-8.13467003e-02,2.60335160e-02,-3.39005319e-02,-2.22217141e-02,2.28984523e-02,1.64331070e-02,2.36721227e-02,-1.67959292e-02,-1.77215685e-02,1.56681323e-02,-2.23208364e-02,-5.65650751e-02,-3.26365875e-02
-1.32864087e-01,4.96300151e-02,3.29327048e-02,7.37726920e-03,-9.29337351e-03,3.17592529e-02,-1.12787315e-02,-4.68199064e-02,5.50089722e-03,1.81128794e-02,5.38708194e-02,7.72255015e-03,-1.10179097e-02
-1.39709230e-01,3.12047722e-02,3.51007805e-02,1.65734465e-02,-1.46617432e-02,2.56794759e-02,-2.93355559e-02,-3.76530154e-02,3.08001279e-02,2.58032218e-02,5.91602595e-02,1.32401941e-02,-5.59573281e-03
-1.06898890e-01,1.84974727e-02,-9.78863821e-03,2.54489252e-02,-4.80041713e-02,-2.44899517e-02,-6.89589778e-02,-4.58504795e-02,2.77185145e-02,4.45115023e-02,9.58996948e-02,4.57369480e-02,4.74035698e-02
-9.50791840e-02,-1.00573710e-02,-2.79478648e-02,2.47956556e-02,-6.42657582e-03,-7.48537695e-03,-2.07271690e-02,-1.57868568e-02,4.03089220e-02,3.92689175e-02,5.24039256e-02,4.08101851e-02,2.05497075e-02
-9.62240091e-02,-5.86800707e-02,-4.75186758e-02,1.30530940e-03,-1.70081430e-02,-1.27623277e-02,-8.10620476e-03,-2.33669225e-02,5.88438827e-02,5.69469116e-03,8.54676630e-03,3.75675254e-02,-4.39320911e-04
-5.74536247e-02,-3.97274940e-02,-8.02113178e-02,-1.70271485e-02,-9.41932819e-03,1.36122183e-02,2.67908524e-02,-3.47800164e-03,6.70893408e-02,-1.54604267e-02,-2.46529927e-03,2.94058931e-03,2.59223867e-02
9.52857763e-03,-6.54435952e-03,-5.89512518e-02,-5.79375215e-02,-8.36334952e-03,1.52610844e-02,3.37016617e-02,-9.04296358e-03,8.22304260e-02,-1.04155633e-02,-1.42294310e-02,-2.91355997e-02,1.43233924e-02
1.85793137e-02,3.10296957e-02,-4.22672457e-02,-7.62967099e-02,-3.04078630e-02,2.63380706e-02,5.03430339e-03,-2.89070329e-02,2.59126331e-02,-6.18722391e-02,-2.95089930e-02,-4.17242066e-02,6.75502738e-03
4.65538404e-02,4.41432963e-02,-5.83744729e-02,-6.75619711e-02,1.15439571e-02,2.65741674e-02,3.28601735e-02,-4.28487504e-04,4.34150557e-02,-6.19335906e-02,-8.88295006e-04,-5.68101694e-02,-4.92856577e-04
3.31381671e-02,8.49786297e-02,8.19926810e-03,-5.05767473e-02,1.61864636e-03,1.33369894e-02,5.88628113e-03,5.46476149e-04,4.59599709e-03,-5.27997611e-02,2.08794927e-02,-4.44557874e-02,-1.75975569e-02
5.30699085e-02,9.24655036e-02,3.87327809e-02,-3.33509630e-02,-2.63742950e-02,-4.43019995e-02,-1.74801867e-02,-1.25630064e-02,-4.08970518e-02,-3.35952304e-02,2.78233014e-02,-3.73082322e-02,-3.06510317e-03
3.22677168e-02,9.64387052e-02,5.31760361e-02,2.03504924e-02,-5.65400321e-02,-8.80306381e-02,-4.50192863e-02,8.03622546e-03,-8.46136518e-03,-8.75680615e-05,4.80683445e-02,-2.47363558e-05,3.48447884e-02
4.18230751e-03,6.33115330e-02,5.23295011e-02,3.12485311e-02,-3.39160054e-02,-7.94583314e-02,-3.60224087e-02,2.88211942e-02,1.43895149e-02,4.30445767e-02,1.66790813e-02,5.88656231e-03,2.27926220e-02
-3.67203110e-02,4.40078315e-02,2.20036377e-02,6.69353915e-02,-1.80151587e-02,-7.21077258e-02,-1.34992728e-02,1.48658636e-02,3.28450162e-02,4.84978412e-02,-3.02269679e-02,1.81896429e-02,1.26062045e-02
-7.13603479e-02,1.56836188e-02,-1.35281228e-02,9.05386278e-02,-4.98732719e-03,-3.10198004e-02,3.01143203e-02,2.14524652e-02,9.29267582e-03,3.40411971e-02,-3.45641924e-02,1.72476902e-02,7.77622178e-03
-5.48707438e-02,-1.22115012e-02,-3.08514866e-02,9.27465336e-02,2.46182956e-02,1.04783876e-02,5.00270792e-02,-5.15688690e-03,-1.26134794e-02,2.92142199e-02,-6.02546409e-02,-1.45287105e-02,-2.51507217e-02
-8.81871028e-02,-2.75787932e-02,-3.27701131e-02,6.33587212e-02,2.78527591e-02,8.34089496e-02,5.75224875e-02,-1.33005116e-02,2.97531956e-02,3.68715485e-02,-4.57457829e-02,-2.93210540e-02,-3.17557025e-02
-5.55289943e-02,-4.28183501e-02,-5.17569997e-02,1.57759448e-02,6.24819357e-02,8.76070171e-02,5.93707249e-02,-1.61849726e-02,2.91183430e-02,1.03384475e-02,-7.88237550e-03,-1.41441611e-02,-1.62187042e-02
-2.62127136e-02,-5.06806807e-02,-4.66767441e-02,-9.26517966e-03,6.89740726e-02,1.01815270e-01,1.29775848e-02,-1.80018300e-02,9.33833339e-03,8.92546190e-04,3.68700231e-02,-3.11765702e-02,-3.71787983e-02
-4.24431222e-02,-1.08628412e-01,-8.07894986e-02,-6.81288314e-02,6.62305308e-02,6.89934775e-02,-1.86071125e-02,-2.10964132e-02,-3.12595215e-02,-2.06949446e-03,7.25662047e-02,-6.40751202e-03,2.52984496e-03
-2.56270014e-02,-8.25423466e-02,-2.55252732e-02,-5.52996505e-02,2.99054440e-02,2.05081973e-02,-3.32727303e-02,5.41613849e-03,-3.21166782e-02,-3.23845962e-02,6.83016640e-02,1.68966664e-02,1.71964670e-02
-1.76846711e-02,-5.21446907e-02,1.22713121e-02,-6.84873354e-02,2.12745788e-02,1.61589544e-02,-3.64417941e-02,3.01582797e-02,3.72049373e-03,-2.08812870e-02,4.62106069e-02,2.74447243e-02,1.64610120e-02
6.32273354e-03,-4.93547068e-02,-6.34765393e-03,-1.42263426e-02,1.40835300e-02,3.57079867e-03,-7.06272872e-03,4.75610598e-02,2.26387240e-02,-4.39149237e-03,-1.39434490e-02,1.82817309e-02,1.97832983e-02
-1.41768019e-02,-1.81158766e-02,-2.97438406e-02,-1.07055262e-02,-3.09873552e-03,3.43928979e-02,1.46318099e-02,8.91423170e-02,2.51572653e-02,1.78330447e-03,-2.01238010e-02,1.07812344e-03,-7.59410329e-04
1.66508221e-02,3.85546457e-02,-1.57028094e-02,2.05744636e-02,-3.05895241e-02,1.81860741e-02,1.17488294e-02,7.32893711e-02,-2.10477426e-02,-3.80444954e-02,-2.23332852e-02,8.86856083e-03,3.03426734e-03
-1.83107914e-02,5.09427710e-02,-2.09034092e-02,3.82877742e-02,-2.52634067e-02,3.99470887e-02,5.59196233e-02,9.66848749e-02,6.47032063e-05,-1.57582812e-02,-1.30168837e-02,-4.20581446e-04,-2.74056399e-02
6.94543364e-03,6.10323225e-02,-1.42998043e-02,4.38916886e-02,1.61134430e-02,6.60540776e-02,7.21318035e-02,5.23967308e-02,-6.92480001e-03,-4.44416756e-02,-4.93013685e-02,-3.09350659e-02,-4.08875634e-02
3.69924269e-02,4.27628373e-02,-2.58773120e-03,6.46390808e-02,5.87963821e-02,7.43542829e-02,3.77921299e-02,-7.83211640e-03,-8.99906279e-03,-3.79032578e-02,-3.35228507e-02,-5.24716205e-02,-4.02663390e-02
-1.88177662e-03,-2.15680413e-02,-4.30771269e-02,-8.68644547e-03,4.56980913e-02,5.71139244e-03,-1.24477840e-02,-4.00973996e-02,5.49341478e-03,-1.85067666e-03,2.06407374e-03,-2.99075176e-02,-9.01087775e-03
-2.60606569e-02,-1.63182010e-02,2.77332102e-02,4.35539466e-02,2.82313946e-02,-7.81323279e-02,-9.77503434e-02,-9.20012914e-02,2.65688518e-02,3.41965134e-02,2.56815808e-02,-3.85295047e-03,-4.07779244e-06
-7.79840163e-03,1.19099119e-02,9.25261226e-02,1.28444150e-02,1.42836038e-02,-9.18328373e-02,-8.91982122e-02,-8.48369679e-02,3.91824641e-02,2.64591359e-02,2.88624593e-02,8.14759069e-04,1.20147993e-02
2.38245091e-02,-8.26554114e-03,7.71368741e-02,3.56520502e-03,2.18168704e-02,-9.32030951e-02,-6.18224388e-02,-8.78813019e-02,2.29006605e-02,4.05578482e-02,1.43097034e-02,2.36659593e-02,2.69164459e-02
3.29691262e-02,-1.70959446e-02,6.22174925e-02,-4.15427374e-02,-3.03009855e-02,-4.01953570e-02,-5.11420426e-02,-3.88529553e-02,3.17194771e-02,5.18739146e-02,6.91366477e-04,1.14018584e-02,3.65776072e-02
3.02745992e-02,1.92781507e-02,3.50767939e-02,-6.34972182e-02,-8.27037676e-02,-4.81224958e-02,-2.04654163e-02,-1.49975637e-03,6.30945471e-03,2.58256299e-02,1.58537928e-02,6.85196672e-02,8.18931795e-02
2.47350866e-02,3.33676973e-02,2.40147212e-02,-6.65776519e-02,-5.83104946e-02,-3.25216206e-02,-3.40690231e-03,6.16837460e-02,-1.47545599e-02,2.56752556e-02,2.11340992e-02,6.71730558e-02,5.74236241e-02
1.02635450e-02,3.03000400e-02,2.51110086e-02,-5.93315506e-02,-2.48751423e-02,5.50158572e-02,6.34029516e-02,6.67413628e-02,-2.03717102e-02,-9.50772498e-03,-1.54016511e-02,4.77871478e-02,1.76869557e-02
-8.86911393e-04,-4.39052908e-03,-1.29223266e-02,-7.75224690e-02,4.08422401e-02,8.64447257e-02,6.92788693e-02,4.96134161e-02,-5.10102651e-02,-4.35835919e-02,-6.15850312e-03,3.21362393e-02,-7.14593900e-04
-3.17373721e-03,-5.46562814e-02,-4.61650949e-02,-1.11862095e-01,3.79115066e-02,6.09712365e-02,5.06383725e-02,4.73225777e-02,-2.09976693e-02,-3.55512253e-02,2.26272802e-02,1.53872019e-02,-7.33404246e-03
-6.24586958e-02,-4.32733899e-02,2.76232473e-02,-1.56165432e-02,2.19402898e-02,-1.13065278e-02,-2.62533359e-02,1.92429581e-02,3.87966707e-02,1.93238900e-02,4.76045556e-02,-6.22946697e-03,-2.08009481e-02
-7.78858161e-02,-4.86618808e-02,4.64441668e-02,1.34231310e-02,-5.27441004e-03,-1.28927704e-02,-1.89728227e-02,4.27719990e-02,5.52681655e-02,3.31160376e-02,5.87927735e-02,-4.65644258e-02,-4.53688584e-02
-8.79251388e-02,-3.84647969e-02,3.98466125e-02,3.26077169e-02,5.00816436e-03,-9.40197359e-03,-4.50680725e-02,2.06393357e-02,5.89831290e-02,5.22557062e-02,5.11111035e-02,-5.28527988e-02,-4.85340621e-02
-1.02769975e-01,-4.33953999e-02,2.69298629e-02,3.85849014e-02,-3.14358523e-03,4.70131292e-03,-6.77699169e-02,-8.14830428e-03,3.85230960e-02,4.35501995e-03,2.98750780e-02,-4.97689667e-02,-2.00600367e-02
-1.23984256e-01,-4.84432788e-02,-4.20904769e-02,5.16296150e-02,-3.78591105e-02,1.59148545e-02,-3.13326188e-02,-3.36678985e-02,-1.65032149e-02,-2.82887274e-02,1.75416048e-02,-3.00537305e-02,3.93003576e-04
-9.31285448e-02,-3.41791116e-02,-6.86696320e-02,9.00610137e-03,8.21458058e-03,4.52160555e-02,-1.75652192e-02,-4.11196557e-02,-2.92746380e-02,-4.46345754e-02,-3.92923999e-02,-1.90827008e-02,-1.73813047e-03
-2.56163773e-02,-3.60960904e-02,-5.96200368e-02,1.70286103e-02,-3.56519155e-03,7.44414315e-02,4.16000901e-02,-4.80969078e-02,-6.07615699e-02,-6.37413162e-02,-8.16288542e-02,-1.57411590e-02,-1.29933936e-02
2.42423036e-02,-4.86384102e-02,-1.00547925e-01,-5.94459906e-02,-5.67435221e-03,6.16092753e-02,2.30946639e-02,-5.24028067e-02,-9.62496284e-02,-6.54881957e-02,-6.37023130e-02,-1.45057388e-03,3.13661236e-03
8.97900566e-02,-5.30435036e-02,-1.11634823e-01,-9.48957676e-02,7.34271056e-04,4.51539498e-02,7.96273750e-03,-5.38778124e-02,-5.96542319e-02,-8.36104582e-02,-6.32115167e-02,5.85528843e-03,1.33199438e-02
9.84799655e-02,-2.05850242e-02,-5.27816927e-02,-9.49515148e-02,-3.13609589e-02,2.74553317e-03,-2.70120189e-02,-3.77827698e-02,-6.30988937e-02,-9.21545509e-02,-2.93959099e-02,4.09844191e-03,2.27999427e-02
9.87785113e-02,7.57013073e-03,-9.51283159e-03,-1.05373060e-01,-4.99092825e-02,-8.40827318e-03,-9.41736768e-03,-1.51646776e-02,-5.45395024e-02,-4.11064421e-02,1.71993062e-03,-2.08231158e-03,3.60441627e-02
9.29147366e-02,5.69278305e-02,4.71543887e-02,-8.04252276e-02,-5.25492348e-02,1.88770431e-04,-3.30818825e-02,6.45917527e-03,-8.69394747e-03,1.91268924e-03,-7.46329581e-03,-2.46615277e-02,2.83311458e-02
5.53071181e-02,4.75649232e-02,6.34670067e-02,-1.88817451e-02,-5.05846926e-03,-9.96788893e-03,-4.76501232e-02,3.87502774e-02,2.25453206e-02,2.12684805e-02,-7.05714517e-03,6.11726519e-03,4.40478645e-02
1.39332002e-02,7.00446827e-02,5.65857765e-02,2.55610265e-02,-2.23818279e-03,-2.17721959e-02,-5.98478022e-03,5.00100594e-02,3.79380500e-02,3.30663215e-02,2.92365116e-02,-2.22151986e-02,3.87756741e-02
-1.21275738e-02,5.67622732e-02,5.14178169e-02,-5.25253018e-03,5.80545080e-03,-4.96313119e-03,2.12930792e-02,1.71168384e-02,3.43867434e-02,2.77834370e-02,-3.81980353e-03,-1.48611984e-02,3.20685282e-02
1.94953587e-05,4.47887190e-02,4.59002319e-02,4.61822952e-02,3.88718728e-02,1.15041240e-02,5.15328599e-02,1.03786100e-02,2.87334351e-02,1.74746939e-02,-1.49989917e-02,5.12704316e-04,2.76864493e-02
6.29104448e-03,3.53117887e-02,6.03634506e-02,5.28549913e-02,2.44200955e-03,-1.78027810e-02,4.17570527e-02,-4.80653642e-03,1.40838545e-02,2.39482661e-02,1.78190456e-02,-5.92574236e-03,1.98062104e-02
4.91054928e-03,2.58848751e-02,4.64861681e-02,8.20963910e-02,3.36421187e-02,-4.35024759e-02,2.66948143e-02,-6.21775749e-03,5.11444619e-02,-4.02675887e-03,-3.80960614e-02,-3.94187536e-02,5.01179869e-03
-1.53777594e-02,-2.22188870e-03,4.91461460e-02,9.83518904e-02,-1.10348331e-02,-5.98510553e-02,-3.87103872e-03,1.61063035e-02,7.60984362e-02,-1.56128332e-02,-1.99605551e-02,-5.41752563e-02,-2.91673419e-02
-3.29577121e-02,1.35095684e-02,5.26136588e-02,4.28566511e-03,-3.27451819e-02,-9.30367266e-02,-2.78133787e-02,3.01357804e-05,5.02184509e-02,5.32927674e-04,1.02443251e-02,-4.39711452e-02,-3.83569904e-02
1.94408880e-02,3.01841092e-02,2.97876156e-02,-1.86915036e-02,-5.09721425e-03,-4.50343751e-02,-4.65694743e-02,-1.62847812e-02,2.66992470e-02,1.30088057e-02,3.04741037e-02,-3.32085340e-02,-4.21405737e-02
4.67269342e-02,1.16799497e-02,4.20430329e-02,1.97189068e-03,2.26271913e-02,-3.41990085e-02,-9.55916911e-02,-2.81507300e-02,-2.02347142e-02,3.35521622e-02,3.50339414e-02,3.39811152e-02,-2.56727334e-02
7.43744803e-02,2.65247912e-02,2.74289879e-02,1.02246614e-02,3.62524248e-02,-2.16307917e-02,-9.85430912e-02,-5.47182683e-02,-3.60001729e-02,4.49753485e-02,7.41639160e-02,5.38542075e-02,-1.31414304e-02
4.19178183e-02,1.86997980e-02,-1.61887656e-02,-3.05283709e-02,2.91573265e-02,-1.21679063e-02,-6.71870977e-02,-3.30390993e-02,-6.87102893e-02,6.53133283e-02,7.09885859e-02,8.35381111e-02,1.47399186e-02
1.47478127e-02,-2.31600876e-02,-3.44178284e-02,-2.77411227e-02,1.64114780e-02,2.44105114e-02,-2.18801552e-02,-3.82949390e-03,-3.22674478e-02,7.02215933e-02,4.32071666e-02,7.09136901e-02,4.01772880e-02
3.33032975e-02,-1.06312311e-02,-2.11330076e-02,1.65421274e-02,7.62990016e-03,2.80886998e-02,3.93390994e-02,-1.51460725e-02,-5.79972519e-02,4.19217930e-02,4.35554596e-02,3.70558333e-02,3.31766642e-02
-8.18658632e-03,5.91887233e-03,-4.07456912e-02,-1.03086626e-02,3.83390072e-02,8.32590621e-02,9.08975736e-02,-8.03947975e-03,-3.96043266e-02,1.69185178e-02,-2.74132086e-02,-2.54111838e-02,3.86407764e-02
-4.98048644e-02,-2.52994578e-02,-2.21365076e-02,3.66561816e-02,2.93420113e-02,7.74531989e-02,8.77991893e-02,4.53556383e-03,1.90142395e-02,1.55857730e-02,-7.45694478e-02,-6.98970935e-02,1.49617612e-02
-6.53634584e-02,1.40918059e-02,-1.96815130e-02,-1.11686541e-02,-1.39370950e-03,3.33575668e-02,9.48914453e-02,5.96482426e-02,2.03620204e-02,-2.36827506e-02,-7.64207500e-02,-1.02051795e-01,-2.70598999e-02
7.92455536e-04,1.41811132e-02,-3.25707336e-02,-3.19502638e-02,-3.73658167e-02,-1.09164555e-02,9.24315985e-02,8.82188008e-02,6.03060350e-02,-2.93789355e-02,-9.29677254e-02,-6.97944619e-02,-5.32904317e-02
8.96304507e-02,7.02922895e-03,-3.28734591e-02,-2.77047598e-02,-3.31230901e-02,-2.83133576e-02,3.69832610e-02,7.62835745e-02,4.16804709e-02,-2.63182419e-02,-5.39917183e-02,-2.30245951e-02,-8.49481034e-02
1.22368089e-01,-9.01354478e-04,-2.77168784e-02,-2.80936775e-02,-5.00722547e-02,-4.93545340e-02,-1.75687320e-02,1.14731560e-02,1.63076256e-02,-4.18053984e-02,-2.76633459e-02,-4.32800030e-03,-9.20512329e-02
1.00883234e-01,-1.38678370e-02,-4.92396690e-02,-2.81730919e-02,-2.84340095e-02,-5.19344945e-02,-3.44745395e-02,8.80495813e-03,-1.30836785e-02,-2.77951564e-02,1.16189711e-02,6.31870319e-02,-5.15737711e-02
9.39961642e-02,-6.05783436e-02,-1.19388874e-02,3.27570709e-02,-2.10295973e-02,-3.39217310e-02,-7.65638476e-02,-1.46161760e-02,2.25675189e-02,-1.28890339e-02,4.03483995e-02,4.66727219e-02,-3.23562534e-02
1.21981723e-02,-7.95014764e-02,3.62307312e-02,1.10132154e-01,-1.01448073e-02,-9.87236062e-03,-7.19221638e-02,-6.19279732e-02,-1.60892087e-02,2.93073699e-03,5.91157212e-02,5.27596094e-02,-8.62604408e-03
-2.27582416e-02,-7.35041519e-02,1.72994429e-02,4.97483849e-02,-1.10568940e-02,5.27315436e-02,-5.48353213e-02,-6.94712765e-02,-1.31453923e-02,2.47285971e-02,6.65124405e-02,6.27216746e-02,2.94612057e-02
-5.44781815e-02,-7.16475994e-02,3.69371404e-02,5.62074090e-02,-3.56182692e-04,6.12415614e-02,-6.92106480e-02,-9.09649686e-02,-1.93980824e-02,4.22030552e-02,2.70634983e-02,1.70842181e-02,2.82697464e-02
-6.54489093e-02,1.04468427e-02,3.10669742e-02,1.93361491e-02,3.93881049e-02,8.53795235e-02,-5.36952472e-02,-7.58376617e-02,-4.04197654e-02,1.08185166e-02,2.04410926e-02,-7.44845848e-03,3.17810999e-02
-6.12529181e-02,7.05939634e-02,2.66018722e-02,-4.72909022e-03,1.67402937e-02,3.17576663e-02,-1.32110275e-02,-3.83858800e-02,-4.49701877e-02,4.75204950e-03,1.24612182e-02,1.47727905e-02,4.64330652e-02
-3.60083325e-02,3.93078858e-02,-1.63487753e-02,-1.10567437e-02,3.63014476e-02,3.53765942e-03,-4.28350731e-02,-3.59486652e-02,-5.81838636e-02,3.31027569e-04,1.54675354e-02,2.05583683e-02,2.98654448e-02
-4.10679288e-02,5.04000190e-02,-5.28611023e-02,-4.11666484e-02,4.14791974e-02,-3.46164083e-02,-4.45374840e-02,1.18032678e-02,-5.83546914e-03,-1.62756366e-02,-1.36499860e-03,-6.85140005e-03,-2.57947814e-02
-4.91537142e-02,5.00080016e-02,-1.92117749e-02,-3.97854008e-02,3.34223466e-02,-1.09505672e-02,-1.74415059e-03,4.70832104e-02,-5.76156926e-03,-1.65465875e-02,-5.15727340e-02,-2.82567826e-02,-3.62300812e-02
-1.55505332e-02,4.71136690e-02,2.50918393e-02,-4.34400375e-04,4.24007716e-02,-3.79489538e-02,-3.10237908e-03,2.35753057e-02,2.15595609e-02,-3.15848490e-02,-6.02627799e-02,-5.89833750e-02,-2.79904854e-02
-1.15332793e-01,7.40684769e-04,6.79403196e-02,6.10019104e-02,3.07779330e-02,-3.51329054e-02,2.91289783e-02,2.74687890e-02,1.28348672e-02,-8.29804326e-03,-3.81984414e-02,-2.62041124e-02,4.63792330e-03
-1.13075052e-01,-3.45497844e-02,5.24051125e-02,5.52803882e-02,-1.59994025e-03,-4.08749236e-02,3.57840529e-02,3.90986233e-03,-1.27188408e-02,3.55405221e-03,-2.34392675e-02,1.80693139e-02,3.39752405e-02
-8.07907672e-02,-5.69593153e-02,4.48338548e-02,3.63772135e-02,-5.01567068e-02,-3.98754454e-02,4.84433039e-02,1.73245701e-02,1.57134182e-02,5.18753771e-02,-4.06001427e-02,-8.92423285e-03,1.99961133e-02
-3.31037449e-02,-1.98353755e-02,8.04536687e-02,-1.41353514e-02,-7.01422982e-02,3.29795824e-04,5.69296242e-02,2.22304420e-02,3.09627671e-02,6.15556748e-02,-4.75404202e-02,-5.32699241e-03,1.30088026e-02
2.45053151e-02,3.04375218e-02,6.36849474e-02,-5.21103955e-02,-7.91233515e-02,2.99082367e-02,4.71273836e-02,-4.95748632e-03,-1.45750229e-02,5.17813438e-02,2.68401365e-02,9.18434534e-03,1.33465413e-02
3.33808684e-02,-6.55372190e-04,2.12758017e-03,-1.08201425e-01,-1.03485363e-01,4.43514953e-02,2.25639799e-02,-3.76803457e-02,-4.97949174e-02,4.17455267e-02,6.07596765e-02,4.51600802e-02,3.10833629e-02
6.24554436e-02,6.79009429e-03,-7.60440653e-02,-1.38567785e-01,-6.90660934e-02,3.27470532e-02,-2.77881088e-03,4.83978432e-03,1.72096067e-02,1.24192727e-03,6.64937600e-02,2.68474873e-02,-9.22022562e-03
5.07109701e-02,1.14066586e-02,-7.49184033e-02,-1.29168779e-01,-7.48056873e-02,5.54591855e-02,3.09498898e-03,8.57339240e-02,2.16296938e-02,-6.92910057e-03,2.76678697e-02,-1.82524185e-02,-2.87190008e-02
5.93029120e-02,3.61204392e-02,-5.12852993e-02,-9.85847032e-02,-4.39709823e-02,8.64380479e-03,1.04757612e-02,8.51335888e-02,4.19609673e-02,-3.80960695e-02,-4.85337788e-03,-3.41967599e-02,-3.16218691e-02
2.44506397e-02,2.37578845e-02,-3.99691606e-02,-3.02485546e-02,1.60022536e-02,-1.21785696e-02,3.42367493e-02,1.19188524e-01,5.79479807e-02,-7.83214742e-02,-1.39414605e-02,-1.89214366e-02,-4.14437174e-02
-2.39374490e-02,-4.51677423e-02,-7.59364360e-02,-1.20548282e-02,9.64058671e-03,-5.41241376e-02,2.00656479e-02,5.83601493e-02,1.66001272e-02,-9.05019324e-02,1.14187094e-02,1.24978452e-02,-1.17118988e-02
7.88535485e-04,-7.32122355e-02,-1.04896397e-01,2.57866236e-02,5.67189735e-02,-5.55733783e-02,4.80432594e-02,5.03210129e-02,4.53060645e-03,-4.97243813e-02,-1.36785235e-02,2.71505385e-03,1.03185795e-02
3.00467772e-02,-6.69797971e-02,-6.46636125e-02,4.18165380e-02,6.61859890e-02,-1.39316221e-02,6.90662209e-02,1.92057094e-02,-1.50001603e-02,-2.25970351e-02,-3.61382907e-02,-1.00224518e-02,7.69236636e-03
6.60211658e-02,-6.16107122e-02,-2.28262086e-02,3.91944572e-02,9.40914880e-02,3.13319644e-02,2.20483580e-03,-5.60378792e-02,-3.14334199e-02,-2.25216330e-02,-1.48114598e-02,9.76405722e-03,2.37387674e-02
6.50276651e-02,-6.00108002e-02,5.97851148e-04,3.00521796e-02,5.22654643e-02,6.87973391e-02,-2.72106092e-02,-9.66505657e-02,-4.87188224e-02,3.02223279e-03,5.72200968e-03,4.74545402e-02,3.63783918e-02
-3.45163980e-02,-5.53591366e-02,-3.59923146e-03,5.47297737e-04,1.67688825e-02,6.79299159e-02,-4.45297311e-02,-1.45273236e-01,-2.69465821e-02,1.46758126e-02,2.48002018e-02,4.79140817e-02,3.81883222e-02
-4.31828029e-02,-1.26992723e-02,8.55469780e-03,7.66586047e-03,1.52201427e-02,8.05388808e-02,-3.92178592e-02,-1.13155966e-01,-3.02628964e-02,6.15271227e-02,4.90909895e-02,-1.18138929e-02,3.11032660e-02
-1.97731021e-02,4.70735210e-02,5.41244251e-02,4.03739822e-02,3.86234202e-02,5.23402439e-02,-5.85791280e-02,-1.25166218e-01,-1.25911587e-02,9.55438613e-02,2.94592302e-02,-5.04287585e-02,3.91973277e-02
-5.56965034e-02,6.27153864e-02,7.91407074e-02,5.45463170e-02,2.71274469e-02,7.53104278e-03,-6.06370271e-02,-6.90375433e-02,1.07601692e-02,9.42797674e-02,3.15327433e-04,-5.38876294e-02,1.19494189e-02
-5.50640549e-02,1.01830247e-02,4.30269861e-02,5.17247647e-02,-7.00726622e-04,-4.53003067e-02,-6.82492492e-02,-4.89967794e-02,1.16057178e-02,7.96972028e-02,1.38351920e-02,-6.21966429e-02,7.26363002e-04
-1.12779299e-02,-3.12055697e-02,5.15175138e-02,9.76736589e-02,1.46343096e-02,-7.03214378e-02,-3.26503993e-02,-9.44561714e-03,4.14356087e-03,7.96339749e-02,2.31207073e-02,-9.16644932e-02,-1.37207727e-02
2.30203469e-02,-4.61140474e-02,4.10841369e-02,7.93812655e-02,1.86434903e-02,-5.83536972e-02,2.65580150e-03,-8.35854634e-03,-1.53164259e-02,4.74369554e-02,1.85184140e-02,-7.58639764e-02,-2.32391790e-02
7.51920668e-02,-4.37266651e-02,3.23362183e-02,2.31649597e-02,2.59486196e-02,-3.08163990e-02,1.95020595e-02,2.88511883e-02,-1.41899680e-02,5.55916064e-03,-1.50787757e-02,-5.77182524e-02,-3.07622229e-02
9.42918390e-02,-6.06446068e-02,5.14124148e-02,-2.78788147e-03,-3.15174295e-02,-7.33430382e-02,-1.93739475e-03,7.04574683e-02,3.81542360e-02,-1.49711847e-02,-4.44341791e-02,-3.27984864e-02,-2.14233812e-02
-3.18618351e-02,-8.64580535e-02,2.02094480e-02,-2.38535389e-02,-1.01624780e-01,-1.07036162e-01,-9.66985555e-03,7.48432405e-02,3.63923207e-02,-2.85564474e-02,-3.54184474e-02,-2.81891955e-02,-3.32963152e-02
-3.68553895e-02,-7.76412536e-02,3.88047230e-02,8.15170988e-03,-4.45353701e-02,-3.67738186e-02,1.72530678e-02,7.53644751e-02,1.50308335e-02,-4.83717090e-02,-2.69371591e-02,-3.89093200e-02,-3.38086149e-02
-3.52999551e-02,-5.69807010e-02,3.53555172e-02,1.49395058e-02,-3.46288721e-02,-1.01051723e-02,-5.32204581e-03,4.77779989e-03,-1.67736013e-02,-5.42889911e-02,-1.34697622e-02,-1.70093569e-02,2.47685454e-03
-6.05943719e-02,-3.08671639e-02,1.76130544e-02,-4.25083620e-03,-4.56622318e-02,8.53767749e-04,5.42147641e-03,2.65238107e-02,-7.20222121e-05,-1.77817246e-02,-1.18936303e-02,1.05018124e-02,2.53007171e-02
-2.40524822e-02,-3.86176708e-03,-1.39557846e-02,1.56892964e-02,-1.52963312e-02,1.32474234e-02,-1.17763549e-03,1.94592083e-02,-1.05290196e-02,-4.74753700e-02,-4.09827583e-02,1.18807185e-02,2.23209300e-02
1.47306655e-02,-1.41455930e-02,-2.66603857e-02,5.32675153e-02,-2.19098663e-02,1.42381868e-02,1.63097428e-02,4.82743791e-02,5.73735629e-02,-1.00481361e-02,-3.28678987e-02,1.30746738e-02,3.38909270e-02
3.89912077e-02,6.50821907e-03,-2.43689886e-02,5.85548961e-02,-9.50573824e-03,2.25158900e-03,5.30298938e-03,2.48875620e-02,3.31747835e-02,6.34635265e-03,1.14023803e-02,5.91140769e-02,3.43290198e-02
5.73724219e-02,6.75113400e-02,-5.90070090e-03,4.40773856e-02,-1.98037421e-02,8.49777364e-04,1.03441018e-02,-2.39729736e-02,-3.22304472e-02,-2.52552408e-02,-9.71880916e-03,5.45198671e-02,2.81156151e-02
5.66772727e-02,1.15174038e-01,4.15069746e-02,6.46182538e-02,-1.29424510e-02,-3.77780253e-02,2.20386545e-02,-9.42949575e-03,2.32027266e-02,-4.11693346e-02,-2.82941588e-02,5.14577625e-02,1.09937587e-02
2.71592953e-02,1.32036524e-01,2.25613780e-02,9.25558045e-02,-2.02429142e-02,-1.25352931e-01,1.72614663e-02,-8.22537608e-03,-4.68872592e-03,-2.76580799e-02,-1.97738790e-02,4.48873228e-03,-4.22305370e-02
2.54461821e-02,1.32297511e-01,6.83480622e-02,1.44171165e-01,2.48673562e-02,-1.04270753e-01,7.54766608e-03,-2.36940224e-03,-3.62352821e-02,-5.65609233e-02,-3.34150559e-02,-2.18198254e-02,-6.13222022e-02
1.09771117e-02,1.44972118e-01,8.30205623e-02,1.27922254e-01,5.12064667e-03,-1.10101095e-01,-8.70848740e-03,-4.34449561e-02,-4.98489218e-02,-7.45436321e-02,-5.22743085e-03,1.02775446e-02,-5.09864104e-02
-3.56550850e-03,1.24870320e-01,2.63389161e-02,8.60288392e-02,1.76742318e-02,-7.62070949e-02,2.87002127e-02,-1.80203582e-02,-1.66205747e-02,-6.34693026e-02,3.03036588e-02,1.24339089e-02,-1.64876278e-02
-9.03131459e-03,8.81349364e-02,-2.27915928e-02,2.72497086e-02,6.04114620e-02,-4.05124139e-02,5.11519810e-02,-1.32693081e-02,-3.53042260e-02,-6.64927886e-02,2.80566995e-02,2.51210950e-02,8.64177998e-03
-4.49701268e-02,-1.84023417e-03,-8.63156136e-02,-2.96965165e-02,6.62811815e-02,9.19105664e-03,8.06249823e-02,3.30474909e-02,2.19880312e-02,-2.99912519e-02,5.62370517e-02,6.98986104e-02,5.35478055e-02
-8.20677638e-03,-3.15293937e-02,-1.34267966e-01,-6.79060790e-02,4.90266880e-02,1.01133733e-02,4.24863326e-02,4.17777537e-02,2.51926761e-02,7.91046138e-03,8.87327599e-02,8.56307466e-02,1.92651749e-02
1.35659918e-02,-2.88182593e-02,-1.38926342e-01,-1.35457788e-01,6.62961255e-03,1.88797169e-02,1.03349408e-02,1.10488601e-02,-1.30552012e-02,3.09540445e-03,6.02096613e-02,5.40747645e-02,2.09611178e-02
-7.24735915e-03,-5.00864133e-02,-1.37255073e-01,-1.13460185e-01,1.37763089e-02,6.47911936e-02,3.94707692e-02,3.52601260e-02,2.33546197e-02,2.00280067e-02,4.08837694e-02,3.61884003e-02,2.48010751e-02
4.76103222e-03,-7.36760530e-02,-1.02374516e-01,-8.19186520e-02,-2.71341021e-03,1.35516506e-02,3.04760818e-02,7.87120424e-04,1.95797717e-02,4.36690508e-02,1.97473983e-02,5.46813470e-03,-3.25239142e-03
1.51850355e-02,-7.70148213e-02,-7.07478983e-02,-2.95930073e-02,-2.62117571e-03,2.25161024e-02,3.83912890e-02,-1.49166763e-02,-1.17277159e-02,6.23505994e-02,5.83163782e-03,-3.81399586e-02,-2.12870563e-02
1.69131410e-02,-5.29280198e-02,4.68469122e-03,3.52005302e-03,-5.77966635e-03,7.69983933e-02,2.18824224e-02,-2.09308684e-02,4.26901423e-03,7.53922086e-02,-1.74192150e-02,-6.42577070e-02,-4.00535753e-02
1.90009955e-02,-3.19956910e-02,4.00726634e-02,2.03131226e-02,-5.28152586e-02,7.48692251e-02,1.07595839e-02,1.88242563e-02,2.01209418e-02,4.97996667e-02,-2.40874349e-02,-7.50286334e-02,-1.02369101e-02
2.35597288e-02,-1.47423506e-02,2.07532554e-02,3.54176227e-03,-5.58478584e-02,3.89574245e-02,-2.08993066e-02,3.73048876e-02,4.21168553e-02,3.53240431e-02,-3.01807795e-02,-5.75670172e-02,3.04209025e-02
-7.16365427e-03,-5.33118924e-02,7.72252874e-03,3.99152427e-03,-2.41833531e-02,5.14826678e-02,8.79948007e-03,1.74719239e-02,2.27391243e-02,9.92124609e-03,2.14546213e-02,1.25534658e-02,5.49210290e-02
4.98458591e-02,-3.54013274e-02,-5.30972277e-03,3.54831631e-02,-1.13132921e-02,4.26568795e-02,-1.67122360e-02,9.52401903e-04,1.44796397e-02,-1.10813174e-02,2.44485016e-02,4.25254352e-02,1.07787848e-02
8.29416539e-02,-1.83000725e-02,3.10780413e-02,4.44069659e-03,1.53450125e-02,1.58042931e-02,-5.05980979e-02,5.54411983e-03,7.39057582e-04,6.39062844e-03,2.70103702e-02,4.92936514e-02,-3.16335705e-03
5.14432602e-02,-5.81760051e-02,-1.04728822e-02,-1.60040065e-02,-6.75217963e-03,-2.53814712e-02,-5.10741461e-02,1.98924404e-02,-7.93372441e-03,9.12283040e-03,3.01404758e-02,5.47938106e-02,1.49889261e-02
7.67620764e-02,-1.38414022e-02,2.09775457e-02,-9.51772659e-03,-1.34473746e-02,-8.87919288e-02,-8.58269459e-02,-4.02969374e-02,-2.43544206e-03,1.43635877e-02,1.95513946e-02,3.51230753e-02,3.51314594e-03
7.28311456e-02,2.31822161e-02,4.28895302e-02,4.15823764e-02,1.23253792e-02,-9.85575951e-02,-4.56105645e-02,-7.55073558e-02,-2.53686506e-02,2.24582009e-02,2.72276610e-02,3.30557866e-02,-1.34374480e-02
7.37332946e-02,8.61657894e-03,3.38034207e-02,3.01409744e-02,5.22597196e-02,-3.24828084e-02,-1.07580789e-02,-1.03370357e-01,-3.06414876e-02,3.55593035e-02,6.25061648e-03,-4.19966161e-03,-2.15739947e-02
6.21389824e-02,2.24363843e-02,3.51404089e-02,1.57659811e-02,8.91299003e-03,-1.97654329e-02,1.81421558e-02,-7.34480312e-02,-4.35102696e-02,-6.28208513e-03,-2.34090894e-02,-5.39581945e-02,-1.10734403e-02
6.63260790e-03,3.51646543e-02,5.43034351e-02,5.35194422e-03,1.68609621e-03,-9.34320493e-03,1.65070985e-03,-2.93598683e-02,-5.13189945e-03,-4.00509651e-02,-5.35484690e-02,-3.92111836e-02,1.49349405e-03
1.78959078e-02,2.62439402e-02,5.38108650e-02,3.23528167e-02,-1.55510397e-03,8.91774254e-03,4.29824018e-02,-4.04096394e-02,8.45983882e-03,-5.95297066e-02,-5.02285349e-02,-2.56137821e-02,-3.18226450e-02
3.88988873e-02,-2.88675783e-03,2.44103155e-02,4.18012764e-02,-1.40553053e-03,5.05761428e-02,2.81037346e-02,-7.31983401e-03,2.77968508e-02,-5.63259728e-02,-6.38131404e-02,-4.94263503e-02,-4.45281146e-02
5.40498894e-02,-1.54316680e-02,3.28915865e-02,3.83081513e-02,2.77233610e-02,5.47624661e-02,9.97784387e-03,3.14911912e-02,4.07783214e-02,2.53266650e-04,-5.17908739e-02,-2.60005642e-02,-2.23496255e-02
3.24236658e-02,-3.56475064e-02,-1.84199956e-03,-2.28770327e-02,-4.78684407e-03,4.85216165e-02,-1.34386379e-02,5.21137410e-02,4.00093401e-02,-1.74042238e-03,-2.68160496e-02,1.20266665e-02,-2.78800052e-02
2.91974916e-02,-1.00707230e-02,-2.93445623e-02,-5.88547420e-02,-3.18352790e-02,2.29873093e-02,-4.33429465e-02,1.23272717e-02,2.47054257e-02,5.23258913e-02,1.56037545e-02,-4.13109889e-04,-8.28623477e-03
3.14105558e-02,-1.08740168e-02,-1.69796432e-02,-4.78683345e-02,-1.45557781e-02,5.71568840e-03,-5.05500995e-02,1.35044556e-02,2.84512808e-03,4.31654811e-02,2.45720386e-02,4.22387049e-02,-2.72645980e-02
5.88067799e-02,-1.24568606e-02,-2.55798485e-02,-7.46890015e-02,1.46129078e-02,-1.08598819e-03,-5.20129717e-02,-1.54653946e-02,-8.18696818e-03,7.18415875e-02,2.88978736e-02,2.66593620e-02,1.14281454e-02
3.07824223e-02,-1.75404106e-02,-4.21807261e-02,-7.83542462e-02,9.77070963e-03,9.44348218e-03,-3.90134221e-02,-2.56463764e-02,9.99116447e-03,3.41706637e-02,-1.99804272e-03,-2.75297895e-02,2.06446585e-02
-3.38010475e-03,1.56819331e-02,-2.69621026e-02,-9.08960267e-02,1.82529857e-02,2.83264859e-02,-2.21307478e-02,-1.83155947e-03,2.76424001e-02,5.35614909e-04,-2.64380433e-02,-1.59552949e-02,4.05883758e-02
-2.05997137e-02,1.41562318e-04,1.75080051e-02,-3.75050926e-02,1.48138604e-03,9.06727420e-03,2.48721363e-03,-1.95075414e-02,4.02759148e-02,-1.87822365e-02,-5.05148609e-02,-3.40147440e-02,5.16566034e-03
-4.27399232e-02,-4.71141503e-02,2.76240805e-02,5.37988693e-03,5.75518886e-03,8.17982651e-04,-4.57456024e-03,1.12674378e-04,5.96552437e-02,-3.73690418e-03,-7.15280136e-02,-8.30597756e-02,2.15540290e-03
-1.49667268e-02,-5.38002034e-02,2.51638703e-02,3.38095054e-02,2.11732787e-02,-1.25829093e-02,-8.79980858e-03,2.21878766e-02,7.09656974e-02,1.56973138e-02,-9.65589536e-02,-8.05173614e-02,1.21764157e-02
-4.08645933e-03,-4.94556396e-02,2.01789114e-02,2.55785517e-02,1.59848103e-02,-1.52269380e-03,-1.15333751e-02,5.00616817e-03,6.36199111e-02,-2.60411775e-04,-7.65402077e-02,-2.71304508e-02,2.56916143e-02
5.63833318e-03,-2.11005330e-02,-2.16122066e-03,4.72967549e-02,-1.81636866e-02,-3.26880132e-02,-5.30957384e-03,-1.94198230e-02,2.94273073e-02,3.72218888e-02,-1.41385939e-02,-3.48951741e-02,3.16293365e-02
2.78731456e-03,-3.47211353e-02,-1.39507628e-02,6.79638097e-02,1.19735619e-04,-7.84100063e-02,-4.44040833e-02,-2.22414670e-02,1.98244103e-02,1.34933266e-02,1.31145577e-03,3.20171889e-02,3.21012985e-02
2.43461833e-02,-2.62653229e-02,-1.82597207e-02,5.92032878e-02,-2.27018835e-03,-1.06948572e-01,-5.40613490e-02,1.55666756e-02,-2.99506787e-03,1.92183571e-02,2.33352158e-03,2.79711771e-02,6.34456945e-02
-2.39176039e-02,-5.68250079e-02,1.45008276e-02,8.66550051e-02,2.87089016e-02,-5.36234205e-02,-7.60514673e-03,1.43981699e-02,-1.63932742e-02,-2.22101852e-03,-1.35021117e-02,2.10639419e-02,5.19511060e-02
-1.70186759e-02,5.34952735e-04,1.40591546e-02,7.75189236e-02,4.71640548e-02,-2.58932513e-02,8.11291856e-03,2.05859300e-02,-6.38905909e-02,-3.12532351e-02,1.10832350e-03,2.01231293e-02,4.17649186e-02
-6.01589160e-02,1.26150243e-02,3.68517305e-02,6.52973486e-02,2.55610542e-02,-9.21498465e-03,1.67125854e-02,3.83069125e-02,-6.86883197e-02,-2.29564245e-02,3.04169909e-02,1.74133255e-02,1.45883224e-02
-8.41822668e-02,-2.17627074e-02,2.03006966e-02,5.32252242e-02,2.17586745e-02,1.55828194e-02,4.14848763e-02,3.03270590e-02,-9.52223182e-02,-2.60541191e-02,3.06194261e-02,-4.30576656e-03,-2.14957651e-03
-5.35258729e-02,-3.51077110e-02,2.22675117e-02,3.13820912e-02,3.42235934e-02,4.34971240e-02,5.66230063e-02,4.05936047e-02,-8.21699772e-02,-1.69178536e-02,-2.47197283e-02,-1.24247765e-02,-3.30607726e-02
-6.85067700e-02,-7.35132555e-02,2.73926543e-02,-6.59460533e-03,2.81313675e-02,7.81006974e-02,7.74505469e-02,4.57677259e-02,-5.38141938e-02,-2.37200576e-02,-2.40496301e-02,-1.44066735e-02,-2.94995531e-02
-3.61553446e-02,-4.94277216e-02,3.79159636e-03,-2.33116677e-02,5.58951656e-03,7.67023999e-02,6.83365920e-02,2.89392654e-02,-4.97495037e-02,-1.14250244e-02,8.36694508e-03,-2.63130802e-02,-2.24177710e-02
-3.65135441e-02,-6.09647895e-02,2.64765842e-02,-3.74917900e-02,2.04820250e-02,6.57198540e-02,5.81588468e-02,2.29752954e-02,7.62724556e-03,2.64779448e-02,4.36691894e-02,-4.18175321e-03,-2.95949973e-02
-3.08702811e-03,-2.37331332e-02,2.00228072e-02,-5.13999260e-02,-2.08987732e-02,1.77815486e-02,3.19116296e-02,5.62764320e-02,1.09771034e-02,1.00124728e-02,1.83505749e-02,-7.74442941e-04,-2.45860788e-03
-1.21839201e-03,-2.79664929e-02,3.55399626e-02,-1.86022873e-02,-2.98835533e-02,-1.25660251e-02,2.10395426e-02,4.94899975e-02,4.73723819e-02,3.29976984e-02,-1.05041651e-04,-6.11424337e-04,-2.12203090e-02
3.44366409e-02,2.75905725e-03,2.84621703e-02,-1.52792083e-02,-3.89146448e-02,-2.88723311e-02,-1.01546501e-02,1.17260678e-02,1.69087171e-02,2.07093256e-02,2.93022046e-02,2.67423042e-02,-7.16350628e-03
3.49484509e-02,2.44191105e-02,2.76895102e-02,-7.67396155e-03,-3.15013285e-02,-3.55736303e-02,-3.42784647e-02,3.43232171e-02,2.99274123e-02,3.91752271e-02,4.85202158e-02,3.53377497e-02,6.32992239e-03
3.06604914e-02,2.43778973e-02,6.48841450e-03,-2.54639818e-02,-5.77824778e-02,-5.88344992e-02,-4.36990789e-02,2.01491271e-03,-1.80259846e-02,1.89951791e-02,6.33012704e-02,1.92134535e-02,-5.10366409e-03
6.66957138e-02,3.36798683e-02,1.02698536e-02,-9.57234968e-03,-3.10258576e-02,-6.97829957e-02,-4.85851647e-02,-2.88866407e-02,-3.00447188e-02,-3.31733973e-03,2.01930812e-02,3.67797981e-02,1.42722712e-03
2.73642335e-02,2.00723383e-02,4.36324494e-02,3.10301937e-02,-3.78612459e-03,-2.72642170e-02,-4.39603325e-02,-4.04681687e-02,-7.56494703e-02,-5.39480966e-02,1.31958873e-02,1.61723362e-02,-1.05963531e-03
-1.82522413e-03,3.71625762e-02,8.39457902e-02,6.87588464e-02,4.96223598e-03,-2.04115155e-02,-9.76570390e-02,-8.22819718e-02,-6.34876001e-02,-2.95368699e-02,3.29813133e-02,2.77234461e-02,3.29259746e-02
-1.30610463e-02,1.44533259e-02,1.00778408e-01,6.16905169e-02,4.26266123e-03,-2.08264526e-02,-8.15541101e-02,-8.05564500e-02,-2.28339776e-02,-2.20475843e-02,1.54177515e-02,-9.06446005e-03,1.52929461e-02
-2.18271339e-02,4.09265523e-02,1.22206596e-01,9.08789832e-02,-1.75513417e-02,-4.87047943e-02,-5.39373204e-02,-3.42260920e-02,-3.32571594e-02,-5.30001064e-02,-1.51063676e-02,-6.78498567e-03,4.17478542e-02
-3.37811619e-03,8.49286772e-02,1.18970949e-01,9.82094119e-02,-4.22911895e-02,-8.33102759e-02,-5.22728461e-02,-8.42744913e-03,2.86174905e-02,-4.25189612e-02,-6.05086037e-02,-2.58879077e-02,8.36029874e-03
3.26197138e-02,4.29098819e-02,6.63207025e-02,4.43561594e-02,-8.53607601e-02,-5.34049515e-02,-3.15418901e-02,1.53065281e-02,4.26183373e-02,-2.22521472e-02,-5.78568226e-02,-2.78945510e-02,1.65840793e-02
4.01412770e-02,7.18517151e-03,8.40400266e-04,4.60712610e-02,-7.24246845e-02,-3.23746399e-02,1.85552649e-02,7.53960342e-02,4.83136087e-02,-4.37060070e-02,-6.81697285e-02,-4.95314312e-02,-3.73574489e-03
9.84857673e-03,-8.33701009e-03,-1.00669402e-01,-2.81898813e-02,-7.42146441e-02,-1.35039278e-02,5.74336998e-02,1.03019129e-01,5.90319569e-02,-5.58976754e-03,-6.37314030e-02,-6.67513363e-02,-2.23187215e-02
3.98840611e-02,1.58549905e-02,-8.81069955e-02,-4.69999723e-02,-4.32052063e-02,-1.46422684e-02,9.05000378e-02,1.16906965e-01,8.05643911e-02,-3.32350617e-04,-6.38252177e-02,-4.85787591e-02,-3.03359143e-02
3.54441363e-02,3.08525135e-02,-1.13571185e-01,-2.19154129e-02,1.35313866e-02,1.87628846e-02,1.24495631e-01,7.45818772e-02,1.28092473e-02,-5.41178309e-02,-2.64350953e-02,-4.49730620e-02,-3.13390909e-02
9.82482334e-03,4.40005292e-02,-9.17413489e-02,-2.15025780e-02,5.23157157e-02,1.23024180e-02,9.94435307e-02,1.88101846e-02,1.06925071e-02,5.60854760e-03,3.20425957e-02,-1.73464690e-02,8.40871824e-04
-2.88004741e-03,1.69125785e-02,-7.44235755e-02,6.59851228e-03,6.95464472e-02,1.56216364e-02,5.41180209e-02,-4.75436254e-02,4.67280755e-04,1.31992284e-02,3.68060722e-02,-2.38940994e-02,-1.87922603e-02
-3.48014097e-02,2.54987040e-02,-2.74723992e-02,3.69583741e-02,4.68216411e-02,-8.18388960e-03,5.54554439e-02,-1.71741660e-02,-1.17669220e-03,9.17363024e-03,4.78325974e-02,1.43561663e-02,1.12925854e-02
-2.63985038e-02,9.49968096e-02,2.12592108e-02,7.41913207e-02,2.91996134e-02,-5.22199473e-02,-2.93293411e-04,-4.49911124e-02,3.91793625e-02,-9.23136365e-03,2.38559436e-02,1.22776795e-02,1.00373953e-03
-4.57700429e-03,3.76293179e-02,2.47355879e-02,4.82053758e-02,1.75251192e-02,2.34017907e-03,1.19503902e-02,-3.58985226e-02,5.07592502e-02,1.69338303e-02,1.31639753e-02,1.27741597e-02,7.11797400e-03
2.22016226e-02,2.55857971e-02,3.34519681e-02,4.23611827e-02,-5.59433950e-03,1.05196478e-02,-2.62992884e-03,-4.10378335e-04,3.09289346e-02,-1.33494720e-02,1.72555565e-02,7.70860291e-03,-2.44297078e-02
5.20630433e-03,1.55931095e-02,-8.24789934e-03,-1.92991443e-02,-3.46951186e-02,3.78645329e-02,-3.18975881e-02,-2.18037582e-02,5.68504765e-02,1.72989188e-02,5.57063422e-03,1.59626623e-02,-1.79199996e-02
-4.63337432e-03,2.90125990e-03,5.73514853e-02,-2.77819410e-02,-2.90966534e-02,5.62036619e-02,-1.89560616e-02,5.12725908e-02,6.02101309e-02,6.05244999e-02,5.24731139e-03,2.27929571e-02,-9.35884464e-03
2.42419923e-02,2.26321020e-02,3.36805052e-02,-4.27927904e-02,-5.53752715e-03,2.65532344e-02,-3.83069275e-02,3.53544062e-02,6.07882575e-02,2.06371321e-02,9.45926237e-03,8.96361761e-03,-2.51258824e-02
2.23180619e-02,2.31482028e-02,2.36879292e-02,-3.68293051e-02,2.24645608e-03,-9.67432601e-03,-3.12317218e-02,4.30384534e-02,9.14689057e-03,1.64585242e-02,5.14861626e-02,2.44921854e-03,-1.64181903e-03
4.93440635e-02,-8.82052247e-03,3.37890802e-02,-1.39672158e-02,3.18485749e-03,6.27655454e-03,-3.92387997e-02,1.55659235e-02,-2.97210010e-02,3.30475976e-02,5.66231503e-02,6.32267851e-03,-2.13384167e-02
4.85930780e-02,-3.89087792e-02,4.83021273e-02,-1.37551664e-02,-1.49566428e-02,1.18654917e-03,1.51368215e-02,3.15359078e-02,-4.27653325e-02,9.10725513e-03,3.64278356e-02,4.45115860e-02,4.59615900e-03
6.16703969e-02,9.77221524e-03,3.14019568e-02,-1.03604435e-02,-1.67635101e-03,-2.61241441e-02,7.27965803e-03,-6.47718731e-03,-5.65419319e-02,-1.11365609e-02,1.87761181e-02,5.95333520e-02,1.20342120e-02
3.85505868e-02,7.71583872e-03,2.05169883e-02,1.81545772e-02,2.64578712e-02,-1.48451926e-02,2.23556537e-02,-4.66831637e-02,-6.14507248e-02,-9.08116525e-03,-2.50847247e-02,5.82333745e-02,1.37631422e-02
3.96639762e-02,-8.43225258e-03,-8.81206668e-03,-4.00317282e-03,3.64491001e-02,9.33421660e-03,5.35606247e-02,-1.98659944e-02,-6.75264107e-02,-1.97199143e-02,-3.29385139e-02,5.04458488e-02,-1.43922319e-02
5.51650797e-02,5.24761187e-03,-3.12509857e-02,-1.52508849e-02,-1.40352927e-03,1.43415555e-02,3.41866087e-02,-1.03543171e-01,-9.69538588e-02,-3.26934220e-02,-4.43131005e-02,4.32247226e-02,-1.94553839e-02
1.45304595e-02,-2.29402392e-02,-3.63164768e-03,2.80635885e-02,4.78227780e-03,1.61386096e-02,7.78240775e-02,-3.61282806e-02,-6.78726880e-02,3.66944592e-03,-4.64507281e-02,4.67446853e-02,3.88809732e-02
5.55917529e-05,-3.51201211e-02,-3.17459737e-02,3.85735489e-02,6.70015777e-02,1.70109702e-02,4.33613421e-02,-7.61820458e-02,-4.20645714e-02,-1.58380837e-02,-5.95806846e-02,3.41234441e-02,3.34251959e-02
-2.55280157e-02,-4.02948217e-02,-1.54942275e-02,7.35421436e-02,6.82856657e-02,1.85761459e-02,3.70971304e-02,-6.40404245e-02,-5.56345979e-02,-1.15978217e-02,-1.34737778e-02,4.17581836e-02,3.37121583e-02
1.43661123e-02,-1.68765503e-02,2.11115554e-02,5.29520658e-02,8.10970876e-03,1.28105978e-02,2.64159870e-02,-4.14486811e-02,-2.63503638e-02,3.19798008e-02,-1.83240798e-02,3.08871602e-02,9.60197175e-03
5.07466091e-02,-2.47021101e-02,2.61619419e-02,4.85434352e-02,7.23049608e-03,7.32417056e-03,5.16746883e-02,-1.78470645e-02,-1.71518806e-02,-9.39409330e-04,-4.40351687e-02,2.09648335e-02,-8.62453423e-04
8.00545570e-02,-2.01197748e-02,-2.30248746e-02,1.80251440e-02,8.22286176e-03,2.27657972e-02,7.96452143e-02,3.56654318e-02,-7.96261285e-04,-1.73953442e-03,7.18029282e-03,3.23133209e-02,4.31086762e-03
7.61864592e-02,1.97002101e-02,-2.96391116e-02,-1.19324749e-02,-2.76212488e-02,1.77376431e-02,-9.39098573e-03,-2.45289065e-03,-6.62346677e-03,-1.34244813e-02,-3.56123917e-02,5.69821508e-04,8.60078750e-03
5.49022648e-02,1.36961934e-02,-3.79184044e-02,-4.29519470e-02,-9.97543865e-03,6.81534428e-02,3.68085854e-02,3.99985017e-02,1.71179507e-02,-3.10084983e-02,-3.02674376e-02,-9.84991552e-03,-2.55210529e-02
7.62774323e-02,4.08311067e-02,-5.72865453e-02,-8.40531892e-02,-3.99909271e-02,7.70548360e-02,9.03247997e-04,1.42700191e-02,-2.01162994e-02,-1.77243766e-02,-2.40600051e-02,-5.53255892e-02,-5.62699915e-02
