% normalize=-1
% resample=no
% samplerate=44100
% version=0.64
% yaafedefinition=MFCC blockSize=512 stepSize=256
2.20765840e-03,6.13455791e-03,8.25015218e-03,1.12873474e-02,1.22072395e-02,1.58508232e-02,1.71195633e-02,1.83069626e-02,2.31025899e-02,3.13656703e-02,2.72454963e-02,3.70314287e-02,4.88241029e-02
2.20765840e-03,6.13455791e-03,8.25015218e-03,1.12873474e-02,1.22072395e-02,1.58508232e-02,1.71195633e-02,1.83069626e-02,2.31025899e-02,3.13656703e-02,2.72454963e-02,3.70314287e-02,4.88241029e-02
3.78938849e-01,9.12273708e-02,1.44457145e-01,1.62882889e-02,4.79684542e-02,4.13551352e-02,-2.63285009e-02,3.49364778e-01,4.95974933e-01,2.86841968e-01,-2.13968762e-02,-3.54465060e-01,-1.86156710e-01
3.96108222e-02,1.38418387e-01,1.53639354e-01,4.38115865e-01,2.26543209e-01,3.85959287e-01,-2.53113042e-01,-4.45288319e-01,-1.17591048e-01,3.19315138e-02,4.44443814e-01,5.85266702e-01,2.25926608e-01
3.34116855e+00,3.59328501e-01,6.42641476e-01,-3.79738796e-03,1.45604339e-01,7.89909338e-02,-2.63138635e-01,1.65609906e-01,4.19810870e-01,1.88520723e-01,4.84232400e-02,6.87129849e-02,-4.83406502e-02
3.64590621e+00,-1.17363602e-01,6.84971854e-01,-6.94695449e-01,-1.23201663e-01,-1.97520680e-01,-1.43170270e-01,1.41029577e-01,2.41208411e-01,-2.44109801e-02,4.66313159e-01,4.21967212e-01,1.03929939e-01
4.20910355e+00,3.25356338e-01,8.06981653e-01,-8.23234054e-01,4.49151663e-01,1.81065841e-01,-1.76835390e-01,2.01508953e-01,2.30042460e-01,-3.08854329e-01,3.34958081e-01,4.16548663e-01,1.23898930e-01
4.10760299e+00,2.19347009e-01,1.35683027e+00,-5.83281688e-01,-1.49000322e-01,-2.76123736e-02,8.86545611e-02,2.92116022e-01,1.38278919e-01,-1.69796682e-01,4.35569174e-01,5.66286513e-01,2.11372004e-01
4.03551676e+00,-3.04056780e-01,8.59641300e-01,-8.36570906e-01,3.98738148e-01,-2.48450650e-01,-3.77418826e-01,-2.17762996e-01,9.35219243e-03,1.96252090e-01,2.54958212e-01,5.91242602e-01,3.88727343e-01
4.26982472e+00,-1.19410171e-02,9.87876455e-01,-3.06337926e-01,-1.26813920e-02,1.37001052e-01,1.80347276e-01,1.55455328e-01,5.32161906e-02,7.38222484e-02,2.92274502e-01,3.13574022e-01,2.00064913e-01
4.05380930e+00,-4.57514079e-01,5.33755440e-01,-2.83276382e-01,2.55871127e-01,1.28104076e-01,4.74156395e-01,3.50352887e-01,3.06059814e-01,2.15382872e-01,3.05657440e-01,1.52545404e-03,1.42027870e-01
4.40973087e+00,-2.84865678e-01,7.99591137e-01,-2.50937722e-01,3.75627643e-01,1.65052759e-01,-2.10102644e-01,-7.13834202e-02,1.21305684e-02,1.76213726e-02,2.43346980e-01,4.12120222e-01,8.37895528e-02
4.47088515e+00,-2.58519897e-01,1.00362041e+00,-1.62667473e-01,-1.79311775e-01,-5.23642282e-02,8.37714520e-03,2.58521508e-01,3.73445963e-02,9.94559526e-02,4.22107449e-01,3.72906045e-01,5.40814631e-01
4.25399775e+00,-5.80811330e-01,5.66542994e-01,-4.37125911e-01,-8.41807018e-02,-3.06634430e-01,-7.33666787e-02,4.00173639e-02,-5.82960544e-02,1.29144160e-02,4.94754051e-01,2.93099947e-01,5.12825141e-01
4.45558299e+00,-2.01578398e-01,7.30485864e-01,-4.49210611e-01,3.77095009e-01,9.83291301e-02,8.52097742e-02,7.19556883e-02,7.28840270e-02,5.50374340e-02,2.82994848e-01,3.08749967e-01,2.54483895e-01
4.13308178e+00,-3.22777827e-01,6.60567379e-01,-4.15102337e-01,1.03550551e-01,-3.00667793e-01,4.11656650e-01,2.55838780e-01,5.32901898e-02,2.40362236e-02,2.46945260e-01,3.98583566e-01,3.23061545e-01
4.33772579e+00,-3.77685247e-01,5.86976967e-01,-2.21506900e-01,3.30771542e-01,-3.71340225e-01,3.93932486e-01,7.64301172e-02,-7.44381044e-02,1.78258273e-01,1.77435699e-01,3.88723248e-01,2.49370439e-01
4.32491408e+00,-2.94712543e-01,7.82783974e-01,-5.38480290e-01,-7.86890700e-02,-1.06635517e-01,4.59464120e-01,3.13105703e-02,6.21099243e-02,2.06152488e-01,7.33641872e-02,4.61956263e-01,9.63541613e-03
3.93008610e+00,-1.75479992e-01,5.33047242e-01,-7.92575686e-01,1.46520349e-01,8.47108193e-02,1.47159611e-01,4.90084173e-01,2.99336589e-01,2.11188181e-01,2.63575864e-01,3.77751265e-01,6.74832852e-02
4.07433548e+00,-3.78909303e-02,1.10288300e+00,-6.22232360e-01,5.95917116e-01,2.77012180e-01,2.41275841e-01,-2.61436332e-01,-1.55088895e-03,-2.53495906e-01,5.74512209e-02,2.25871669e-02,1.53958156e-01
3.22650282e+00,-3.19354836e-01,7.24154619e-01,-1.07984854e+00,-1.22001701e-01,-4.94459319e-02,2.41931719e-02,2.87579911e-01,2.95432428e-01,1.10420921e-02,2.20856247e-01,4.24528452e-01,5.65396520e-01
3.82688768e+00,-9.98928355e-02,1.15818972e+00,-8.73306248e-01,-1.26357085e-01,9.58694590e-02,4.98204300e-01,6.57918367e-01,3.29000654e-01,-7.50542784e-02,3.11934216e-01,2.54619840e-01,4.97618857e-01
4.10927873e+00,-2.06308958e-01,6.98585500e-01,-7.32280044e-01,-6.40440645e-02,1.74047732e-01,3.25828469e-01,2.03181460e-01,-9.29636680e-02,-3.58268694e-01,6.70513052e-02,3.29415449e-01,3.25426154e-01
3.44748205e+00,-8.01489546e-01,4.98213921e-01,-5.40013672e-01,3.32770281e-02,-1.24320573e-02,5.64122792e-01,4.80097334e-01,5.13581977e-01,8.56842056e-02,7.37846450e-02,6.05091555e-01,4.49616916e-01
4.09727744e+00,4.83123976e-03,7.27833057e-01,-4.44580388e-01,3.09899475e-01,2.71955818e-01,4.86906481e-01,5.60723171e-01,1.11674420e-01,-1.57809621e-01,1.96641152e-01,1.35257794e-02,1.87450898e-03
3.99756825e+00,-4.91015834e-01,5.36734475e-01,-7.37155175e-01,1.87288940e-01,4.73843910e-02,3.04695101e-01,5.10380362e-01,2.83748547e-01,-2.51892242e-01,-1.62299677e-01,4.17100589e-01,3.33257358e-01
4.07245838e+00,-1.87778271e-01,7.09171726e-01,-2.61514480e-01,2.89529275e-01,1.26027055e-01,5.24607972e-01,4.39433881e-01,1.91844795e-01,1.87053348e-01,-1.71771250e-01,2.31769767e-01,1.86827228e-01
4.09575080e+00,6.50171338e-02,9.66485031e-01,-6.31406068e-01,-5.11597564e-01,-1.97939118e-01,5.09039578e-01,3.54911538e-01,9.02760768e-02,-1.13712978e-01,-2.02110893e-01,2.40217508e-01,5.54179726e-01
3.89296487e+00,-2.22482165e-01,5.58844445e-01,-5.95324170e-01,-3.50888574e-01,-3.73063287e-01,5.91216980e-01,3.88419391e-01,8.47840906e-02,-2.20887179e-01,-1.34763228e-01,4.19973460e-01,6.12350356e-01
3.85558300e+00,-1.20667199e-01,9.19104919e-01,-6.90218512e-01,2.75073954e-01,4.47042079e-01,6.78460083e-01,7.61776982e-01,2.49017706e-01,3.48706024e-01,-1.86982119e-03,3.08200434e-01,6.69549476e-02
4.21079963e+00,2.09218933e-01,6.52390951e-01,-9.50294837e-01,2.27738162e-01,-2.92788772e-01,5.31902556e-02,5.45885083e-01,-1.54818752e-01,-1.09746479e-01,-2.20117020e-01,4.91507379e-01,2.04030091e-01
4.29025626e+00,2.94944129e-02,8.97553044e-01,-5.20299086e-01,2.38074401e-01,-7.97437937e-02,3.09007490e-01,4.81201853e-02,9.41509146e-02,-1.63491196e-01,-4.79813579e-01,2.50791446e-01,2.73998419e-01
4.66602786e+00,-7.00050224e-01,9.01508567e-01,-3.29689569e-01,1.41318535e-01,3.19192229e-02,3.32448644e-01,-1.56100003e-02,2.28487370e-02,5.85709475e-02,-2.16373441e-01,-7.72620822e-02,9.11054375e-02
1.52316999e+00,-2.06130011e-01,-2.79289862e-01,3.09556459e-01,2.18361801e-02,-4.37393059e-01,1.71195848e-01,-3.76007988e-01,2.35202522e-01,1.64845116e-01,-2.13344150e-01,-6.53072351e-01,-2.28811108e-02
2.15506143e+00,8.50351243e-03,4.13898691e-01,4.57356487e-01,3.29693017e-01,2.95784382e-01,2.77105459e-01,1.33587707e-02,2.76361937e-01,3.03794635e-01,-2.08585106e-01,1.76271289e-01,4.02791572e-01
2.21029536e+00,3.27345693e-01,5.69031749e-01,8.64809442e-01,4.08917447e-01,4.92451821e-01,4.18607243e-01,5.67227134e-02,4.79919555e-01,2.62600090e-01,2.07642570e-01,-3.07004732e-01,-1.40995100e-01
2.12019696e+00,5.02878904e-01,7.38161526e-01,5.16809685e-01,2.76896660e-01,-2.21536415e-01,3.41905025e-01,4.39883765e-02,4.45901078e-01,1.28788747e-01,-1.17943805e-01,-8.06681711e-03,3.02403257e-01
2.59571037e+00,1.97957001e-01,1.53008105e-01,1.45115612e-01,5.92652424e-01,2.46160666e-01,1.94522477e-01,2.66071962e-02,1.98516147e-01,-2.57567039e-01,-1.77533509e-01,-4.20659708e-02,-2.64489226e-01
2.09032580e+00,7.01420082e-01,2.40549053e-01,1.50408577e-02,-4.43846822e-02,-2.49766383e-01,1.74742671e-01,4.70295553e-02,1.12783639e-01,4.15976934e-03,1.18515666e-02,1.54550029e-01,2.99891032e-01
2.59064410e+00,9.11981771e-01,5.71271498e-01,2.28832514e-01,1.71248509e-01,-5.29251916e-02,2.85882309e-01,1.33571917e-01,-2.10597525e-01,-2.83138944e-01,-3.63369708e-02,-2.65194933e-02,6.21196483e-03
2.72883090e+00,7.49054630e-01,4.33789797e-01,1.67103192e-01,-2.37674567e-01,-1.53002486e-01,6.57642905e-01,-1.50553431e-01,2.72283090e-02,-2.46696838e-01,-9.56452534e-02,2.88370588e-01,2.76814432e-01
2.98268858e+00,8.59749304e-01,1.07999183e+00,2.45311440e-01,2.76718620e-01,-1.61892278e-01,3.91884707e-02,-1.22829834e-01,2.69548053e-01,2.72972941e-01,8.02195979e-02,4.02684706e-01,1.29067353e-01
2.82800949e+00,3.19873382e-01,6.13546781e-01,-1.86438829e-02,1.20163180e-01,3.55858892e-01,6.12420101e-01,-1.20333863e-01,-1.32296738e-02,2.71846146e-01,3.07057668e-01,-2.20599293e-01,-1.37945106e-01
3.20558767e+00,5.12076728e-01,3.25171759e-01,-3.98034648e-01,2.34380623e-01,2.43929262e-01,2.94874485e-01,1.05255913e-01,1.98281708e-01,1.58264788e-01,-1.46662538e-01,-6.75593380e-02,1.75076999e-01
2.59344214e+00,4.75127463e-01,6.27184599e-01,3.03399178e-01,-2.30785170e-01,-2.82144037e-01,1.38800607e-01,3.84241645e-01,-2.46742503e-01,-2.53464047e-01,-4.26707300e-01,-2.10005480e-01,1.82174122e-01
2.80688721e+00,4.84993256e-01,6.56584505e-01,9.70338860e-02,-9.21262794e-02,-2.64205682e-01,8.76526864e-02,4.60375401e-01,2.43270926e-01,-5.27747179e-02,-2.11545677e-01,-2.00410195e-01,2.55446417e-01
2.07593360e+00,1.38458032e-01,6.92083243e-01,6.11728053e-02,9.49006809e-02,-1.51714927e-02,1.69519016e-01,-1.57240410e-02,-2.84887378e-01,1.92247520e-01,2.80679956e-01,1.94648350e-01,1.57929313e-01
2.92364985e+00,4.76565776e-01,4.24833224e-01,1.95360178e-01,1.16057555e-01,2.93612966e-01,5.26612271e-02,2.45073451e-01,2.81211674e-01,-5.75736397e-02,-3.94077001e-01,6.05049195e-02,5.34292733e-01
3.67672000e+00,1.43749740e-01,2.92114807e-01,1.91391611e-01,-3.31919807e-01,-3.75122624e-02,5.21944131e-01,2.46089540e-01,8.08765883e-02,-1.05275175e-01,-4.75312850e-02,2.40825517e-02,5.52021200e-02
3.92218556e+00,4.00313130e-01,6.00435899e-01,4.42176778e-01,3.53473861e-02,-2.84815437e-01,-1.85253151e-01,-9.43835579e-02,1.43509719e-01,-1.82663121e-01,2.02448936e-01,-2.88689046e-01,-2.03300240e-01
3.51064125e+00,9.56670364e-02,8.36442672e-01,2.74459380e-01,-8.80500090e-03,3.70199012e-01,5.17800578e-01,5.49716393e-01,3.04435818e-01,3.16522248e-02,1.81478051e-01,1.76673606e-01,-2.50737371e-01
3.61513122e+00,1.27860544e-01,3.35588893e-01,-4.73262398e-02,-3.42899681e-01,-2.89541434e-01,-5.95355037e-02,-2.73023525e-02,9.44245055e-02,-2.94893458e-01,-4.54810257e-02,-1.95251598e-01,-4.59274166e-02
3.77294104e+00,4.79043439e-01,6.66462103e-01,3.55292100e-02,-2.01055631e-01,-1.75083494e-01,8.41838736e-03,4.70170648e-02,1.12308185e-01,-1.39167373e-01,-6.24522790e-02,3.28023765e-02,9.71935888e-02
2.99973754e+00,-3.40761932e-01,2.24107494e-01,9.15185165e-02,1.39277030e-02,1.63412284e-01,9.42081105e-02,1.57078670e-01,-3.44843904e-02,-5.65932232e-01,-8.51840675e-02,1.42356752e-01,4.40370286e-02
3.32386205e+00,2.35131861e-01,5.54455045e-01,2.39525212e-01,-1.63972844e-01,-1.51990776e-01,-2.10465383e-01,-3.67648178e-01,2.34959220e-01,1.61230651e-02,5.35638088e-02,3.97383764e-01,6.31352010e-02
3.69754620e+00,2.44346264e-01,1.76791665e-01,-1.06868559e-01,-3.42439263e-01,5.90829835e-02,4.16610703e-01,4.11513177e-01,4.70727103e-01,2.57120064e-01,1.21651237e-01,3.32369195e-01,3.42867846e-01
3.97213273e+00,5.43698045e-01,6.46809979e-01,1.34805822e-01,-1.55599146e-01,-3.41551542e-01,5.61496533e-01,9.80706048e-02,-1.96268729e-01,9.98013596e-03,-1.09305848e-01,1.23105645e-01,-6.60891890e-02
3.11637639e+00,-3.53903634e-01,1.33981236e-01,-4.83320928e-02,-1.99072854e-01,3.92873798e-01,2.74998659e-01,2.28618400e-01,2.81783400e-01,9.03067075e-02,8.97926187e-02,8.90093944e-02,2.42173290e-01
3.50357495e+00,5.93001981e-01,4.01915767e-01,1.84909723e-01,2.53946142e-01,6.15850882e-01,4.89740319e-01,1.34057616e-01,1.07575092e-01,8.09539713e-02,9.33933721e-02,-7.93809908e-02,3.59896786e-01
3.90149794e+00,1.62302374e-01,2.35148903e-01,-2.52991962e-01,-6.05568941e-03,-6.93660404e-02,1.79661711e-01,6.07189531e-03,1.43189910e-01,5.08085306e-02,-2.18847670e-02,-3.91418690e-01,4.40137658e-01
3.93628546e+00,-3.04823901e-01,3.55098091e-01,-1.50543047e-02,4.46588031e-01,2.98323159e-01,-9.76358614e-02,2.81348894e-01,1.70784157e-01,7.48688544e-02,6.56962344e-01,8.33637935e-01,1.71756376e-01
4.07156289e+00,-1.32709956e-01,6.16551201e-01,1.47920067e-01,-3.09579987e-04,7.06996699e-02,-6.00152840e-02,2.43428328e-01,1.43367065e-01,3.19245011e-01,2.87215118e-01,1.41454907e-01,-1.56597563e-01
4.06861202e+00,-2.19316263e-01,3.96847455e-01,-1.15946727e-01,-6.74001467e-02,2.75231803e-01,4.44933572e-01,4.07753083e-02,1.49134157e-01,4.33254679e-02,4.33362808e-02,3.64153704e-01,1.54594804e-01
3.53935253e+00,-3.35691455e-01,3.80174924e-01,4.76299036e-01,3.25173930e-01,4.25237672e-01,4.98869692e-01,2.55870840e-01,-3.12587476e-01,-1.01660911e-02,1.91202223e-01,1.52073078e-01,8.58356170e-02
3.50014082e+00,-8.66828898e-02,6.30600959e-01,2.21914446e-01,6.66940906e-01,3.58303300e-01,2.33464353e-01,1.23647478e-01,1.26872841e-02,3.29395770e-01,2.85281908e-01,5.66744990e-01,-1.34025536e-01
4.07318761e+00,2.36875044e-01,6.22316282e-01,1.81854236e-01,3.29060315e-01,-2.32935609e-01,-2.70144892e-01,1.29909797e-01,4.94266546e-02,1.15605048e-01,1.57374589e-01,4.33314268e-02,4.31758602e-02
2.56079968e+00,1.66480667e-01,2.29501983e-01,-2.65934271e-01,-3.22653693e-01,3.86796768e-01,2.62598948e-01,-1.07054175e-01,-2.68635751e-01,3.09827737e-01,3.12534594e-01,-2.60921992e-01,-2.85332664e-01
2.78275168e+00,7.14043617e-01,9.40972515e-01,1.08666382e-01,7.16626643e-02,-1.40557954e-01,1.85752751e-01,5.62820270e-02,6.46013318e-02,1.03840480e-01,7.58932877e-02,-2.69172165e-01,-1.66563431e-02
4.27148797e+00,1.33397440e+00,1.32444218e+00,4.77426017e-01,4.17156957e-01,2.44051877e-01,2.65109940e-01,2.14600282e-01,2.67410226e-01,2.16751906e-01,9.90507125e-02,9.78031282e-02,-2.49657933e-03
4.08158243e+00,1.77426431e+00,9.16603347e-01,5.33370430e-01,5.98112388e-01,7.41117307e-01,4.61299082e-01,3.01811829e-01,-2.57297560e-02,-1.74776279e-01,1.59575802e-01,-4.77994731e-03,-4.58180481e-02
2.52898778e+00,1.15468248e+00,1.15678978e+00,5.20158258e-01,6.80978849e-01,5.16251737e-01,7.01782267e-01,3.15012985e-01,2.94998951e-02,1.14136703e-01,9.45852462e-02,-3.23290206e-02,3.61558042e-01
2.51870088e+00,1.14067061e+00,6.04215676e-01,1.15555794e-01,3.22153826e-02,3.86692179e-01,2.07630981e-01,1.41092588e-01,3.37472615e-01,-6.06315317e-02,-1.66515083e-01,-1.95355560e-01,-1.91533095e-01
2.50686415e+00,1.26586542e+00,8.51060736e-01,7.79232775e-01,4.71897225e-01,4.64389633e-01,1.91302616e-01,1.96990936e-01,2.68071134e-01,-9.43626171e-02,-2.59808174e-01,-1.80812557e-01,-1.90072482e-02
3.22502414e+00,1.16469766e+00,6.11386355e-01,5.96295614e-01,1.19895362e-01,4.01099382e-01,6.20440342e-01,-1.51285920e-01,4.16034816e-02,-3.38391529e-02,-5.51098377e-01,-7.68268102e-02,-2.26865342e-01
2.92090201e+00,7.15570423e-01,7.20062565e-01,3.07022899e-01,4.81253286e-01,1.84577998e-01,5.50951807e-01,3.57702404e-01,1.72724592e-01,-1.36727297e-01,4.95021851e-03,-1.49853335e-01,-6.60933050e-03
3.36113387e+00,9.11579299e-01,7.16616674e-01,4.48491313e-01,1.07485564e-01,-1.23190037e-01,2.30139197e-01,3.95203398e-01,2.22302143e-01,-2.47363622e-01,-3.39862376e-02,8.74832895e-02,3.43424623e-02
3.82794510e+00,8.03502560e-01,9.75509643e-01,3.13700723e-01,4.25384493e-01,4.39606637e-01,3.14931369e-01,2.74026261e-01,1.32256724e-01,-2.73026191e-01,3.12404464e-02,5.83520585e-02,1.78214949e-01
3.76196555e+00,3.18052592e-01,1.17424950e+00,8.04362968e-01,4.91695351e-01,5.34747327e-01,3.92032851e-01,3.41794135e-01,-2.97375334e-01,-2.45726727e-01,-3.10135326e-01,8.58629589e-02,-9.47675186e-02
2.94582539e+00,4.27158551e-01,8.94745863e-01,4.80910655e-01,3.98481744e-01,5.78053739e-01,4.78102158e-01,6.55088987e-01,3.46743725e-01,-2.33940545e-01,2.45696488e-01,1.36558236e-01,5.32240892e-01
3.60942362e+00,3.24733559e-01,3.37451470e-01,2.12254403e-01,-1.24230766e-02,2.52234511e-01,4.21746956e-01,7.09163950e-02,-2.39417065e-01,-3.30422418e-01,1.42090761e-02,8.68966583e-02,1.21350213e-01
3.64112899e+00,-1.08504087e-01,3.91813738e-01,-1.46444106e-01,2.60329949e-01,5.60586787e-01,2.06703987e-01,-1.64384735e-01,3.37903409e-02,-3.21191085e-01,-2.95548203e-01,-1.47359619e-01,-1.42235296e-01
3.72191427e+00,5.69662697e-01,6.51730425e-01,1.36431747e-01,4.60105975e-01,3.63858569e-01,3.47686239e-01,3.34611239e-01,1.66255130e-01,-3.48695929e-01,-4.79206923e-02,1.60843855e-01,-1.77930276e-01
4.07349356e+00,5.44074481e-01,8.26471157e-01,4.46392922e-01,8.73777306e-01,8.22950544e-01,5.84720851e-01,6.21717995e-01,3.51529803e-01,-6.19756071e-01,-2.84851389e-01,-1.10355937e-01,1.00262581e-01
4.23602937e+00,6.23504413e-01,7.61814869e-01,-9.28182685e-02,2.09839224e-02,6.85784631e-01,2.54285959e-01,5.99710837e-01,2.65321803e-01,-5.03888703e-01,-6.77358312e-02,4.19613070e-01,-1.76801163e-01
4.17326019e+00,2.11244041e-01,8.20123087e-01,3.60863471e-01,8.67124082e-02,7.01257112e-01,6.25181840e-01,3.46353068e-01,1.16388794e-01,-1.53877658e-01,-1.57739441e-01,2.81793758e-01,1.69842022e-02
4.11360334e+00,5.91034071e-01,1.10454505e+00,3.55529655e-01,3.92294613e-01,3.35353907e-01,5.08619099e-01,1.48806355e-01,-2.08566083e-01,-1.98762447e-01,5.75915496e-02,3.79762187e-01,2.27179081e-01
4.40148675e+00,1.35295497e-01,1.03520888e+00,-4.58554518e-03,-9.99411623e-02,5.66765843e-02,4.97656230e-01,5.16943398e-01,1.11705971e-01,-2.22727838e-01,-1.82446018e-01,-4.92758486e-02,-1.85544055e-01
4.47573902e+00,-3.86355382e-01,2.23051986e-01,-2.53474553e-02,6.40409406e-02,2.01251434e-01,4.67274303e-01,3.23125527e-01,9.94236205e-03,1.58314559e-01,-2.50849715e-01,1.66503608e-01,1.61996595e-01
3.91263507e+00,-4.80472228e-01,2.56165096e-01,-1.65009258e-01,5.30889774e-01,5.70338677e-01,6.84661992e-01,7.81175166e-01,4.24333943e-01,2.98620493e-02,9.37355379e-02,-3.31302912e-02,1.02521195e-01
4.50381226e+00,1.73790965e-01,8.06346912e-01,-1.56035118e-01,3.15677134e-01,8.19930362e-02,4.03722136e-01,6.89888151e-01,3.44290434e-01,-4.86320702e-01,-3.67230155e-01,7.70597257e-02,2.42226985e-01
4.71467403e+00,2.41230587e-01,3.83502244e-01,-2.31346487e-01,1.82045343e-01,-4.09974624e-02,5.05884232e-01,4.35555044e-01,-9.89089630e-02,-1.19767360e-01,-2.63275210e-01,1.35874821e-01,2.04547022e-01
4.21018996e+00,-4.34305264e-01,6.60730655e-01,-3.29269707e-01,2.51317599e-02,5.59993474e-02,4.33511960e-01,3.26641160e-01,-9.08247280e-02,-6.21949991e-02,-6.65034981e-02,-1.34036630e-01,-2.33403356e-01
4.26866478e+00,-1.32433698e-01,1.27455776e+00,-4.11255995e-01,-4.02482604e-01,9.55381564e-02,5.13270758e-01,8.51969450e-01,8.07840921e-03,-1.57429056e-01,-2.80723362e-01,1.58447510e-01,7.46498237e-01
4.51207552e+00,6.57351451e-01,1.30329191e+00,-6.66189877e-01,1.16006843e-01,4.69056961e-01,6.35409683e-01,3.12007085e-01,-2.32041432e-01,-6.31372386e-02,3.61391610e-01,1.42501863e-01,7.48914285e-02
4.65123973e+00,-1.64286270e-02,1.26633795e+00,-8.04527975e-02,7.36073148e-02,2.16328769e-01,2.70589830e-01,4.73819430e-01,3.10267951e-01,2.15135127e-01,-1.07115892e-01,-2.59627357e-01,2.45629829e-01
4.39782431e+00,2.79671410e-02,8.10017218e-01,-7.45473295e-02,3.55336857e-01,5.26349792e-01,4.84860223e-01,1.45130717e-01,3.65351383e-01,-3.97306767e-02,7.82577792e-02,-4.21417347e-02,5.52997218e-01
4.21799643e+00,2.85933549e-01,9.00766993e-01,-1.27332808e-01,7.41529206e-02,7.89132429e-01,4.73492067e-01,-3.27267586e-01,-4.12804070e-02,1.87699253e-01,-7.73143443e-02,-9.35782366e-02,2.65495129e-01
4.17441082e+00,-7.49298276e-01,4.02955385e-01,-3.63449159e-01,-8.37294313e-02,-2.21824007e-01,2.81050940e-01,2.11876350e-01,-9.65463633e-02,4.37105869e-02,3.40016552e-03,5.19406575e-02,-1.27406469e-01
4.86246468e+00,-9.41292724e-01,6.66022143e-01,-8.05121972e-02,2.21953524e-01,5.41490621e-01,5.45932145e-01,1.53362369e-01,-1.57608263e-01,7.38378797e-02,8.82406813e-02,1.98455032e-01,1.26949531e-01
4.91764155e+00,-9.67519323e-01,6.94604709e-01,1.84877152e-01,5.39252750e-01,7.31896364e-01,5.87910951e-01,3.66637516e-02,-2.12568470e-02,4.24722786e-01,-1.49245730e-01,-1.81600294e-01,2.14098347e-01
4.54908059e+00,-8.81158969e-01,5.18616249e-01,3.74351605e-02,4.92521042e-01,5.14390586e-01,5.64979415e-01,-3.21065754e-01,-1.17412102e-01,4.17446151e-01,-2.02111839e-03,-8.66142081e-02,5.50082411e-01
4.62908474e+00,-1.00528259e+00,5.24910434e-01,-3.41425586e-01,6.78382663e-01,5.34211157e-01,2.72450132e-01,-7.78918920e-02,9.29205272e-02,4.46061854e-01,-2.50812839e-01,-2.05242563e-01,2.35687059e-01
4.45004232e+00,-9.31496953e-01,-8.64486094e-03,-6.69665131e-01,2.25598934e-01,7.51982265e-01,1.40453868e-01,-2.16706913e-01,3.55047272e-01,7.29309982e-01,-2.69967707e-02,-4.37746260e-02,1.74778672e-01
4.59226331e+00,-8.53477962e-01,4.17219103e-01,-4.19479438e-01,7.02724467e-01,8.31713532e-01,5.17671712e-01,-2.08344530e-01,2.72360454e-01,6.35679673e-01,-1.20390245e-01,-2.37770734e-01,7.19611898e-01
4.83040983e+00,-1.00099762e+00,1.56785076e-01,-2.20834666e-01,6.31342874e-01,5.17767917e-01,4.35842965e-01,-4.94048840e-02,-2.73744458e-02,6.35209269e-01,1.33947205e-01,-1.18691075e-01,1.82975290e-01
4.72629045e+00,-1.01710351e+00,1.46509556e-01,1.13577207e-01,7.26875532e-01,5.37603984e-01,4.51794365e-01,6.74640678e-02,2.25288670e-01,3.65654158e-01,-4.61582948e-02,-2.25838974e-01,1.10442881e-01
4.75135963e+00,-9.40695757e-01,3.02138378e-01,-1.37727662e-01,6.16595775e-01,5.03434709e-01,3.16206975e-01,-8.37477610e-02,2.31291953e-01,4.46121655e-01,-1.29198909e-01,-5.95115365e-02,3.90958362e-01
4.89919353e+00,-1.01370116e+00,3.03001165e-01,-1.27526764e-01,4.81692385e-01,9.70220071e-01,2.23778099e-01,-7.52920670e-02,1.56757867e-01,7.31534397e-01,2.08968539e-01,-1.89254659e-01,3.35842915e-01
4.81450517e+00,-1.28526801e+00,1.76155923e-01,-3.90443513e-01,3.39032131e-01,4.47812336e-01,2.45493152e-01,-4.13775514e-02,-1.78851097e-01,4.41394470e-01,1.57467405e-01,-3.22775818e-01,3.80685118e-01
5.22260861e+00,-9.30234329e-01,1.67185222e-01,4.87510850e-02,5.93188166e-01,4.80067722e-01,3.41810537e-01,-1.46428244e-01,1.70224367e-02,2.12288653e-01,-2.48015559e-01,-1.49027432e-01,4.48475183e-02
5.03352938e+00,-1.35293949e+00,2.48246280e-01,-2.20016611e-01,5.46822170e-01,5.90465803e-01,3.58653187e-02,-1.85415187e-01,8.82857229e-03,3.44153738e-01,2.84975188e-02,6.96727880e-02,3.82548690e-01
4.78242359e+00,-1.03024235e+00,6.07701193e-01,-6.41729115e-02,7.99946668e-01,9.54015406e-01,2.71647349e-01,-1.54271241e-01,2.19305688e-01,3.71960153e-02,2.50807919e-01,-3.93125882e-02,3.05614150e-01
4.99247251e+00,-1.19216285e+00,3.45634344e-01,-4.11993030e-02,4.67185565e-01,6.30185772e-01,6.11865976e-01,-3.71338911e-01,1.34426499e-01,4.54995573e-01,1.54618140e-01,-1.52644330e-01,8.25370696e-02
4.03810195e+00,-1.44914011e+00,-2.57500873e-01,-8.12390854e-01,2.49163457e-01,9.14850725e-02,-1.06360969e-01,-2.53496677e-01,-1.09653845e-02,2.75813905e-01,2.19823394e-01,4.95075654e-03,1.88717718e-01
4.61586493e+00,-7.27487097e-01,2.35147491e-01,-2.02701316e-01,9.32841724e-01,7.08937384e-01,1.58204958e-01,9.23126178e-03,-2.46763868e-01,2.93534702e-01,7.80212892e-03,-5.30352149e-01,3.86459200e-01
4.92008787e+00,-1.01017426e+00,2.94694022e-01,1.67273462e-01,6.86438459e-01,5.03530084e-01,4.26028952e-01,-3.70623920e-02,-2.81114193e-02,4.83144020e-01,-2.63834975e-01,8.86086767e-02,2.32324518e-01
4.55079967e+00,-9.76106923e-01,2.95538797e-01,-2.62671635e-01,5.59328330e-01,2.06811648e-01,3.10069002e-01,-3.49119791e-02,2.50859559e-02,3.62936711e-01,-6.81423085e-02,-1.65936389e-02,2.47982016e-01
4.61952614e+00,-1.19604540e+00,2.00267614e-01,-6.53459361e-02,8.14297041e-01,5.91007156e-01,5.90321575e-01,1.97567473e-01,9.90711533e-02,5.58574948e-01,9.00349348e-03,-1.97997914e-01,-9.99355062e-02
4.28690609e+00,-1.30183984e+00,-1.11967388e-01,-3.67849314e-01,2.96085320e-01,3.59684522e-01,-9.74706405e-02,-4.15280240e-01,2.69766206e-01,-7.12841514e-02,-1.33874244e-01,5.03863527e-02,3.11367365e-02
4.84427049e+00,-1.05676472e+00,4.86138367e-01,-1.50627662e-02,6.19187771e-01,4.41337128e-01,4.34713066e-01,-2.03309860e-01,2.73337678e-01,4.69477810e-01,-2.69173674e-01,1.11859287e-01,8.22688865e-02
4.90995166e+00,-8.98079496e-01,1.35604884e-01,-1.85666798e-01,4.43467038e-01,2.88733755e-01,1.31783227e-01,-2.03667750e-01,5.22787248e-01,3.39902841e-01,9.71717765e-02,1.62943640e-01,3.33491727e-01
4.50061346e+00,-1.39736370e+00,2.09967719e-01,-3.34730174e-01,-4.20913238e-02,-1.47183849e-01,-1.88910742e-01,-1.80067662e-01,-9.55205260e-02,2.04505701e-01,-4.26715398e-02,-6.49732790e-02,1.00971507e-01
4.36516182e+00,-1.55382617e+00,3.47743563e-01,-3.22508928e-01,3.19849501e-01,3.86586626e-01,4.12799018e-01,-2.47072338e-01,4.92221989e-01,6.04896429e-01,1.94742687e-01,1.43947027e-01,2.59355242e-01
4.85595916e+00,-1.30462694e+00,3.23171035e-01,-4.60339758e-01,3.99490902e-01,2.79243375e-01,2.62847229e-01,4.37322492e-02,3.56784648e-01,6.49420816e-01,-5.32047121e-02,5.61183446e-02,4.95327859e-01
4.78715189e+00,-8.42175779e-01,3.01283703e-01,-3.73343188e-01,2.46868187e-01,4.95227776e-01,4.72772123e-02,-1.67002096e-01,-5.72638156e-04,3.10233549e-01,-1.25336416e-01,-2.77453115e-02,1.19309742e-01
4.77839336e+00,-1.07351919e+00,2.36042869e-01,-2.47220932e-01,3.48290312e-01,4.33373038e-01,2.19828258e-01,-9.47835678e-02,6.26063743e-02,8.55860779e-01,1.35662979e-01,-3.58001903e-02,6.25876951e-01
2.33766499e+00,1.42538991e-01,3.24540124e-02,-3.01171431e-01,3.24607532e-01,2.93747089e-02,2.98999484e-01,3.68790553e-01,2.77815690e-02,-1.86365690e-01,-1.37446928e-01,-3.70253984e-01,-1.76057666e-01
3.76770506e+00,8.55314857e-01,7.91741605e-01,6.93846070e-01,2.07889934e-01,1.23584189e-01,1.58607577e-01,-3.80588115e-02,4.26133573e-01,2.98499297e-01,-3.64853594e-02,-2.25094899e-01,2.14893308e-01
4.47879113e+00,1.14802150e+00,3.37488238e-01,5.34557046e-01,7.45548029e-01,8.30238248e-01,4.23849872e-01,1.26899607e-02,6.13621301e-01,4.16994705e-01,-1.16859315e-01,-2.17252314e-01,-1.45455277e-01
3.58688239e+00,1.20333979e+00,7.80981030e-01,7.90070650e-01,6.30181105e-01,5.11282739e-01,5.11906629e-01,5.62425705e-02,5.42205946e-01,1.09487554e-01,1.02912242e-01,-2.13742991e-01,2.18954751e-01
2.98773160e+00,9.92143562e-01,4.33113692e-01,3.58522418e-01,4.31284719e-01,9.03679150e-01,8.66033015e-02,-1.56107611e-02,4.00512039e-01,1.61952716e-01,-1.89018590e-01,-2.18218278e-01,1.04022197e-01
2.79322637e+00,8.62022306e-01,-3.94197914e-02,9.57126243e-02,3.10362506e-01,-1.77927334e-01,4.56486738e-01,7.68236373e-02,2.68778305e-02,4.73943332e-01,2.75287467e-01,-3.46478869e-01,2.05120903e-01
3.04948434e+00,1.19303457e+00,2.84876697e-01,3.91310309e-01,4.77529566e-01,6.07432670e-01,2.22919969e-01,-7.87290453e-02,2.82494170e-01,-2.71306119e-03,3.00548123e-01,-1.04472643e-01,-1.93830105e-01
3.54359725e+00,1.21665653e+00,6.52926898e-01,4.31295107e-01,6.03591268e-01,5.67383688e-01,4.68313630e-02,-4.30416475e-02,1.45874560e-01,1.12015289e-01,-1.48288486e-01,-1.12310448e-01,2.13143547e-02
3.22036762e+00,3.75166332e-01,-4.52746543e-02,9.53511120e-03,2.99402993e-01,6.11758638e-01,2.48914855e-01,5.02676577e-01,3.47139785e-01,2.01834575e-01,3.76732605e-01,1.89718364e-02,3.62070716e-01
3.76876140e+00,5.07566261e-01,8.76559070e-01,3.17459413e-01,6.47385370e-01,6.39632094e-01,1.36862211e-01,2.18587412e-01,1.94287100e-01,5.36306476e-01,-1.98547700e-01,-3.69109346e-01,1.65769494e-01
3.90578696e+00,3.18756064e-01,-1.02150838e-02,-1.39190878e-01,6.39879852e-01,5.75787678e-01,2.99770743e-01,-3.92364384e-02,7.13636846e-01,5.13855846e-01,2.08294083e-01,3.19107230e-01,5.29570123e-02
3.79078817e+00,3.48286434e-01,5.69386184e-01,7.07479606e-02,7.47824142e-01,4.76806447e-01,3.03862714e-01,-3.21844945e-01,1.41418517e-01,2.38965234e-01,-1.75087988e-01,1.39039521e-01,3.35837405e-01
4.18787741e+00,-1.69346504e-02,4.07458950e-01,3.04327066e-01,4.91131109e-01,2.03187191e-01,1.24470539e-01,-3.49845255e-01,2.33029077e-01,9.14454800e-02,-2.26663885e-01,2.92191997e-02,1.60683516e-01
3.75357060e+00,-3.39461158e-01,1.04830287e-01,-7.99216814e-02,6.62362387e-01,4.42753070e-01,3.58858953e-01,-1.19587357e-01,1.03739278e-01,9.23768005e-02,-5.10397689e-01,-5.32206110e-02,3.24716072e-01
3.59079044e+00,-6.32084943e-01,2.61479425e-01,1.03797858e-01,3.36243300e-01,2.98730958e-01,2.75803138e-01,-1.74070159e-01,5.32998910e-02,5.99736567e-01,2.22882216e-01,3.42310673e-01,2.51396251e-01
4.51803056e+00,1.96263098e-01,9.19366218e-01,6.13241060e-01,6.04759447e-01,5.08498622e-01,-2.07397199e-01,-3.23691275e-01,5.30747008e-02,-1.25147954e-01,3.10921307e-01,3.77403465e-01,5.07300646e-02
4.31878507e+00,-5.30733602e-02,6.37883738e-01,9.59093723e-02,6.48284548e-01,4.38802483e-01,-8.69992850e-02,-1.77721182e-01,3.08224075e-01,3.25069293e-01,-3.97743855e-02,3.52875914e-01,2.77395243e-01
4.55545122e+00,-6.95384254e-02,6.29655113e-01,2.44476973e-01,7.41244269e-01,4.30737000e-01,3.01763374e-01,-1.45305013e-01,-9.97988158e-02,5.11252124e-01,1.05672262e-01,-1.56963996e-01,-9.77886569e-02
4.96088312e+00,-3.51463658e-01,3.01710217e-01,4.50797796e-01,4.71780209e-01,4.93032690e-01,3.53209001e-01,7.27516818e-02,-1.13422464e-01,8.31226016e-02,-2.43671589e-02,4.68501889e-01,-5.79089549e-02
4.48098739e+00,7.95228032e-02,8.40964670e-01,2.19803506e-01,4.01432162e-01,6.95205522e-01,3.52244619e-01,-3.34435144e-01,-2.46134411e-01,2.25961085e-02,-1.27739773e-01,-1.92750510e-01,3.22944222e-01
4.58645490e+00,-1.09179906e-01,4.40515936e-01,-2.39288083e-01,1.27772327e-01,6.50072495e-01,-1.94694825e-03,-4.47037200e-01,1.13587217e-03,1.80383141e-01,-1.19753343e-01,1.57020868e-01,4.47936928e-01
4.40677540e+00,-8.11442177e-02,5.22021289e-01,-2.21429468e-02,3.45814532e-01,4.64922841e-01,3.80730855e-01,-9.09491211e-02,1.75363553e-01,8.97478516e-03,-4.69846195e-02,1.40947089e-01,7.48280977e-02
4.51320482e+00,-1.66990171e-01,4.67510513e-01,4.05844001e-01,6.34592775e-01,8.14381175e-01,2.11682315e-01,-1.00050147e-01,1.64052487e-01,2.63509703e-01,3.67370421e-02,-6.57289115e-02,-1.60323270e-01
4.44608099e+00,-2.30214239e-01,2.95358181e-01,-5.83736535e-02,6.18175232e-01,2.89544668e-01,1.64475962e-01,-3.88105314e-01,-2.92823316e-01,1.50055126e-01,1.59503044e-01,6.40443097e-01,1.80828108e-01
4.22613129e+00,-1.54195944e-01,1.82238871e-01,-1.15870047e-03,3.60675639e-01,2.70343681e-02,1.21551280e-01,-1.00425423e-01,1.09993147e-01,2.13053641e-01,-1.37882573e-01,2.75944298e-01,2.90948573e-01
4.57673762e+00,7.07005507e-02,7.53013204e-01,1.08161931e-01,6.00563988e-01,1.06701785e-01,-1.68147208e-02,-2.84673643e-01,-2.20295412e-01,1.70614604e-01,1.02840779e-01,1.32701058e-01,2.20711879e-01
4.44394358e+00,-3.76433528e-02,5.23434633e-01,1.50529261e-01,4.93476131e-01,5.61498012e-01,4.37220682e-01,-2.23554551e-01,-5.88526610e-02,1.38473347e-02,-3.15766783e-02,3.80956944e-01,2.31087724e-01
4.29449989e+00,-3.65954038e-01,4.58744026e-01,6.18264415e-02,5.03274500e-01,1.45325040e-01,1.69773035e-01,-2.26800337e-01,3.66322991e-01,2.35153308e-01,1.92679378e-02,2.75158402e-01,3.43006587e-01
4.46714269e+00,2.21179132e-01,9.56648565e-01,5.30512634e-02,8.01169718e-01,3.31286935e-01,-3.36984317e-01,-1.45788644e-01,1.33913733e-01,-1.81234846e-02,-6.02471326e-02,1.96867501e-01,3.62786391e-01
4.40837414e+00,-2.12336071e-02,1.06865342e+00,-7.13369523e-04,6.91004827e-01,2.88174228e-01,4.41514507e-01,-4.50439963e-02,-1.60325029e-02,1.91369689e-01,-1.03517638e-01,2.30117003e-01,2.18020644e-01
1.83659723e+00,1.91843815e-02,2.59428234e-01,-1.71511881e-01,2.79639213e-01,7.19238911e-02,1.20088283e-01,2.39126550e-02,-8.82996361e-01,-3.80604877e-01,4.70308676e-01,1.21109438e-01,-1.83399905e-01
1.92148990e+00,2.00826675e-01,3.30043509e-01,5.64780955e-02,2.02797882e-01,3.62593776e-01,-2.63742071e-01,-1.68027493e-01,-8.90123251e-02,4.37243231e-01,3.39524708e-01,-1.86963326e-01,9.32295205e-03
1.75211501e+00,7.24899109e-01,2.14506530e-01,1.99773432e-02,-1.03509316e-02,1.61452319e-01,1.83785900e-01,-2.65536143e-01,2.07855014e-01,2.66728137e-01,6.17177689e-02,3.57263089e-01,4.78494578e-01
2.41315036e+00,1.00029374e+00,6.30277382e-01,2.89580435e-01,3.94762878e-01,-2.75814423e-01,-1.80543637e-01,2.11049078e-03,-2.30100036e-01,-2.11003103e-01,-5.94027554e-02,1.90721799e-01,-4.80812089e-02
2.16885321e+00,4.46957615e-01,2.85142881e-01,3.99694860e-02,-2.16797808e-01,1.21456680e-01,5.49021903e-03,-7.20992097e-01,-2.66531986e-01,-1.78359542e-02,3.49009604e-01,3.21078567e-01,4.10571731e-01
2.67774880e+00,3.75423120e-01,5.20168456e-01,-3.79351893e-03,-1.23142603e-01,-2.97876045e-01,1.27590385e-01,-5.43801900e-01,-4.71053349e-01,-2.42354593e-01,-8.15775281e-02,-9.40056769e-02,1.01102987e-01
2.63677592e+00,8.34606668e-01,9.60450031e-01,2.40347284e-01,6.56997451e-02,3.25058815e-01,8.93122453e-02,2.15610928e-02,-1.00293794e-01,-1.19746681e-01,2.01100336e-02,1.52878700e-01,6.34160399e-02
2.97254528e+00,2.41066862e-01,4.85598236e-01,4.55322270e-01,9.99218602e-02,-3.18421239e-01,-1.45873870e-01,1.27328379e-01,-5.83263818e-02,-1.73019991e-01,1.31133639e-01,-1.73201419e-01,-3.08689101e-01
2.85827723e+00,3.95877090e-01,5.86704569e-01,4.57556771e-01,-2.36804038e-02,-1.63433606e-01,-8.78490699e-02,-2.91632667e-01,-1.52486605e-01,1.99799775e-01,-1.16460215e-01,9.24242954e-03,2.49423785e-01
2.75334848e+00,5.81527657e-01,9.10087292e-01,-2.36646593e-01,-2.06700652e-01,-4.36689741e-01,9.00936337e-02,1.18059850e-01,2.46506208e-02,4.27000111e-01,-4.94677055e-02,-1.30225407e-01,2.20294898e-01
2.62459563e+00,-4.01261185e-01,4.82273934e-01,-1.57358544e-01,-1.50369873e-01,-2.30353299e-01,-1.67590993e-01,4.69629688e-02,3.87961962e-02,-8.26076098e-02,-1.17158189e-01,1.30424714e-01,1.53943377e-02
3.46513705e+00,3.98412431e-01,4.72197273e-01,-8.04455104e-02,-1.05221781e-01,-6.20874015e-02,1.83234488e-01,1.43363989e-01,2.22292668e-01,5.84969438e-02,-9.86123794e-02,1.77015135e-01,4.22020263e-01
2.91080968e+00,-3.09806670e-02,6.72973444e-01,1.09333711e-01,-9.33990659e-02,-3.16400826e-01,2.78567145e-02,-9.93901364e-03,-1.22167548e-03,2.82951469e-01,2.21685856e-01,1.50892723e-01,-3.05314013e-01
2.80695115e+00,3.44704390e-01,4.43373821e-01,-3.15949532e-01,-1.36319236e-01,-1.33727772e-01,3.28886370e-01,-3.02783117e-01,6.08670400e-02,-2.78955204e-01,-2.90283208e-01,-3.93627392e-03,-1.09515227e-01
3.19599419e+00,8.53760584e-01,1.02764143e+00,2.10842681e-01,-1.78160150e-01,9.20409395e-02,4.78247320e-01,-3.95872477e-02,-2.92605585e-01,-8.23901178e-02,1.09281638e-01,-2.03649263e-02,-1.01639791e-01
3.23729693e+00,4.05162397e-01,4.30573548e-01,1.79236527e-01,9.53794821e-02,3.36530123e-01,-1.70781683e-01,-3.50540542e-01,-1.53980374e-01,1.28566034e-01,3.59732371e-02,1.85597675e-01,-1.32037740e-01
2.99047591e+00,1.70854157e-01,6.44074043e-01,-2.80733749e-01,-4.18142745e-02,-1.55793060e-01,-1.14536935e-01,-4.60014512e-02,-9.60180481e-02,1.15825989e-01,2.53905918e-01,3.88802468e-01,1.34485086e-01
3.28443056e+00,-7.03529052e-02,7.47880948e-01,5.31161638e-02,-3.37589844e-01,1.25335383e-01,7.37684763e-02,2.06224226e-01,2.82129742e-01,4.04707583e-01,2.89167755e-01,-4.84476126e-02,1.42106801e-01
3.44070939e+00,3.10529344e-01,1.14092615e+00,2.64101629e-01,-1.80652998e-01,-1.85878903e-01,-6.85973543e-03,-3.13941308e-01,-1.41022764e-01,1.20094668e-01,3.36017630e-01,4.07498570e-01,1.68001301e-01
4.07317198e+00,3.83039585e-01,6.08854831e-01,4.04579718e-01,1.06953000e-01,3.77281117e-02,1.70093050e-01,2.13148732e-01,-2.57347726e-01,-3.00064828e-01,1.32504270e-01,4.62941889e-01,-1.88711840e-01
3.83381341e+00,-2.50174386e-02,7.83825274e-01,2.99553499e-01,-1.66190974e-01,-4.42097583e-01,3.20947628e-01,-2.33912066e-01,-3.23235754e-01,-1.67878399e-01,8.01537370e-02,-5.15306521e-02,-3.49846247e-01
3.59633670e+00,-7.83050422e-02,7.38094210e-01,6.90647793e-01,-2.02319371e-01,-3.98511845e-01,2.22982754e-01,-6.75707557e-02,2.54757600e-01,-7.42557071e-02,2.67800743e-01,3.55334220e-01,-3.39192646e-01
3.76636234e+00,4.01800526e-01,7.87620567e-01,1.36176856e-02,-1.36164191e-02,-1.64738944e-01,2.26289238e-01,7.16382880e-03,4.64919794e-01,2.22589540e-02,4.39633674e-01,7.94697583e-02,-3.49974068e-02
3.79024804e+00,7.96427775e-02,7.53095109e-01,2.17586707e-01,-1.37089637e-01,-3.57641156e-02,1.49129821e-01,-4.76373017e-02,1.03050695e-01,-2.71262203e-02,6.02449307e-01,5.18254442e-01,1.37565443e-01
3.76478027e+00,-4.29859023e-01,1.10849642e-01,6.31425718e-01,6.68960748e-02,7.73785376e-03,1.86145899e-01,-3.99279048e-01,-7.12617287e-02,-1.48641913e-01,2.91091372e-01,2.66957038e-01,8.19107178e-02
3.43651243e+00,-8.16579657e-02,2.84782863e-01,1.69553158e-01,8.17329417e-02,3.16838288e-01,2.64632421e-01,-9.68468875e-02,-4.32586453e-02,4.37357918e-01,4.60083730e-01,2.31278940e-01,4.01805280e-01
3.63077287e+00,-1.27873519e-01,8.68671030e-01,5.16057710e-01,-2.85186480e-01,-3.57626502e-01,7.17022312e-02,-1.94918870e-01,2.65008088e-02,3.81141210e-01,5.49248455e-01,4.49965087e-01,2.26381566e-01
4.07506824e+00,3.36299137e-02,5.15708270e-01,2.02331579e-01,-3.39922508e-01,-4.88558267e-01,-7.06296850e-03,2.76517260e-02,-2.24449270e-01,-3.61924835e-02,4.47509266e-01,4.41458756e-01,6.07212030e-02
4.09854107e+00,-2.76763506e-02,8.79888236e-01,-1.34198991e-01,-2.19363036e-01,1.99640840e-01,4.57287493e-01,-7.36940118e-02,-1.25007550e-01,3.88108443e-01,5.45189430e-01,7.10027963e-01,2.33919400e-01
4.19916530e+00,-1.62987681e-01,6.89762420e-01,3.94167367e-01,1.81808085e-02,-1.27019375e-01,3.03365294e-01,1.90123276e-01,-2.71220424e-01,4.85351808e-01,8.03012482e-01,3.45358628e-01,-6.84697642e-03
4.03777697e+00,7.84358741e-03,7.33608963e-01,9.86632853e-02,-3.94793176e-01,-4.54036815e-01,3.15087499e-01,1.17962073e-01,-3.63952193e-01,2.46987128e-01,1.74436223e-01,2.10225012e-01,6.09267134e-02
4.42858913e+00,2.80544563e-01,2.89092194e-01,1.37454054e-01,-7.68405820e-02,4.38414412e-03,4.83578394e-01,-2.75458053e-01,-1.56356047e-01,1.63736884e-01,5.57732270e-01,2.72537978e-01,1.10289475e-01
3.29066388e+00,6.86543406e-02,4.33683989e-01,3.73327213e-01,1.91675087e-01,-2.03699274e-02,2.92544452e-01,-3.32347695e-01,1.37026377e-01,5.66846222e-01,8.66904856e-01,4.48022120e-01,4.11891355e-01
2.92425370e+00,5.51802909e-01,3.49378882e-01,8.73789373e-02,1.30647152e-01,-3.69573387e-01,5.60785452e-01,-2.65934562e-02,-1.65653394e-02,2.93830339e-02,-1.94332236e-01,-5.27420202e-02,-1.44222227e-02
4.05567271e+00,7.15325943e-01,3.53642233e-01,7.85178452e-01,2.67843330e-01,3.88992221e-01,1.23684977e+00,5.44505093e-01,5.62414615e-01,2.60198888e-01,5.77763125e-03,5.07401518e-01,-6.36349019e-02
4.49855190e+00,1.24216994e+00,8.10095762e-01,1.13826277e+00,1.67560592e-01,-4.20722230e-02,5.77968915e-01,2.03475435e-01,2.33957039e-02,-3.51935897e-01,2.55066814e-01,2.17357935e-01,1.25756292e-01
2.77906356e+00,9.47926922e-01,9.92934524e-01,9.64226173e-01,5.44909797e-01,3.97150119e-01,4.13152399e-01,1.13329509e-01,4.90770113e-01,5.16968946e-01,7.66578828e-01,5.53333268e-01,-2.29477555e-01
2.78634293e+00,6.68570344e-01,4.59591204e-01,7.31846085e-02,8.89495982e-02,1.52749298e-01,3.11652190e-01,-2.43959571e-01,8.92178776e-02,2.57521342e-01,4.99797500e-01,3.67590076e-01,-1.51186358e-03
3.17499156e+00,1.30879366e+00,8.99516561e-01,5.61252723e-01,2.02905555e-02,-7.20386196e-02,1.11889067e-01,-2.46120193e-01,-4.15187838e-01,-6.79820690e-03,3.14567179e-01,9.47442519e-02,-1.49585622e-01
3.44546994e+00,1.39011263e+00,7.47229961e-01,3.11581828e-01,2.31115672e-01,-1.29627894e-01,-9.82065453e-02,2.04224881e-01,8.78908918e-02,4.08105476e-01,2.56313862e-01,-1.39997456e-01,-3.78814634e-02
3.70313728e+00,8.34657115e-01,6.36408905e-01,4.53014640e-01,8.01718448e-02,1.01748568e-01,2.03400868e-01,-1.65986253e-01,-1.65783281e-01,2.92298108e-02,2.71941494e-01,5.34930549e-01,2.02145389e-01
3.54749315e+00,6.72580520e-01,1.18915251e+00,3.77058318e-01,-1.18132460e-01,2.42439810e-01,2.89815207e-01,6.29701911e-02,8.24750749e-02,2.23073948e-01,6.64133578e-01,2.97614041e-01,-4.10261965e-01
3.97404071e+00,5.49484247e-01,1.15537031e+00,4.50082964e-01,1.50762277e-01,-1.25222280e-01,6.95189744e-02,7.93875633e-02,-9.38647861e-02,4.85836928e-01,8.55970992e-01,5.70931019e-01,-2.96993427e-03
4.13698041e+00,8.23088247e-01,3.58711625e-01,9.65933518e-02,-8.96944196e-02,4.71331116e-02,4.26216639e-01,1.87477720e-01,2.03355081e-02,1.58015766e-01,6.07741421e-01,3.09725579e-01,1.95323484e-01
3.82304925e+00,3.01873242e-01,5.00446138e-01,2.90927301e-01,7.41920260e-03,2.35799124e-02,5.88206544e-02,-3.03149885e-01,1.65113880e-01,1.87582378e-01,6.49050755e-01,5.04199543e-01,-7.37140241e-02
4.33863164e+00,4.54814570e-01,6.00469434e-01,3.54824945e-01,5.74839035e-02,-2.28622546e-01,2.30798203e-01,-1.66470106e-01,8.49662878e-02,3.44107195e-01,6.63202027e-01,2.23804948e-01,-2.12294568e-01
4.56081671e+00,3.80725080e-01,3.72852093e-01,3.17933491e-01,2.65826974e-01,5.20688141e-02,2.18497087e-01,-2.43680895e-01,2.37659187e-01,-1.92803578e-01,3.75041248e-01,2.99954908e-01,-1.82796687e-02
4.25662535e+00,4.44542530e-01,6.07327921e-01,-8.02168086e-03,-2.14389354e-01,-2.02565042e-01,2.40485289e-01,9.88233828e-02,9.66359025e-02,2.84281024e-01,8.34301678e-01,3.93712395e-01,-4.12308449e-02
4.39742966e+00,5.40619310e-01,6.03726010e-01,5.03967919e-01,7.87663266e-02,-4.34703427e-01,3.37104320e-01,3.89398938e-01,-1.27635622e-01,6.03812983e-01,6.57789467e-01,-1.03248660e-01,-9.59910357e-02
4.32857580e+00,-7.32014097e-02,5.54078317e-01,-1.40077579e-01,8.01291758e-02,7.63046194e-02,2.56531541e-01,-1.30472925e-01,-1.87961334e-01,2.84690298e-01,7.90202474e-02,4.98292537e-01,-3.66676223e-01
4.63429318e+00,3.15676541e-01,5.51819356e-01,3.64980122e-01,1.37269777e-01,4.11943207e-01,5.21894431e-01,2.61433367e-02,9.42738378e-02,9.70124254e-02,5.78358469e-01,5.75066152e-01,-1.61446132e-01
4.21587993e+00,2.83460351e-01,4.36764427e-01,1.41024196e-01,-2.83675834e-01,-3.25004702e-01,-7.52743648e-02,-3.91670839e-01,3.48473749e-03,3.10683728e-01,6.01953411e-01,2.89294544e-01,1.94299806e-01
4.47694561e+00,2.71541726e-01,8.71951944e-01,-1.01488070e-01,-2.23154343e-01,-3.25303326e-02,-2.37067383e-01,-3.24253501e-01,-2.71596048e-01,1.74851542e-01,1.96101181e-01,1.84951792e-01,1.67685042e-01
4.19800863e+00,6.08995057e-02,2.49188480e-01,-3.03905783e-01,-1.74884856e-01,1.16395672e-01,1.24428678e-01,-1.77998286e-01,1.31509761e-01,5.91185859e-01,3.89105164e-01,2.75486093e-01,3.23928358e-01
4.85792859e+00,9.95232990e-02,7.06370476e-01,-2.00684921e-02,-4.21472703e-02,3.27369196e-01,-3.16153822e-01,-4.36939078e-01,4.36625994e-01,1.65303681e-01,5.29509533e-01,2.26739158e-01,-1.69436501e-01
4.58179089e+00,3.54204487e-01,7.83289903e-01,-4.67104069e-02,-2.58650694e-01,1.13617864e-02,6.40216621e-01,-2.90203399e-02,-2.55071794e-01,9.53836863e-02,6.36287078e-01,8.80228715e-01,1.08987167e-01
4.80032243e+00,-1.42749890e-01,5.56307450e-01,1.34343989e-01,-1.49139511e-01,-1.88069730e-01,8.46280262e-02,-3.14505112e-01,1.20179735e-01,-7.25885915e-02,1.02098900e-01,4.09458013e-01,-2.34051314e-03
4.45894360e+00,3.88459171e-02,5.68553703e-01,7.07184159e-02,-2.19354629e-02,-4.23380393e-01,-1.83256502e-01,1.14344507e-01,-2.80446217e-02,1.33831231e-01,1.78165639e-01,2.04758955e-01,-3.55696113e-01
4.30845220e+00,-9.61029457e-02,5.60739849e-01,-1.64431366e-01,-3.04296166e-02,3.36151328e-01,1.57004955e-01,-1.96623056e-02,1.07348621e-01,3.20097485e-01,6.46131036e-01,6.16479645e-01,2.43134486e-02
3.53661668e+00,-5.11817412e-01,-1.09881923e-01,1.85122975e-01,-4.00956753e-01,-2.56627640e-01,-5.39764129e-01,-7.93864919e-01,-4.64342446e-01,1.14372707e-01,4.81708421e-01,3.37263898e-01,4.92741533e-01
2.84673800e+00,-2.75725645e-01,2.71430229e-01,5.28158890e-01,3.01878285e-01,-4.89947940e-01,-2.58872023e-01,3.22531002e-01,4.96436327e-01,-4.80644061e-01,-1.11510722e-01,-2.03858354e-01,2.17093043e-01
2.57940194e+00,-4.91937694e-01,3.79677675e-01,6.10212080e-01,7.73859400e-01,4.13793186e-01,3.31535082e-01,-3.87974000e-02,-3.18190398e-01,-3.63139247e-01,5.95952556e-02,9.85853121e-02,-2.68124700e-01
1.91633634e+00,1.86192950e-01,4.91704335e-01,-7.22829027e-02,-3.02192776e-01,-6.13860956e-01,-8.19348696e-02,3.47204347e-01,2.17306393e-01,-3.04973819e-01,1.14320257e-01,3.17085138e-01,2.24542159e-01
2.53516253e+00,4.70259510e-01,6.07573936e-01,5.92372250e-01,4.10694392e-01,-3.03028845e-01,2.21096701e-01,-2.75397961e-02,5.10140876e-02,2.89802210e-01,3.77809119e-01,9.29742737e-02,5.32144668e-02
2.63972322e+00,4.10376360e-01,4.99182515e-01,4.24993089e-01,3.46071803e-01,-4.80965866e-02,4.50865886e-01,1.60541441e-01,-2.95075289e-01,-2.02056169e-01,-8.32337270e-02,-1.27254855e-01,3.19750906e-01
2.51694935e+00,-1.90985893e-01,3.50156143e-02,2.36634480e-01,4.23406853e-02,-2.61787913e-01,-1.72220560e-01,-7.22677306e-02,-1.55085203e-01,-1.07624029e-01,-2.55336463e-01,-2.05153385e-01,-2.55739117e-01
2.63187892e+00,6.06081797e-01,8.45987674e-01,2.15825680e-01,-7.86918387e-02,-3.56175626e-01,-1.34615400e-01,-7.90672622e-03,1.13512486e-01,3.65831353e-01,3.72559507e-01,3.82370766e-02,4.76045902e-02
1.97843015e+00,1.25263952e-01,5.35466315e-01,-3.00815108e-01,-5.31869816e-01,-4.61623639e-01,-2.19471458e-02,-2.04770258e-01,-4.40715102e-01,-3.13532023e-01,-2.19277920e-02,2.45436041e-01,2.88582086e-01
2.66861929e+00,3.21592405e-01,6.92163311e-02,7.75114535e-01,7.75048693e-01,6.13763282e-02,4.54137355e-01,2.24313361e-01,9.80626195e-02,-4.69811457e-01,-1.49528705e-01,-3.89406098e-02,-1.88765553e-01
2.91803643e+00,8.94015594e-01,3.91945743e-01,3.40040276e-01,6.40511712e-01,3.41890069e-01,3.66060892e-01,-2.36204157e-01,-2.93793321e-01,-2.09918656e-01,1.29970000e-01,-9.17761987e-02,9.92257628e-02
2.44090021e+00,5.38965944e-01,4.45091107e-01,7.87142579e-01,4.53967701e-01,4.54198992e-01,2.50379872e-01,1.62078465e-01,3.17662025e-01,-9.83122461e-02,6.41390068e-02,-1.63759049e-03,-2.72181343e-02
2.86032132e+00,5.30311558e-01,6.51774783e-01,8.80308190e-01,5.26696659e-01,1.08889073e-01,2.77153650e-01,1.00008882e-01,-2.59229513e-01,-5.37034450e-01,-1.39233442e-01,5.07641444e-01,2.68439308e-01
2.40543621e+00,7.07693457e-01,-1.74821335e-02,3.82871736e-02,2.74936951e-01,-3.44328950e-01,-1.41530025e-01,4.56108305e-01,3.10053115e-01,3.33703636e-01,2.98626988e-01,1.74398523e-01,-2.74287204e-02
2.27094521e+00,7.04625635e-01,3.21349806e-01,1.37961220e-01,-1.61587872e-01,-9.81178061e-02,2.07794467e-01,-1.05108421e-01,5.27971354e-02,-1.04093981e-01,6.30099296e-02,2.25366093e-01,2.46410157e-01
2.84101674e+00,7.33480729e-01,9.20964435e-01,6.61773528e-01,6.89051212e-02,1.05445057e-01,2.04256672e-01,8.24490943e-02,4.54131857e-01,9.32391545e-02,1.67795331e-01,-1.86166764e-01,2.25388510e-01
2.48743008e+00,6.87116950e-01,6.04173590e-01,2.35392861e-01,4.98637134e-01,4.75617478e-01,1.38593344e-01,1.13766202e-02,-1.53911738e-02,4.54196931e-01,1.35775691e-01,-2.64660656e-02,2.97944707e-01
2.49920557e+00,7.77148277e-01,6.29538098e-01,1.47107663e-01,6.14162968e-01,2.40615603e-01,1.51505878e-01,1.41895590e-02,2.88926318e-01,-2.98398138e-01,-2.26569435e-02,3.69556566e-02,1.55826445e-01
2.62205676e+00,-1.65654279e-02,1.76112598e-01,-8.16176336e-02,-2.93636768e-03,2.04902556e-02,3.16925151e-01,-6.55760078e-02,-9.26690801e-02,1.79392045e-01,1.01860782e-01,3.96361607e-01,2.68128752e-01
2.15339731e+00,8.46967717e-02,-1.64861399e-01,8.75208507e-02,9.02977207e-01,6.74711677e-01,5.94316196e-01,2.04349115e-02,2.61836724e-01,4.75710711e-02,-4.15547925e-01,1.02707515e-01,-1.15255439e-01
2.75335708e+00,7.58133787e-01,3.27829548e-01,2.56490247e-01,1.31416539e-02,3.56479731e-01,-8.65589804e-02,-1.63283017e-01,-4.31400412e-02,2.75511028e-01,-8.82189971e-02,1.84685264e-01,4.55940750e-01
2.97404939e+00,5.67570598e-01,2.23867333e-02,-7.01860818e-02,2.57525816e-01,1.36380784e-01,-2.51298275e-04,9.64526120e-02,1.65671325e-01,1.18620304e-01,3.52041868e-01,4.80132729e-01,4.35161380e-01
3.09306622e+00,2.87310883e-01,1.33560810e-01,6.46937140e-01,7.82275653e-02,3.08619822e-01,4.60389481e-01,-4.40656928e-01,1.40767669e-02,3.53489330e-02,-1.34236278e-01,1.24555376e-01,7.18608912e-01
2.51087051e+00,-3.57068930e-02,-5.81422327e-02,-1.00284603e-01,-3.11756456e-02,3.86696146e-01,2.74856007e-01,1.14412125e-01,2.89023118e-01,5.68163510e-01,1.77566753e-01,2.72922516e-01,5.97886805e-01
3.02323452e+00,2.67949437e-01,1.09909555e-01,2.73113340e-01,2.92060453e-01,1.05426578e-01,-5.22006985e-03,-5.21713339e-02,5.43652256e-02,-1.69477259e-01,1.12010952e-01,1.87824608e-01,3.51161821e-01
2.86765358e+00,5.90633027e-01,3.04550054e-01,5.50302503e-01,2.87226729e-01,1.12638192e-01,-1.73624931e-01,-4.79262206e-01,2.76838311e-02,-5.75261217e-02,1.12707040e-01,4.58219508e-01,2.70017089e-01
2.99844989e+00,5.11702165e-01,2.22862685e-01,3.43704141e-01,7.51487983e-02,-3.25796282e-01,-4.20636704e-01,-1.27384927e-01,5.62661031e-01,4.36143314e-02,-1.68508252e-02,-1.12417709e-01,-5.56766619e-02
3.14961916e+00,2.43312838e-01,4.09623994e-01,1.04185063e-01,4.80429162e-01,6.11893066e-01,9.14329002e-02,-2.22269690e-01,2.83873756e-01,2.16026617e-01,-1.11815399e-01,-5.86856144e-02,3.61426419e-01
2.93261856e+00,1.89743992e-01,4.11274656e-01,1.32669188e-01,3.18895507e-01,4.69898416e-01,3.99147126e-01,1.21806703e-01,7.35169818e-01,5.60550634e-01,2.08178166e-01,4.01778232e-01,3.61946658e-01
3.24498975e+00,1.06885772e-01,5.38640780e-01,3.75469505e-01,1.06452830e-01,3.26425683e-01,2.42428491e-01,2.62345199e-02,2.06990794e-01,2.02912148e-01,1.38178618e-01,3.44877484e-02,1.97675266e-01
3.65609938e+00,2.24868821e-01,4.54194096e-01,2.54523969e-01,-3.29561280e-02,2.20383119e-01,1.69725296e-01,-2.27971791e-01,6.13430482e-02,3.67994592e-01,-1.12323042e-01,1.71362442e-02,3.35191966e-01
3.42063459e+00,1.07280089e-01,5.74127660e-01,5.53907172e-01,3.26954752e-01,2.94031975e-01,-1.12290244e-01,-2.34223046e-02,2.06441525e-01,2.83489898e-01,2.89975796e-01,1.76811541e-01,4.16155613e-01
3.78193790e+00,3.22528240e-01,7.98120537e-01,3.63145517e-01,1.92413076e-01,4.83669651e-01,1.36081486e-01,-2.85321296e-01,-1.09055269e-01,-2.92767062e-01,-5.98650614e-02,-4.24203110e-02,4.80597646e-01
3.72344397e+00,-7.93618142e-02,3.00372994e-01,-2.55270332e-01,1.61553689e-01,3.49389361e-01,-3.14975157e-01,9.85416079e-03,3.37603916e-01,2.63723361e-01,2.79417194e-01,1.69520971e-01,1.97544882e-01
3.51075656e+00,-6.37336975e-01,3.08483536e-01,-7.76069922e-02,-3.15934459e-01,-3.02338485e-02,-3.09754792e-01,-4.28546723e-01,3.88165009e-01,3.41529452e-01,2.34643013e-01,4.80424488e-01,4.23557388e-01
3.87839583e+00,8.67737276e-02,4.77731891e-01,7.13409074e-02,1.17591855e-01,6.82997612e-01,2.08658093e-01,-8.47073333e-02,1.35518262e-01,-7.04818183e-02,3.69878159e-01,6.47309473e-02,3.08653989e-01
4.12844051e+00,-5.90187475e-02,2.57055246e-01,-1.84918898e-01,2.35440740e-01,3.62100705e-01,-1.80930530e-01,-3.56634864e-01,4.89034480e-01,3.94943120e-01,1.41034886e-01,-2.85164257e-01,2.10790290e-01
4.15468146e+00,-3.35750255e-01,4.41716192e-01,-1.56110378e-01,3.89686889e-02,2.51001075e-01,9.36496043e-02,1.11232013e-01,6.30085778e-01,2.92759620e-01,5.15611762e-01,1.63885266e-01,3.66758370e-01
4.74974145e+00,8.10292735e-02,5.38111354e-01,-2.21762492e-02,2.51974579e-01,4.86145456e-02,4.34031506e-02,-1.26772877e-01,1.49961635e-02,-2.41405523e-02,7.23220934e-02,-4.43449726e-02,3.55661619e-01
4.24829556e+00,-4.78600455e-01,6.21998574e-01,-2.41045853e-01,3.16742723e-02,-2.77178545e-02,-2.22302916e-01,6.89327414e-02,7.09382674e-02,1.41322010e-01,1.20964618e-01,-3.93089061e-02,3.89114397e-01
4.25863441e+00,-5.58510653e-02,7.91839702e-01,-2.24923759e-01,2.32146316e-03,4.92762951e-01,2.01700305e-01,3.04124777e-01,-5.73476059e-02,7.83211820e-02,-2.72187983e-01,9.87050752e-02,6.02799135e-01
4.87188914e+00,-6.81572133e-01,5.12937142e-01,-2.91762265e-01,5.02668483e-02,-1.20382636e-02,1.05220156e-01,2.81068613e-01,8.53770154e-02,8.38650892e-02,1.85488411e-01,2.26341768e-01,1.93145225e-01
3.77665041e+00,-7.80381111e-01,5.53741263e-01,1.13865740e-01,-4.83252294e-02,-6.06297886e-02,-5.03684751e-02,4.57034460e-01,1.93452793e-01,2.69192492e-01,1.66683226e-01,-1.46121337e-01,6.50168463e-01
4.91090337e+00,-2.52538214e-01,1.24906425e+00,-4.05406061e-02,-2.32183629e-02,1.29757113e-01,2.17337729e-01,-1.25388914e-02,4.96392284e-02,1.02031893e-01,1.94613296e-01,3.83430510e-01,7.06575160e-02
3.87300841e+00,-3.78566935e-01,1.50091719e+00,1.24432914e-02,-1.65637514e-01,-3.72467264e-01,3.03358561e-01,2.20267388e-01,3.71743834e-01,3.50182955e-01,4.49786521e-02,5.30442602e-01,2.97486006e-01
4.63913942e+00,-7.35320887e-01,8.65975257e-01,-3.09538470e-01,2.54265392e-01,3.36557556e-01,4.99251169e-02,-8.20243271e-02,-2.04058021e-01,1.08957484e-01,1.29442885e-01,1.43365933e-01,4.73003008e-02
4.65129349e+00,-6.54272156e-01,7.17546543e-01,-2.52003880e-03,1.63436888e-01,5.31131220e-01,1.65788153e-01,-3.92295547e-01,1.51450165e-01,-6.07212799e-02,1.17397359e-01,9.91780568e-02,3.25275136e-01
4.31958249e+00,-6.92044822e-01,6.29795900e-01,-5.83307525e-01,-1.43975243e-01,-2.30229316e-01,2.16433689e-02,1.46034207e-01,1.01486374e-01,-2.19770735e-02,1.77290048e-01,2.21568995e-01,2.74264573e-01
4.87698636e+00,-8.20839196e-01,6.96402715e-01,-2.59863145e-01,3.56709348e-01,5.84404677e-01,4.25862999e-01,7.11425685e-02,2.13051450e-01,1.33857405e-01,-5.18496843e-02,3.75450562e-02,3.07236782e-01
4.46164115e+00,-5.36782298e-01,8.79641589e-01,-2.43714972e-01,3.41789938e-02,3.64295854e-02,2.22697176e-01,4.58877390e-02,2.07188555e-01,-1.40541245e-02,-2.31007485e-01,1.25105366e-01,2.41226600e-01
4.42219295e+00,-5.46367653e-01,8.23898734e-01,-2.89632030e-01,-2.24719374e-02,-3.62916876e-01,-8.48607188e-02,2.09721481e-01,-9.87090708e-02,2.79084182e-01,-2.63274033e-02,-1.33863402e-01,1.48468837e-02
4.34178005e+00,-2.19989431e-01,1.37044877e+00,7.54427738e-03,-4.86025521e-02,-8.59708621e-02,-1.00190086e-01,3.33183202e-01,3.90051928e-01,4.46797448e-01,-1.69556763e-01,-2.37866712e-01,2.90976998e-01
4.19787728e+00,-2.99262885e-01,9.04381138e-01,-1.89188599e-01,1.21823304e-01,-3.34532503e-01,-2.02359549e-01,-1.67437196e-01,-4.02644411e-01,1.78442812e-02,1.21384165e-01,-2.90126626e-02,3.50185121e-03
4.36516943e+00,-2.13648644e-01,1.61648805e+00,-1.66820923e-01,3.83911306e-01,-1.58314663e-01,9.36370797e-02,1.81159669e-01,-8.64453328e-02,1.12350013e-01,1.77263667e-01,-1.12062398e-01,6.23034471e-01
4.25211781e+00,3.77263342e-02,8.77572345e-01,-4.85753637e-01,2.42757402e-01,-4.42308193e-01,-2.73861130e-01,1.02984248e-02,5.33371006e-03,1.97847486e-01,4.50896642e-02,-7.45563702e-02,4.04802207e-01
4.17201921e+00,7.97118105e-02,8.27639857e-01,-5.78252089e-01,9.88188582e-02,-1.23546697e-01,-1.12565656e-01,1.53736347e-01,1.78684560e-01,2.46182936e-01,-3.99721904e-01,-3.04919633e-01,2.25688291e-01
4.36406408e+00,6.06463829e-02,9.98523600e-01,-5.22044332e-01,-2.97613304e-02,2.52801991e-01,3.45446436e-01,2.76351332e-01,3.33503726e-01,2.70496676e-01,-1.05353913e-01,-2.41342261e-01,9.11435834e-02
4.42452340e+00,-8.29854716e-02,9.05394935e-01,-2.94877525e-01,-1.48809341e-01,-7.22314958e-02,-2.03955596e-01,-4.22557247e-01,-2.91831198e-01,-2.04888488e-01,-5.17524651e-01,2.24366840e-01,1.94812097e-01
4.27306091e+00,-4.86993858e-01,9.40831611e-01,-3.00147480e-01,3.00042765e-01,5.71852884e-01,4.92260594e-01,1.13734570e-01,2.42887200e-01,5.09684524e-01,-1.35244408e-01,-4.85230732e-02,8.00414654e-02
4.04782981e+00,-3.86780915e-01,7.73704982e-01,-6.72935565e-01,6.07095628e-02,4.11452529e-01,4.37863521e-01,-8.47948913e-02,-4.01869290e-01,2.44046091e-01,2.62285194e-01,-3.20870185e-01,-4.37399952e-01
3.59221307e+00,-1.95363267e-01,5.84470833e-01,-4.93594545e-01,9.06911519e-03,-4.78029991e-01,1.25110076e-01,2.71047022e-01,-3.67904687e-02,4.16696151e-01,-2.05962017e-01,-4.02761871e-01,-8.13241553e-02
3.63033469e+00,-1.70273140e-01,4.71204627e-01,1.63752393e-02,-2.40242277e-02,-1.13151645e-01,4.45510937e-01,2.29302404e-01,9.77870416e-02,1.25683856e-01,-8.00428883e-02,-1.91828145e-01,-2.03723633e-02
3.09691133e+00,-1.26596473e-01,-2.25728740e-01,-3.82188008e-01,-2.01038152e-01,-5.71333025e-01,-1.66967365e-01,-1.34228433e-01,-4.95300798e-01,8.78827949e-02,-1.27503714e-01,-1.37343818e-01,-1.09245980e-03
4.13622252e+00,4.51099639e-01,-8.27869933e-03,-1.71190778e-01,-1.60354861e-01,1.59010305e-01,-4.38464846e-02,1.58929499e-02,3.76561345e-02,2.94885201e-01,-7.68238034e-02,2.55697470e-01,2.65927533e-01
3.27790844e+00,-3.45301682e-01,-1.98262794e-02,-5.31983334e-01,-1.83214561e-01,4.42527203e-01,-6.36339175e-02,3.82831431e-02,-1.49510466e-01,3.26288346e-01,5.83328704e-01,6.70028168e-01,-1.09465149e-01
3.06203793e+00,-9.38431186e-01,3.74962245e-01,-2.52208404e-01,-1.80834382e-01,1.34593559e-01,2.55464032e-01,2.23239122e-01,-6.33013883e-02,1.61278474e-01,3.56602387e-01,1.61609849e-01,1.64001388e-01
3.70387404e+00,-8.13530423e-01,5.51595959e-01,4.44559875e-01,-1.04634790e-01,-5.89633398e-01,-2.03333144e-01,4.56499233e-01,-3.06403164e-02,-1.53313929e-01,-1.66395511e-02,1.14103903e-01,-2.17774816e-01
3.32761838e+00,-2.71649434e-01,7.93601463e-01,3.00461321e-01,-1.68150227e-01,-1.06695520e-01,-5.74729890e-02,4.05403133e-01,-4.03606532e-01,-1.42327067e-01,3.98525224e-01,1.85626090e-01,8.81910217e-02
2.92136854e+00,4.16816179e-01,8.54164575e-01,1.18149031e-01,1.52853997e-01,-9.02538230e-02,2.45775818e-01,3.64425457e-02,-7.68081403e-02,1.85699535e-01,2.40308327e-01,-1.11103025e-01,-5.20173741e-02
2.34674088e+00,3.27982672e-01,1.30898568e+00,-1.43044568e-01,-7.53691673e-02,2.57467038e-01,4.77088200e-01,5.10870913e-01,1.44297599e-01,1.15654012e-01,7.14186993e-01,5.40592342e-01,6.20969113e-02
3.09467134e+00,1.83242469e-01,1.10006280e+00,-5.55030968e-01,5.29963882e-02,1.52612181e-01,-3.59889023e-02,9.41196894e-02,-1.99087665e-01,-3.95277964e-01,-2.15005801e-01,2.14695463e-01,-1.45795930e-01
2.95695040e+00,-7.76992724e-02,7.66520163e-01,-6.01334827e-01,-1.18638548e-01,2.97830450e-01,3.63798411e-01,5.61987461e-01,-3.15662216e-01,1.27803543e-01,3.12085458e-01,8.47541097e-01,-1.39260009e-01
2.52885393e+00,1.35515763e-02,6.14500922e-01,-5.62982388e-01,2.08646548e-01,1.20845702e-01,-1.13203878e-01,1.15498402e-01,-5.56751260e-01,-3.25309134e-01,-4.38278915e-02,4.40391411e-01,3.96669070e-01
2.91706110e+00,-7.09835020e-02,7.49666299e-01,-3.53229141e-01,-2.63199421e-01,5.12371427e-01,1.55916515e-01,3.26252165e-01,3.03043712e-02,-2.00797670e-01,4.76684643e-01,7.74208780e-01,2.25518888e-01
2.87483099e+00,-4.33675895e-01,1.14628143e-01,-2.90301283e-01,5.00293644e-01,5.96063121e-01,1.59967984e-01,7.06049962e-01,-8.51670019e-02,-1.04895346e-01,-1.06391221e-01,4.93992267e-01,1.01141246e-01
3.43909085e+00,1.55574032e-01,2.34306569e-01,-5.73843138e-01,2.14137025e-02,-8.42011548e-03,-8.43422269e-03,2.45121051e-01,-7.91614871e-01,-1.40413635e-01,-1.85447736e-01,6.65643984e-01,1.44936257e-01
2.79582735e+00,-1.35962346e-01,1.22548361e-01,-5.37011406e-01,5.54503487e-01,4.98313234e-01,3.69168323e-01,4.32270342e-01,-2.95411296e-01,-1.16030280e-01,-3.06344982e-01,6.23487406e-01,-2.68098943e-01
2.66752807e+00,-6.24008270e-01,3.44905690e-01,-6.29502760e-01,-1.88962152e-02,2.42380748e-01,2.73574152e-01,4.56267123e-01,-1.98357241e-01,-1.32421548e-01,-3.70039183e-01,3.98751744e-01,-1.43708403e-02
2.75536252e+00,3.11482482e-01,2.29921872e-01,-8.18198568e-01,2.69892182e-01,5.79792517e-01,4.71616743e-01,4.55972146e-01,-1.72864554e-01,-1.55434610e-02,-9.60238353e-02,2.66290470e-01,7.54734652e-02
2.87913630e+00,7.47664975e-03,3.81796527e-01,-7.75382271e-01,9.30408509e-02,5.01854026e-01,1.88774998e-01,2.95208036e-01,-8.73489899e-02,2.78658701e-01,2.10972640e-01,6.01419502e-01,6.11808991e-02
2.32283945e+00,1.20411065e-01,2.08132806e-01,-6.45389993e-01,7.40847827e-02,3.64293793e-01,1.83452910e-01,2.90472125e-01,-8.83162615e-01,-4.28175608e-01,-3.09666654e-01,4.13723057e-01,-4.87581260e-02
2.40094773e+00,-1.33858497e-01,7.04414665e-02,-2.49171962e-01,4.35273261e-01,6.57188137e-01,3.69167945e-01,3.55027661e-01,-1.97920723e-02,4.20266376e-02,4.35381976e-02,1.07346035e-01,-1.95620818e-01
1.84406891e+00,2.41790793e-01,6.79502612e-01,-3.32486455e-01,2.62723458e-01,5.75387126e-01,-1.78357119e-01,3.24852888e-02,-3.15397046e-01,8.32702419e-02,3.86339499e-01,1.08276922e+00,6.27320639e-02
2.29869216e+00,1.43023729e-01,4.85781968e-01,-7.12002696e-01,-1.57810312e-01,1.65437591e-01,-1.35794176e-02,7.21593461e-02,-2.26331710e-01,1.13093244e-01,2.90648102e-02,6.28630246e-01,-6.54401041e-02
2.04416488e+00,-3.63594624e-01,-2.76890025e-01,-4.67811209e-01,-1.43347251e-01,1.52040494e-01,-1.69962472e-01,2.29382504e-01,1.95724289e-01,3.77257325e-01,6.33499389e-01,8.52411743e-01,5.51827682e-01
2.18465325e+00,-3.66679477e-01,1.35961469e-01,-6.30274117e-01,2.72900635e-01,5.66348995e-01,6.35480744e-01,5.65427557e-01,5.73849239e-02,1.16932890e-01,-2.14170341e-01,3.90446654e-01,-2.79529367e-02
1.99776586e+00,-1.15319196e-01,-1.59805681e-01,-8.80531751e-01,1.36862109e-01,5.69050660e-01,2.87388895e-01,4.06555745e-03,1.13434707e-01,-2.29311854e-01,-1.16929780e-01,6.38367591e-01,-1.97104054e-01
2.31926038e+00,-1.43881221e-01,-3.39081217e-01,-6.30050915e-01,8.73719240e-02,7.03725879e-01,3.77430735e-01,3.03418686e-01,5.17429783e-03,-2.13345412e-01,9.65047919e-02,3.93084000e-01,3.55168300e-01
2.47869488e+00,3.35743511e-01,1.38115313e-01,-9.75203098e-01,1.64813481e-01,4.61247134e-01,2.87642696e-01,8.44272161e-02,4.62239627e-02,-2.37548884e-01,-2.50389638e-01,4.41322983e-02,-1.26452812e-01
2.20498360e+00,3.42506018e-01,2.25633762e-01,-8.49380884e-01,-1.40055659e-01,7.64467505e-01,-2.14660284e-01,-1.76834711e-01,2.50105856e-03,-3.30580981e-01,2.32337458e-01,4.31744784e-01,2.45219809e-02
2.36174115e+00,3.48959889e-01,-8.97453243e-02,-9.89242237e-01,3.14868637e-01,3.35779660e-01,3.01066051e-01,3.50783381e-01,2.52007033e-01,-1.23005268e-01,5.84836319e-01,7.81761156e-01,2.31227589e-01
2.42718503e+00,4.15928865e-01,3.49096069e-01,-9.46359414e-01,-2.77702229e-01,1.55579684e-01,1.46450470e-01,3.40346550e-01,-1.55359193e-01,-7.78900346e-02,1.88865569e-01,1.42691134e-01,-1.32853657e-01
2.50489622e+00,8.26953219e-02,-3.19581851e-02,-6.21823947e-01,-1.58155896e-01,-1.02962422e-01,7.57916096e-02,1.56452601e-01,-3.26791254e-01,-4.39833810e-03,3.63730762e-01,3.97242922e-01,4.53022433e-01
2.26359734e+00,6.48181076e-01,5.50592904e-01,-3.57383550e-01,-2.08913056e-01,5.53392009e-02,2.31023708e-01,4.86627683e-01,2.89454895e-01,-1.49429360e-01,-1.08627458e-01,5.11708329e-01,1.61714903e-01
2.03359673e+00,3.48475459e-01,1.20524163e-02,-7.68749251e-01,4.62320930e-02,2.97792430e-01,-1.27494110e-01,1.33668715e-01,3.42039655e-01,1.88671748e-01,-9.08660012e-03,5.33405879e-01,3.94816105e-02
2.03718370e+00,4.20415903e-01,-9.14058341e-02,-1.18713667e-01,5.87654154e-02,2.08950692e-01,3.19770862e-01,2.06327014e-01,2.77210426e-01,7.42291889e-02,-3.12118159e-01,3.55121245e-01,2.95765379e-01
1.73910873e+00,4.54744541e-01,7.17000891e-02,-4.22614553e-01,5.80087460e-02,4.56641474e-01,5.31670912e-01,1.90829950e-01,-1.76637758e-01,-1.68492232e-01,1.08239037e-02,3.92238646e-01,-1.91011184e-01
2.16172230e+00,1.13064577e-02,-1.48974295e-01,-2.60245190e-01,2.02532874e-01,7.04122742e-01,3.26953492e-01,-6.15172022e-02,-2.48710076e-01,1.74204070e-02,1.02723360e-01,3.65700215e-01,-1.46984078e-01
1.67752881e+00,1.09661479e-01,-9.90737000e-02,-7.12719255e-01,1.97481757e-01,8.57301791e-01,7.78399658e-01,5.05560013e-01,6.96302499e-01,3.84717438e-01,1.90582336e-01,2.16337445e-01,5.39940560e-02
2.33933519e+00,4.52990336e-02,-4.20506086e-02,-7.76651615e-01,1.84131438e-01,3.85382749e-01,2.97299159e-01,9.55235348e-02,-8.71525237e-02,-2.08784043e-01,8.98382209e-02,1.74503690e-01,1.35109751e-01
2.20180143e+00,-3.66900532e-03,-2.17671538e-01,-4.38982711e-01,4.70105126e-01,7.73186272e-01,-2.33993748e-01,6.07686670e-02,5.00880136e-02,-3.03147822e-02,5.64387001e-01,3.38387323e-01,1.87254644e-02
1.36511621e+00,-4.43307560e-01,-4.70940774e-01,-1.22514578e+00,3.69088868e-01,5.45314873e-01,-1.86545860e-02,2.01575745e-01,3.47221307e-03,-1.30276804e-02,3.03842613e-01,6.96143643e-01,2.34306191e-01
1.87749275e+00,-2.11585136e-02,3.17794157e-02,-6.31134240e-01,6.06233322e-02,2.74554853e-01,1.74799349e-02,2.44244701e-01,-8.81591327e-02,-2.44192155e-01,2.79907517e-01,6.05813869e-01,1.68131225e-01
1.93536051e+00,2.50812464e-01,3.13237052e-01,-5.75617774e-01,2.24489318e-01,6.88332789e-01,5.84689574e-01,5.98291509e-01,3.02121340e-01,-6.32330756e-02,-1.47825581e-02,4.10876508e-01,9.14957654e-02
2.14729385e+00,-2.77643920e-01,-3.28377246e-01,-3.28149220e-01,2.74984219e-01,7.73436357e-01,6.91876218e-01,5.13533917e-01,1.19394173e-01,9.16412001e-02,-2.08362081e-01,3.07434190e-01,-1.54989286e-01
1.87981100e+00,-6.83369794e-02,-6.63160813e-01,-7.61734647e-01,1.80116504e-01,1.25609812e+00,4.04759592e-01,9.72384130e-01,4.01255004e-01,2.44671012e-01,2.23504918e-01,1.28506463e-01,-1.71821735e-02
2.15662700e+00,7.36665626e-01,-9.47478965e-03,-6.33088773e-01,-1.24639563e-01,4.41176853e-01,2.60265752e-01,6.21693568e-01,-9.50346462e-02,-5.74467927e-01,2.21363869e-01,4.70657128e-01,3.36286991e-01
1.77375647e+00,1.30825687e-01,-3.25600124e-01,-3.64207276e-01,2.92134814e-01,7.53484144e-01,3.85092724e-01,6.72376487e-01,-2.28119703e-01,-2.49851087e-01,3.14088561e-01,4.27406125e-01,-3.07621682e-01
1.87382299e+00,1.82091189e-01,-2.76447522e-01,-3.78804773e-01,8.73246963e-01,1.38261815e+00,4.68762408e-01,2.11371484e-01,9.85642909e-02,-4.31160497e-01,-2.13118033e-01,2.14085354e-01,-2.45050480e-01
2.00122366e+00,-1.47886274e-01,-3.88935650e-02,-4.74277026e-01,7.07650073e-01,8.80070842e-01,4.17466549e-01,4.46665104e-02,4.71714296e-02,-1.81514004e-01,-1.01098032e-01,1.53795178e-01,1.69370397e-02
1.96311779e+00,-3.25313300e-01,-4.60634560e-01,-9.11490550e-01,5.65881854e-02,3.74847972e-02,7.26540648e-02,2.84085583e-01,3.53213139e-01,2.01789764e-01,3.55337294e-01,3.21961604e-01,2.06527578e-01
1.69257737e+00,2.20209741e-01,5.83037750e-01,3.07897611e-01,2.98518846e-01,2.09648555e-02,-4.75626606e-01,-4.32022808e-02,6.53931944e-01,5.44368852e-01,2.18588573e-01,3.93685275e-01,-5.14282878e-02
2.21063086e+00,2.85262172e-01,2.78768916e-01,-7.70988863e-01,2.05943831e-01,4.92493100e-01,9.99050706e-02,3.28400693e-01,2.24676753e-01,-1.41458257e-01,2.65072004e-01,2.63521965e-01,3.46573152e-02
2.21494160e+00,2.28391589e-01,-1.30562657e-01,-8.07712503e-01,4.60404693e-01,5.22107492e-01,1.27080272e-01,2.13745117e-01,2.93326991e-04,-2.70660518e-02,3.11005531e-01,6.28738587e-01,3.71795560e-01
2.22903269e+00,2.63442535e-01,3.44418451e-01,-9.23052527e-01,-2.69422382e-01,6.71618009e-01,9.43464087e-02,3.46325359e-01,-5.29862165e-03,-2.89769817e-01,-8.49700304e-02,4.05994827e-01,2.52625603e-01
1.79273095e+00,1.82016376e-02,-4.04114017e-01,-7.76887416e-01,-5.13591201e-03,6.30126413e-01,4.97303866e-01,4.53046655e-01,-7.54950311e-06,4.00783808e-02,2.72298991e-01,1.08840723e+00,4.13057254e-01
2.13767032e+00,2.61617334e-01,1.33562231e-01,-8.65828242e-01,6.55712856e-01,6.39899898e-01,1.96257994e-01,7.34985828e-01,2.55295662e-01,1.76412566e-01,2.08951103e-02,4.19942211e-01,1.90358746e-01
1.96958520e+00,-2.71246890e-02,3.69287471e-01,-8.18088587e-01,1.55848367e-01,9.04135368e-01,7.90732306e-01,4.55006135e-01,1.99497476e-01,-1.58738539e-02,-2.06358617e-02,4.14137746e-01,7.63315642e-03
1.88409118e+00,-1.41300507e-01,-3.53165568e-01,-1.19012452e+00,6.67725285e-01,5.71069669e-01,2.13355599e-02,3.91512561e-01,-8.63492204e-02,-2.07503604e-01,5.74143154e-01,5.95538556e-01,6.33464468e-02
2.03539486e+00,-1.51498032e-01,1.67301180e-01,-1.06480011e+00,4.41849708e-01,6.93516565e-01,-1.44277983e-02,4.01506857e-01,4.07485739e-01,-6.15072123e-02,4.65548824e-01,4.79294435e-01,1.46921423e-02
1.53666766e+00,1.34781642e-01,6.25161386e-01,-6.68585019e-01,4.01445138e-02,1.76110308e-01,-2.24615600e-01,4.53140288e-01,4.91881548e-01,1.47085915e-01,6.06909988e-01,3.55958582e-01,1.86466260e-01
1.50799095e+00,-2.19461659e-01,1.91516995e-01,-5.72185754e-01,-7.73825468e-02,6.85859192e-01,3.81305879e-01,8.86852120e-01,3.38095259e-01,2.88804552e-01,4.39050192e-01,2.28456698e-01,-2.81821782e-02
1.40775952e+00,-4.07707647e-02,3.00091375e-01,-6.24406752e-01,9.61688955e-02,7.73338316e-01,-8.29493661e-02,4.84858885e-01,4.55581199e-01,3.33592813e-01,1.42079512e-01,2.73868389e-01,-1.44274258e-01
1.11626743e+00,-3.78790339e-01,-2.80759433e-01,-6.32516304e-01,6.40878930e-01,8.08445221e-01,-4.36383647e-02,2.87087373e-01,2.13768154e-01,-2.53468088e-01,3.91502125e-01,6.04163617e-01,3.50259170e-01
1.28791161e+00,-2.34556576e-01,-3.42942170e-01,-6.36575702e-01,1.39639535e-01,8.51170345e-01,3.05255758e-01,1.87896944e-01,-2.56573160e-01,-4.27848820e-01,1.97572171e-01,5.01613668e-02,5.38132218e-02
1.51158245e+00,-3.12335056e-01,-3.63126748e-01,-1.32534515e+00,5.61610682e-01,1.16552936e+00,2.93502594e-01,4.02031038e-02,-6.02025987e-03,-4.70779860e-01,-1.74362655e-01,4.95018082e-01,-9.63872665e-02
2.11501374e+00,-3.37612816e-01,-2.47524290e-01,-7.40208604e-01,2.95113801e-01,9.65505017e-01,2.55689499e-01,2.23599617e-01,-2.82334140e-01,-4.33633334e-01,4.61998751e-02,4.06600313e-01,-7.65287191e-02
1.99343608e+00,-4.31895191e-01,-2.48323179e-01,-1.52315034e+00,-1.64856815e-01,7.66316572e-01,-8.13863025e-02,2.85185254e-01,-1.05500573e-01,-3.81380969e-02,2.23379973e-01,3.42200593e-01,2.43568236e-01
2.06697880e+00,-3.69738558e-01,-4.25081170e-01,-1.14768995e+00,3.71088897e-02,6.07722135e-01,-1.17600744e-02,2.88573953e-01,3.53669716e-01,-4.23922955e-01,9.89591548e-03,3.19400410e-01,2.60241445e-01
1.84541612e+00,-2.29194691e-01,-9.64015839e-02,-1.13277083e+00,-1.39502620e-01,8.43734982e-01,-4.60008403e-02,4.59349665e-01,-3.65879927e-01,-6.31595753e-01,2.19153392e-01,2.97656087e-01,9.63611371e-02
1.83257867e+00,5.80654849e-02,3.14991221e-02,-1.52480334e+00,1.65698017e-01,8.42274201e-01,2.97921158e-02,1.66079602e-02,-2.08026636e-01,-1.09531442e-01,2.91542492e-01,3.76099214e-01,3.98608720e-01
1.94658009e+00,2.22121827e-01,5.67520673e-02,-1.16714081e+00,2.48154424e-01,1.06829180e+00,-9.66547600e-02,2.86624876e-01,6.78779185e-02,-3.85535430e-01,2.13929142e-02,1.10268290e-01,3.36062990e-01
1.96949268e+00,-1.70439665e-01,1.16661714e-01,-7.43752642e-01,3.57224032e-01,8.16840991e-01,-1.27757481e-02,6.44289502e-01,5.41241028e-02,-1.86441466e-01,-1.76716346e-01,4.56869364e-01,1.89426553e-01
1.91174928e+00,1.78995802e-01,-5.41622991e-02,-1.02299814e+00,2.42802365e-01,7.40818815e-01,4.02326008e-01,5.42108268e-01,3.64441650e-01,-6.50781504e-02,4.61954071e-01,2.25879764e-01,2.04942196e-01
2.01781730e+00,-1.56825538e-01,6.89624484e-02,-1.38748687e+00,-1.80520654e-01,7.49482735e-01,2.25472772e-01,1.52983355e-01,-7.76563103e-02,-1.76932564e-01,-4.72815011e-02,2.49035430e-01,4.08950717e-01
1.96320456e+00,-6.67181299e-02,2.72372949e-02,-9.00717246e-01,3.42409439e-01,8.90374369e-01,3.00160503e-01,3.44257665e-01,2.18297001e-01,-2.25291778e-01,3.69425303e-02,4.18360516e-01,5.45338034e-01
1.98909152e+00,1.56307869e-01,3.96638359e-01,-6.33599175e-01,-1.13247661e-01,4.33964860e-01,1.32389189e-01,1.70736362e-01,-1.25312572e-02,-4.15840704e-01,4.73111453e-01,1.74614976e-01,2.48211129e-01
1.78129633e+00,2.26413094e-01,3.53718713e-01,-5.42006313e-01,6.61647084e-01,6.03228128e-01,1.95038088e-02,3.44497144e-01,2.12401030e-01,-5.44764241e-01,-5.28597769e-01,-2.44599668e-01,1.24817748e-01
1.70321186e+00,-8.04265800e-02,3.85628106e-01,-6.04022814e-01,-9.96098961e-02,4.47355301e-01,-1.62433484e-01,5.01037533e-01,8.94921416e-01,-6.95493050e-02,1.85966165e-01,-7.73716558e-02,5.04127594e-03
1.72433294e+00,2.55263541e-01,3.58372671e-01,-1.63662104e+00,-1.26638465e-01,9.75299777e-02,-1.86930143e-01,4.88883200e-01,2.50295744e-01,-1.65640555e-01,2.68223588e-01,1.05226707e-01,-2.07557880e-02
2.60444803e+00,1.13638884e-01,1.41215365e-02,-1.04531778e+00,4.37581651e-01,8.46642269e-01,-5.25844872e-03,2.65849626e-01,5.54073660e-02,1.10288909e-01,4.50454312e-01,3.78174737e-01,3.36762263e-02
2.36358597e+00,4.95395071e-02,4.54798753e-01,-8.89488789e-01,3.49748017e-01,5.48038623e-01,-5.41249953e-01,-1.19690446e-01,-2.81739360e-01,1.06389717e-01,5.70307125e-01,8.58305575e-01,4.45146436e-01
2.53971104e+00,1.67974983e-01,3.49821096e-01,-7.63025304e-01,2.79418516e-01,6.01858501e-01,-5.01183447e-01,-4.03482732e-01,-2.86074624e-01,-1.08909185e-01,4.77277024e-01,5.37653275e-01,4.30633795e-01
1.66255333e+00,2.44948932e-01,-1.38144620e-01,-9.77508234e-01,5.06921351e-01,5.09708553e-01,8.61663634e-03,5.70226267e-01,-1.50251107e-01,1.53672976e-01,4.83072657e-01,7.33814240e-01,4.62296731e-01
1.72130312e+00,-2.77765097e-01,2.43065418e-01,-8.30371394e-01,-5.96420168e-02,6.80383450e-01,7.03071742e-02,5.48400655e-01,4.98952924e-01,6.53276557e-02,1.41289818e-01,8.72771428e-03,2.68489397e-01
2.31435140e+00,2.06521795e-01,3.07979371e-01,-5.24242491e-01,4.68880553e-01,7.04894167e-01,4.61242666e-01,2.08445272e-01,-7.49374564e-02,-1.21952309e-01,4.41111721e-02,-1.07500097e-01,8.41159682e-02
1.75472984e+00,1.91762450e-01,-1.53998383e-01,-1.67840500e+00,2.38154449e-01,1.33343002e+00,5.39651055e-01,2.77019091e-01,2.90136575e-01,1.62122090e-01,1.19243212e-01,-8.31479646e-02,3.84304946e-01
1.84376788e+00,-1.49877124e-01,2.52513607e-01,-7.77749531e-01,4.88260971e-01,7.96178141e-01,7.72566043e-02,1.46500854e-01,5.98045917e-02,9.98829577e-02,-2.54815025e-01,1.78965562e-02,1.61750424e-01
2.24340080e+00,4.72291498e-01,1.09914427e-02,-9.52278622e-01,3.42933526e-01,7.46318972e-01,3.20659555e-01,7.11124128e-01,-2.02254303e-01,-3.06681597e-01,2.11741951e-01,-1.56621533e-03,-4.19656481e-02
2.49874152e+00,1.14049960e-01,1.24296825e-01,-1.11467371e+00,-3.23494417e-01,-3.05499981e-02,7.71858181e-02,6.47344518e-01,5.07162163e-01,-1.83268606e-01,-2.50601960e-01,5.96731026e-01,1.21558810e-01
3.11362369e+00,8.56590784e-02,-2.10208446e-01,-9.51392222e-01,1.99251115e-01,5.26563296e-01,-2.70410931e-02,6.17056565e-01,1.62990588e-01,-1.20430818e-01,2.57162694e-01,2.68894560e-01,-4.52215407e-01
2.23947143e+00,-6.50358618e-02,-1.63348582e-01,-1.19446376e+00,-6.83396026e-02,3.99255502e-01,6.48731564e-02,3.62855792e-01,1.78382939e-01,-1.86230074e-01,1.05449692e-01,1.01258102e-01,-2.90096931e-01
2.44752126e+00,-2.95044495e-01,-8.18744266e-02,-1.02957716e+00,1.39153471e-01,7.40710425e-01,1.33829985e-01,2.69437483e-01,6.44410505e-02,-9.13270216e-02,1.99557488e-01,4.79234664e-01,2.03850584e-01
2.78929280e+00,-2.82810678e-01,3.38034159e-01,-3.11371790e-01,5.41908216e-01,8.94008133e-01,-2.89732360e-01,-8.97717419e-02,2.82246574e-01,-2.87071620e-02,3.97613914e-01,6.15077930e-02,6.25990561e-02
1.19131603e+00,-4.72620079e-01,4.43666457e-01,-3.17609217e-01,8.38482301e-02,1.00732501e+00,-1.67446729e-01,-1.82730557e-01,-1.69185913e-01,1.95588814e-01,4.33736644e-01,5.59005540e-01,3.09283630e-01
2.31270781e+00,-2.50149507e-01,4.85468177e-02,-8.89630534e-01,9.90446265e-02,8.75580917e-01,-2.35952183e-01,2.30285620e-01,-2.50824063e-02,9.55243512e-03,2.66668927e-01,7.53319449e-01,2.05694930e-01
2.38945185e+00,4.31038935e-03,1.69577918e-01,-8.15614362e-01,-7.41740095e-02,6.21275191e-01,-3.23792468e-01,1.72494216e-01,4.60802303e-02,-1.56420933e-02,6.84132302e-02,2.13782558e-03,-1.49945057e-01
2.33756988e+00,4.68714836e-01,6.81287449e-02,-1.25687347e+00,4.02530195e-01,8.74292580e-01,-2.79947511e-01,2.25284509e-02,1.48687864e-01,-2.69202614e-01,5.84221201e-02,3.39098307e-01,9.73183542e-02
2.26943703e+00,5.86412772e-01,-3.81426940e-02,-9.37938011e-01,3.14582811e-01,7.10974903e-01,2.48775177e-01,2.64971164e-01,-4.03278266e-01,-3.43280340e-02,5.77660021e-01,3.77701769e-01,9.48429592e-02
1.75923712e+00,-6.31505899e-01,-2.37904168e-01,-8.31792158e-01,4.53804677e-01,5.80992267e-01,-6.29667825e-01,-3.17980737e-01,-3.30622709e-01,-5.09584489e-02,3.14812573e-01,4.86204969e-01,3.37087983e-01
2.05876806e+00,1.32446950e-02,-2.06828122e-01,-8.54786485e-01,6.36180404e-01,6.04723338e-01,-4.76392797e-01,4.45731677e-01,5.10164584e-01,-1.34125919e-01,2.21283527e-01,2.52147952e-01,-2.54623352e-01
1.70813711e+00,1.48063366e-01,7.32884117e-01,-5.03608126e-01,3.54425054e-01,1.15657028e+00,-3.04691579e-02,3.96143680e-01,-4.85800625e-02,5.30700277e-03,-3.68020780e-01,-9.25345005e-02,-1.84815457e-01
1.72141114e+00,2.06013332e-01,5.71502321e-01,-7.00326294e-01,1.60328657e-01,3.08949689e-01,-2.04364441e-01,-4.98595105e-03,5.96162087e-02,-2.70318975e-01,-1.34720537e-01,1.46863648e-01,1.74705879e-01
1.45113008e+00,-8.66986880e-02,4.76001980e-01,-4.58488480e-01,3.28489794e-01,4.68255505e-01,1.67964288e-01,5.43429837e-01,2.75618691e-02,-3.62158897e-02,1.48358204e-01,4.98918253e-01,2.60209060e-01
1.64494387e+00,-1.02068830e-01,1.02230099e-01,-7.86049144e-01,5.93291704e-02,3.69797248e-01,-4.61953807e-02,-2.03086435e-01,-3.55815784e-01,-3.31422459e-02,1.76270772e-01,4.13416502e-01,3.28059920e-01
1.83247100e+00,-1.89909456e-01,8.38212864e-02,-1.05039880e+00,2.32402019e-02,6.62355935e-01,2.01106821e-01,3.15414321e-01,2.82337080e-01,5.34715686e-01,-7.73098835e-02,1.98413198e-01,1.53454486e-01
1.98911931e+00,7.40320840e-02,8.37059669e-01,-1.03166188e+00,-1.19718874e-01,9.44440828e-01,2.14931487e-01,4.10969018e-01,1.53981000e-02,4.09640373e-01,5.20571920e-02,2.85143247e-01,2.51023553e-02
2.13600329e+00,2.54733379e-02,3.76303670e-01,-1.18596549e+00,2.47211613e-02,1.00672298e+00,-5.96580538e-01,-2.76381237e-01,-2.39773762e-01,-6.06153446e-03,6.21231097e-01,3.87111615e-01,1.20018340e-01
2.00939215e+00,1.87149949e-01,5.77874152e-02,-1.65239446e+00,-4.52485955e-01,1.01611056e+00,6.87168402e-02,2.33946573e-01,-1.34948651e-01,1.78708160e-02,3.53767924e-01,5.75801033e-01,8.44921492e-02
2.00050255e+00,1.63951076e-01,-1.56348920e-01,-1.44293209e+00,-2.53090616e-02,7.04510787e-01,4.00284147e-02,5.45932725e-01,3.96352028e-01,-3.17979264e-01,5.76362228e-02,7.64464041e-02,-1.09623792e-01
1.81193913e+00,-9.32919928e-03,-1.28909806e-01,-1.43246094e+00,-4.40870188e-01,5.54397591e-01,7.99780286e-02,1.20857813e+00,1.27563142e-01,-5.32451787e-02,8.49551733e-02,6.15643872e-02,1.51438429e-01
2.12634333e+00,1.80343445e-01,1.94980586e-01,-1.10100039e+00,1.51540979e-01,4.20467459e-01,3.47563514e-01,6.90681655e-01,2.75021400e-01,-6.82898676e-02,1.14349873e-03,2.38174892e-01,3.50388320e-02
1.91376449e+00,-1.63290312e-02,3.54710999e-02,-9.37185090e-01,3.76220604e-01,6.39109727e-01,2.65837830e-01,6.98907875e-01,3.03776719e-01,-4.46287986e-01,3.27585552e-02,2.89229415e-01,-2.10541604e-01
1.58411861e+00,-8.27970021e-01,-3.16697980e-01,-1.39954475e+00,-2.70419457e-01,4.88048201e-01,-1.09755418e-02,2.47673084e-01,-7.97050501e-03,-1.31973865e-01,4.85691722e-01,5.85843773e-01,1.80262158e-01
2.43121448e+00,-2.86427532e-01,-2.93309267e-01,-9.27765697e-01,4.93855403e-01,7.59357489e-01,3.20932360e-01,5.04075588e-01,-2.79525274e-01,-7.21340465e-02,1.23161736e-01,2.79673623e-01,2.46049406e-01
2.45307382e+00,-1.26330001e-01,-2.91248702e-01,-1.24770163e+00,2.26037478e-01,1.07736671e+00,2.29288162e-01,8.56550275e-02,-1.98235827e-01,-2.72255411e-01,5.11327816e-02,1.47255454e-01,5.97879262e-02
2.48619968e+00,-1.28672393e-01,2.66884950e-02,-1.38861198e+00,4.08503774e-01,1.08707295e+00,-7.09978356e-02,2.01590072e-01,1.13783125e-01,-3.28881135e-01,-3.76672881e-03,4.73183265e-01,2.29903551e-01
2.17749437e+00,-4.25842183e-01,6.12298573e-02,-9.54040345e-01,5.49854829e-02,9.78452787e-01,-2.09534782e-01,2.02636668e-01,5.83588151e-02,-5.74745179e-02,1.62412358e-01,5.27399015e-01,2.50680945e-01
7.52373484e-01,-5.04315350e-01,-8.45562484e-02,-1.34671884e+00,-2.57176147e-01,7.83546095e-01,-6.17923088e-02,-3.15323258e-01,2.84244760e-02,1.35147459e-01,4.62908933e-01,5.81027675e-01,3.72427659e-01
2.03921036e+00,1.15341397e-01,1.44358205e-01,-7.86402805e-01,7.13526121e-01,1.19309224e+00,2.02280399e-01,-1.47844904e-01,-1.03899625e-01,4.45477488e-01,6.08267357e-01,-1.77037227e-01,3.31879456e-02
2.18416450e+00,1.66112176e-01,3.09049188e-01,-6.55370564e-01,6.35891498e-01,9.08064536e-01,-4.71722975e-01,-5.01492891e-01,-3.12673577e-02,3.96445443e-01,1.85021789e-01,-1.40754129e-01,3.76811590e-01
1.57434682e+00,-2.53568965e-01,2.28651522e-01,-1.02676904e+00,-4.73591664e-02,5.07502509e-01,-3.14836947e-01,2.12264592e-01,-5.85898437e-02,4.55914431e-01,4.87903908e-02,2.28035385e-01,2.39100767e-01
2.44988750e+00,-3.20941118e-01,-1.99792077e-01,-7.26123762e-01,4.10062965e-01,5.43095385e-01,-1.97303771e-01,1.13328599e-01,-9.70841439e-02,8.87953231e-02,1.26588400e-01,-2.30783210e-01,1.03379451e-01
2.25476503e+00,-7.03955493e-01,4.69262242e-01,-4.15935632e-01,2.72288141e-01,6.34873847e-01,-1.06046263e-02,5.18953216e-02,9.54653253e-02,2.86977897e-01,4.26459814e-01,-3.69609821e-01,-4.64364821e-02
2.04101076e+00,-6.11257648e-01,3.73470846e-01,-8.51677515e-01,3.81780899e-01,7.61074483e-01,1.66766378e-02,-1.15085416e-01,-9.23662815e-02,1.44900717e-01,3.84003398e-01,3.12617536e-01,1.87199835e-01
2.16468933e+00,-4.70123668e-01,1.67511109e-01,-1.14539223e+00,2.42073115e-01,9.03411994e-01,6.19821129e-02,2.31650625e-01,-1.47125916e-01,1.74760273e-01,1.00921993e-01,-1.82735999e-02,3.63387185e-02
1.97411416e+00,-4.73604109e-01,5.76901787e-01,-1.17384987e+00,-3.29204363e-01,-5.76871045e-02,-3.05887402e-01,3.03805699e-01,6.25193404e-01,2.81624096e-01,-1.70028904e-02,-1.07296873e-01,2.14904051e-01
1.52586852e+00,-5.20885708e-01,1.33864952e-01,-6.64646375e-01,-2.24669314e-01,5.94140231e-02,-3.09048746e-01,4.18240248e-01,-7.27181494e-03,2.29797518e-01,1.38089605e-01,-6.37663796e-01,-2.64400201e-01
1.92809798e+00,-7.80145532e-01,6.49300812e-01,-3.98459711e-01,4.78030978e-01,9.25780329e-01,-1.81122978e-01,3.34315118e-01,-1.44784341e-01,-2.27902487e-01,-1.32829908e-01,-2.24696767e-01,1.70851992e-01
1.81736204e+00,-8.89824447e-01,2.39005522e-01,-8.43526031e-01,-1.91543214e-01,5.61331525e-01,-1.76940159e-01,-1.69703541e-01,-4.02440066e-01,-1.26487732e-01,2.85744364e-01,2.07335789e-01,3.27704984e-01
2.08518576e+00,-5.47412410e-01,1.07592835e-01,-8.15988872e-01,1.41563573e-01,7.39705213e-01,2.00427548e-01,4.06037233e-01,2.66510071e-01,3.04810967e-01,3.02845282e-01,-8.24605315e-02,2.85642758e-01
2.04601424e+00,-5.23280183e-01,4.05487018e-01,-5.52143309e-01,2.38005497e-01,7.74785526e-01,-7.78123111e-02,1.45991188e-01,-1.14757217e-02,-2.67079693e-01,-1.90867405e-01,2.14547858e-02,7.98751570e-02
2.22256788e+00,-6.54435322e-01,3.45246137e-03,-6.31812063e-01,-1.87481875e-01,5.46941601e-01,7.99839760e-02,7.69145030e-01,9.44633246e-01,4.03036526e-01,-8.70108096e-02,2.55273286e-01,4.79515761e-01
2.26387235e+00,-2.93863016e-01,2.31679235e-01,-6.25466389e-01,-1.54025378e-01,1.72547327e-01,-3.58882429e-01,3.74153559e-01,1.01943051e-02,2.94156482e-01,3.80023344e-01,2.31391584e-01,1.51979862e-01
2.07679962e+00,2.14307801e-01,6.96334362e-01,-4.98243580e-01,-4.53874198e-01,6.26544163e-03,-2.68686052e-01,-3.19062526e-01,-5.13812774e-01,-4.25795256e-01,-2.47991939e-01,-1.34805178e-01,2.31978803e-01
2.00690070e+00,1.89659872e-01,7.50892645e-01,2.24391311e-01,3.43625247e-01,4.24962811e-01,2.08285405e-01,4.04125546e-01,2.41692429e-01,-4.74201422e-01,-1.49626720e-01,-2.96774028e-02,-1.05944617e-01
2.14306196e+00,-4.74253116e-02,3.52887321e-01,4.83974746e-02,1.68737523e-01,-3.34957664e-01,9.37041722e-02,8.60719482e-02,-3.13470685e-01,-1.56994350e-01,2.97861426e-02,-5.91776576e-03,-1.28563061e-01
2.21164646e+00,1.45992089e-01,7.34332302e-01,2.49092251e-01,1.74874873e-01,1.13347778e-01,-3.95639874e-02,1.77714099e-01,-2.72956300e-01,-3.17778784e-01,8.93782037e-03,-5.42829566e-02,-1.26679559e-01
2.22961415e+00,7.00829427e-01,8.01746524e-01,-5.06509257e-02,-3.68011142e-02,-3.78871397e-02,-1.07538063e-01,6.46142515e-02,2.86064112e-01,-3.03214281e-01,1.48593940e-01,3.24368718e-01,4.42831698e-02
1.99679428e+00,1.78831775e-01,3.63854399e-02,-2.71521158e-01,7.00053479e-02,1.85206209e-01,2.43075632e-01,4.01020009e-01,3.24632289e-01,-4.50663719e-01,2.03082156e-01,2.66757263e-01,3.88450359e-01
2.15981301e+00,8.07237635e-02,-2.40517080e-01,-7.18496919e-01,3.84318061e-01,2.97412792e-02,3.77183499e-01,4.14720044e-01,-9.20348928e-02,-1.36136298e-01,2.28611500e-01,3.82129893e-01,5.30821139e-01
1.51047556e+00,-4.02928137e-01,-1.15377585e-01,-6.33005797e-01,3.99742758e-01,3.38416968e-01,3.99005587e-01,3.26446187e-01,-1.67672267e-01,-3.48170383e-01,6.60070154e-01,6.61380484e-01,4.40656147e-01
2.37135434e+00,1.13523443e-01,-1.96793537e-01,-3.60186384e-01,1.57865101e-01,2.25613446e-02,1.31692315e-02,1.45712772e-01,-8.90141535e-02,-3.78869406e-01,3.27778042e-01,3.57078722e-01,-3.47468726e-01
2.40720702e+00,6.61609456e-02,-2.35320990e-01,-8.93027091e-01,2.33510015e-01,3.10577608e-01,8.32455457e-02,3.63235337e-01,-8.05952542e-02,-2.87937759e-01,1.84453719e-01,1.36924685e-01,-3.26509468e-02
1.93839073e+00,-2.99755183e-01,-4.41488023e-01,-5.51776900e-01,1.51638339e-01,4.20460937e-01,4.94322424e-01,4.53927104e-01,2.03193097e-01,1.33249210e-01,3.07566709e-01,2.78491701e-01,3.55756108e-01
2.24338780e+00,-1.60574754e-01,2.56062804e-01,-3.82667715e-01,-3.22949632e-02,-8.80292363e-02,1.37100484e-01,-1.63195802e-02,2.84752123e-01,-1.07703428e-02,1.70441802e-01,1.33325909e-01,2.10529857e-02
2.15897281e+00,-1.26870793e-01,-2.93758651e-01,-4.29540803e-01,1.58504531e-01,3.16380992e-01,5.68183181e-01,1.25067982e-01,-2.93247509e-02,1.52373768e-01,3.39975277e-01,3.52759010e-02,2.06384645e-01
1.99290633e+00,-4.77249639e-01,2.20404131e-02,-5.12708862e-01,3.70246052e-01,1.23895053e+00,4.38726459e-01,3.98625330e-01,4.23708881e-02,1.67107185e-01,1.08138108e-01,-1.53293806e-01,6.49694738e-02
2.23015044e+00,-1.66589431e-01,1.83145981e-01,-5.96935416e-01,-3.19656758e-01,4.30121374e-01,2.17815894e-01,7.48160655e-01,-6.89346776e-02,-1.10512916e-01,2.78653372e-01,2.95072140e-02,3.68679824e-01
2.12177924e+00,-1.85494544e-01,-2.54646437e-01,-6.23035729e-01,-1.49918290e-01,1.78941841e-01,-2.64174655e-01,4.98703372e-01,4.45667347e-01,-2.51880716e-01,2.74257627e-01,2.49467052e-01,3.48390928e-01
2.39471087e+00,-4.84827479e-01,-3.20272925e-01,-4.47717498e-01,2.17698328e-01,5.56953028e-01,4.68573354e-01,5.53376014e-02,5.40349557e-02,-1.79681817e-01,6.12277022e-01,6.57121105e-01,1.73124322e-01
2.85566467e+00,-3.03665188e-01,-2.69749693e-01,-2.76791537e-01,1.92617628e-01,6.86141098e-01,1.40103200e-01,2.63178848e-01,1.77912818e-01,-3.31823926e-02,2.86071072e-01,4.34205760e-01,6.17618983e-02
2.57322063e+00,-3.60898876e-01,5.01470818e-01,-5.27903521e-01,3.13573270e-01,2.21613735e-01,-4.13708885e-02,3.37310760e-01,1.51904472e-01,5.16692442e-01,4.48319557e-01,3.80623767e-01,2.23548866e-01
2.23183156e+00,-8.64926481e-01,-2.25702752e-01,-7.04218916e-01,-2.95403771e-01,-1.52979060e-01,-8.52238900e-02,3.63813947e-01,-6.86890335e-02,-2.97298778e-02,3.68918335e-01,2.45568913e-01,2.83506374e-01
2.77620358e+00,8.29631884e-02,5.13253031e-02,-5.49751157e-01,5.37822863e-02,5.90325544e-03,-2.97734317e-01,-1.88971463e-01,-2.60423832e-02,1.47178121e-01,3.49874572e-01,4.12320391e-02,2.39401895e-01
2.57618005e+00,-7.94704536e-03,5.44341097e-01,1.36276689e-01,3.23821462e-01,3.28545465e-01,1.79241328e-01,-3.41844943e-02,-1.37617280e-01,2.55429369e-02,4.56796135e-01,4.04822778e-01,-1.97976580e-02
2.96056117e+00,-3.14081382e-01,-1.05854208e-01,-5.56431439e-01,3.12897593e-01,3.15981455e-01,1.63368332e-01,-3.05733047e-01,1.05956106e-02,5.05157999e-02,3.45998147e-01,2.05099240e-01,2.32636438e-01
2.71847282e+00,-2.35832940e-01,-1.82863356e-01,-5.06082761e-01,-8.82770593e-02,2.95914464e-01,2.81383242e-01,-5.19618837e-02,2.78445751e-02,-4.55744290e-01,6.20791572e-02,-1.21350044e-01,1.74471758e-01
2.31733648e+00,-2.45885457e-01,5.40265401e-01,-3.91329859e-01,2.99192317e-01,5.41909938e-01,2.18888055e-01,2.72316639e-01,1.77494138e-01,-2.44254752e-01,6.23517865e-03,5.33569001e-01,1.82276560e-01
3.02660637e+00,-2.11551778e-01,5.26192525e-01,8.67245964e-03,1.17346002e-02,2.77718772e-01,2.91065792e-01,-5.71418404e-02,2.28191848e-01,-1.18244809e-01,1.85950262e-02,7.77827819e-02,-3.28414875e-01
2.75448319e+00,-6.72835474e-01,2.41035157e-01,-3.54173693e-01,4.24561482e-02,3.97386913e-01,-1.85878795e-01,3.17030387e-01,2.03062849e-01,5.42272926e-02,2.43638736e-02,-3.49557165e-01,-5.43660359e-03
2.99446321e+00,-4.44799120e-01,-2.70669605e-02,-2.53753025e-01,2.88410997e-01,3.43776414e-01,-8.92400356e-02,3.23646679e-01,1.46527668e-01,1.89368755e-01,1.40229547e-01,2.30054911e-01,2.98789444e-01
2.97485181e+00,4.91964035e-02,1.01542700e-01,-8.30202039e-01,1.18755281e-01,6.86150486e-01,-1.25749936e-01,1.42745445e-02,2.14668570e-01,-8.80281944e-02,3.56746938e-01,5.80252934e-01,-1.72980331e-01
2.75614258e+00,-2.20245636e-01,-5.44656552e-02,-6.76670401e-01,-1.32260975e-01,4.07928113e-01,3.24391829e-02,-2.88263831e-01,1.41756620e-02,5.17162268e-01,6.39183491e-01,1.62339923e-01,1.44890845e-01
3.08274532e+00,-5.78111207e-01,-9.91709096e-02,-8.61473265e-01,1.48598277e-01,2.29071861e-01,-1.40779664e-01,1.07884165e-01,6.53530455e-02,-1.86698572e-01,7.60859650e-02,5.64502338e-01,-1.33319482e-01
3.10665764e+00,-3.49677577e-01,2.38218353e-01,-8.12131712e-01,2.96785092e-01,3.76957636e-01,-1.14779454e-01,3.06315080e-02,9.32525345e-02,2.96572720e-01,4.97691733e-02,-1.93907134e-02,3.87824043e-01
2.61448346e+00,-5.08897772e-01,3.00487845e-01,-5.91661293e-01,2.84062021e-01,6.77252624e-01,-1.14898712e-01,7.93417209e-02,5.30508993e-01,-4.29338978e-03,-1.97715604e-01,-2.46598726e-01,5.71833380e-02
2.99783401e+00,9.99007235e-03,-5.29278479e-03,-8.89645091e-01,9.26771847e-02,5.90395821e-01,-7.76033467e-02,2.16756448e-01,4.61209689e-01,-9.52544624e-02,-9.60205843e-02,-1.10105011e-01,1.79013294e-01
2.53551480e+00,-7.00398861e-01,3.14681028e-01,-5.25236079e-01,2.15624117e-02,3.60623020e-01,-1.25919060e-01,-7.67248336e-03,3.93500626e-01,-7.58857021e-04,-1.31586591e-01,-1.45799896e-01,-1.39347203e-02
2.67908687e+00,-7.21736138e-01,1.02939377e-01,-3.62744839e-01,3.01298466e-01,3.96912708e-01,-1.09180569e-01,9.64225377e-02,5.67426281e-01,3.28470259e-01,-1.30388080e-01,-1.32304369e-01,1.47149350e-01
3.10896386e+00,-4.10461856e-01,2.14898797e-01,-7.07243877e-01,2.25729790e-01,3.86533275e-01,-1.68256579e-01,6.98250064e-02,6.08152987e-01,2.93937457e-01,-3.74174969e-01,-2.86945773e-02,4.82332496e-04
2.90870934e+00,-8.53912690e-01,7.67569287e-02,-6.49963905e-01,1.13030760e-01,3.36171511e-01,-1.19998112e-01,-1.95768903e-01,3.58539591e-01,1.35946667e-01,-9.76775506e-02,2.31537968e-01,5.68030560e-01
3.14822813e+00,-3.82729272e-01,5.24333298e-03,-3.47581566e-01,-9.03047770e-03,-3.69282901e-02,-1.81936039e-01,2.12289629e-02,2.42421217e-01,2.37052696e-01,7.14136559e-02,-2.50524019e-01,2.42282167e-01
2.64935893e+00,-6.05653851e-01,2.34310997e-01,-5.00730043e-02,4.57181868e-01,-1.42922180e-01,-6.98780946e-01,-7.25176258e-02,6.04356480e-01,1.28688412e-01,-7.09303576e-02,2.63713271e-01,5.32406504e-01
2.87727024e+00,-5.66935329e-01,8.15365813e-03,-3.50313531e-01,3.89940545e-02,-1.63026498e-01,-4.29222873e-01,5.88394547e-01,5.05984259e-01,4.52499331e-02,-2.91208206e-01,-1.45993302e-01,5.10495103e-01
2.38780127e+00,-1.00745698e+00,4.28843212e-01,3.27365791e-02,4.90985343e-01,5.54564488e-01,3.34017366e-01,8.22978164e-02,2.03915694e-01,-4.89642191e-02,-3.19962066e-01,6.34477133e-02,3.11878981e-01
2.67938327e+00,-4.61911908e-01,3.45124522e-01,1.24988125e-02,5.94088166e-01,2.48538725e-01,-6.14448771e-02,2.16124177e-02,-3.02595156e-01,-6.03231998e-02,-2.09514288e-02,5.98385198e-02,2.42891464e-01
2.42708207e+00,-3.71099573e-01,3.81275316e-01,-2.63758879e-01,2.07462072e-01,2.84511914e-01,-1.03786596e-01,4.26360911e-01,2.31583781e-01,3.90225518e-01,2.62746850e-01,1.20408139e-01,2.45189892e-01
2.50726214e+00,-9.58970204e-01,7.24468064e-02,-3.99261869e-01,1.71276233e-01,3.41915088e-01,1.23412770e-01,1.92379439e-02,-3.52346545e-01,-9.44823618e-02,-7.67614097e-02,-1.15048584e-01,2.65196417e-01
2.74715590e+00,-1.09188065e+00,2.02642124e-01,-1.24332459e-01,4.77240998e-01,3.87887483e-01,1.10893702e-01,3.06884696e-01,-3.94030420e-02,2.64548872e-02,-5.91744974e-01,-3.62456449e-02,2.65442498e-01
2.22246269e+00,-1.08382992e+00,4.19630203e-01,-2.92208022e-01,4.02635417e-01,5.51517273e-01,2.05699348e-01,6.21755638e-01,3.40276331e-01,-8.20043111e-02,-1.51620460e-01,-2.71367401e-01,1.39333490e-01
2.46148738e+00,-7.92922325e-01,1.63847507e-01,-2.61852462e-01,3.80868751e-01,5.31700401e-01,-8.45763116e-02,2.24850716e-01,1.16492085e-01,2.35839670e-02,9.97269584e-02,5.66160969e-02,4.92153152e-01
2.42274433e+00,-1.15115389e+00,6.11454658e-01,-5.74251788e-01,4.57093517e-01,6.62586211e-01,5.69862900e-01,5.55906747e-01,4.32271611e-01,4.89791178e-01,3.28020338e-01,1.17051831e-03,-2.19196481e-02
2.58797226e+00,-6.04396191e-01,5.51355775e-01,-3.25916031e-01,1.35706598e-01,3.34757312e-01,3.09034190e-01,4.75849223e-01,-2.98187701e-01,-1.31161648e-01,-2.06207559e-01,1.66807796e-01,3.81592299e-01
2.65411579e+00,-6.85084576e-01,4.90858346e-01,-9.80426727e-02,8.08358918e-02,-1.73924491e-01,-2.29824890e-01,4.79020239e-01,3.74036325e-01,5.34263611e-01,-4.60701036e-02,-6.54575743e-02,-9.08346071e-02
2.86301287e+00,-7.62039172e-01,2.72086277e-01,-5.47558673e-01,-1.51274670e-01,2.37104483e-01,-1.81289235e-01,1.89395166e-01,4.68208940e-02,1.65165318e-01,3.66582533e-01,3.14688244e-01,3.86998950e-01
2.69714842e+00,-1.08656886e+00,3.03215206e-01,-2.78018414e-01,3.92333357e-01,3.33354537e-01,-5.22675045e-02,6.30821421e-01,1.18686637e-01,1.19665664e-01,-4.39953524e-02,2.13144062e-02,4.11702175e-01
2.59244337e+00,-8.56116889e-01,3.63309281e-01,-4.93133565e-01,-2.16335085e-02,2.54176810e-02,-1.02838934e-01,3.67258452e-01,-9.42061230e-02,7.82213094e-02,2.37150074e-01,-7.99342489e-02,5.44168626e-02
2.91871921e+00,-5.24117741e-01,6.48018775e-01,-3.55038466e-01,3.43249644e-01,7.35134217e-02,-7.57350968e-02,1.15806403e-01,1.18169543e-01,-6.17613981e-02,9.10187424e-02,3.35700274e-01,2.70881539e-01
2.48697601e+00,-7.35882942e-01,9.31845191e-01,1.67793154e-01,4.10255473e-01,5.92391796e-01,-9.82355852e-02,-3.57514667e-02,-8.20826785e-01,-3.73015041e-01,2.53218961e-01,1.49981850e-01,2.94611255e-01
2.40645381e+00,-5.52064173e-01,1.48388848e+00,2.01740639e-01,1.61998233e-01,9.23903592e-02,-6.86197826e-01,-1.57481217e-01,3.51270670e-02,5.47876681e-01,4.41983839e-01,3.27718368e-01,4.39493203e-01
2.71042878e+00,-6.41052499e-01,9.02178949e-01,3.61833382e-02,-1.29719383e-01,-2.90058993e-01,-6.07657686e-01,-1.37943640e-02,4.74376918e-02,-1.57638269e-01,-3.18053481e-01,-2.60284332e-01,2.94639640e-01
2.61286099e+00,-4.59237128e-01,1.11891717e+00,4.22224360e-01,-1.91405382e-01,-5.30385238e-01,-4.03294033e-01,6.12924806e-01,9.81512869e-02,-1.19931715e-01,-6.19542426e-03,5.33160670e-02,5.30708577e-01
2.94463034e+00,-5.91534015e-02,9.66471788e-01,-3.45280262e-03,-2.48482668e-01,-2.11725721e-01,-2.97086972e-01,3.35254203e-01,4.41423475e-01,-3.27400796e-01,-3.79535966e-01,-5.46109829e-03,2.60884326e-01
3.01936981e+00,-1.09679117e+00,6.17621229e-01,-3.35665554e-01,-3.15619948e-01,2.32699844e-01,-8.85748328e-02,6.30374051e-01,1.49182507e-01,6.53410005e-02,-2.57907968e-01,-2.09200073e-01,3.75692152e-01
2.83864561e+00,-6.80405780e-01,4.72642975e-01,2.13907714e-01,-1.96131608e-01,-2.18390768e-02,2.13819587e-01,7.34168888e-01,-3.96429015e-02,-5.28550619e-01,-9.52785407e-02,-2.67908408e-01,-8.61676495e-02
2.43768727e+00,-5.63892042e-01,-1.00560182e-01,-5.33860473e-01,-4.66797948e-02,2.41889600e-01,1.75274847e-01,6.02463297e-01,2.62236818e-01,2.54752244e-01,-2.38262652e-01,-1.47398665e-01,2.62024249e-01
2.89607621e+00,-3.10122033e-01,1.13866873e+00,1.15104695e-01,-1.70543468e-02,-6.42478882e-02,1.23742041e-01,7.69550687e-01,2.48089260e-01,-1.90189767e-02,-2.42433771e-01,-1.52920688e-01,2.01832007e-01
2.91296333e+00,-1.29833768e-01,3.36149253e-01,2.37520716e-01,1.95019696e-01,-2.29133780e-01,2.15675765e-01,2.79240236e-01,1.15000929e-01,-5.04909776e-01,3.37118854e-02,-2.61431101e-01,2.60117721e-01
2.80242208e+00,-2.35837546e-01,2.06581533e-01,-1.57557617e-01,1.82248344e-01,-4.07497672e-01,1.43390998e-01,3.08451279e-01,2.63591596e-01,1.36797696e-02,5.91925461e-02,-2.26141547e-01,5.68138994e-01
2.71516207e+00,-6.49084977e-01,5.46710776e-01,3.74888275e-01,2.28653929e-01,9.22872851e-02,-5.14881103e-02,8.65940750e-02,1.83692156e-01,-2.00112364e-02,1.07828156e-01,-1.42216502e-01,4.17097267e-03
2.55005776e+00,-3.43251169e-01,6.31422003e-01,1.08948056e-02,-2.03978308e-01,8.14104967e-02,5.32043709e-01,7.79141265e-01,2.83082579e-01,-2.06981854e-01,-8.15782748e-02,1.67268397e-01,3.82237302e-01
2.72450928e+00,9.93203654e-02,7.26811440e-01,5.43255142e-01,-5.92332558e-02,-4.67422943e-01,-2.23173086e-01,2.94987546e-01,5.30225581e-01,-1.85098975e-01,-1.58795997e-01,-3.35703351e-01,7.67944233e-02
2.77733358e+00,-4.66997948e-01,4.24131058e-01,1.46914694e-01,1.61213698e-01,3.92063557e-01,5.54551525e-01,4.69664113e-01,4.86084814e-01,2.81020538e-02,-5.63757183e-02,-1.24965690e-01,1.33308370e-01
3.01708668e+00,-1.50171811e-01,6.35581380e-01,-1.17280551e-01,-4.06127822e-02,5.43682719e-02,-6.50199504e-02,6.95676400e-01,3.35189100e-01,-8.55706032e-02,1.24738017e-02,-1.13952231e-01,8.51084326e-02
2.90628570e+00,-1.32492994e-01,6.36576214e-01,-1.02609391e-01,-2.78267648e-01,3.12405081e-02,-3.06859013e-01,-2.53759475e-03,7.37825315e-01,-3.99787815e-02,-1.85055249e-02,-2.63061234e-02,2.63548429e-01
2.55778373e+00,-3.82343172e-01,8.81312955e-01,-8.34012787e-03,1.47292243e-01,2.26163755e-01,2.70161316e-01,1.05439888e+00,5.35978573e-01,4.17210342e-01,2.12071647e-01,-1.04869260e-02,3.69941478e-01
3.03282739e+00,-1.39418413e-01,4.81067885e-01,-2.90142149e-01,1.92696253e-01,-2.14969318e-01,-2.92536907e-01,4.03580985e-01,7.32588397e-01,-1.13063062e-01,4.85450384e-02,-1.49134985e-01,-2.58111874e-02
2.73898052e+00,-2.97530971e-01,8.84433256e-01,3.86405070e-01,-2.85475636e-02,-8.71303306e-02,6.71569590e-02,7.52185847e-01,-8.20454703e-02,-1.27706917e-01,5.87626740e-01,-5.54487916e-02,1.06446512e-01
3.26644411e+00,-2.83667431e-01,9.30140537e-01,1.10317438e-01,-2.41937248e-01,1.50906923e-01,6.54630786e-02,6.13092336e-01,1.23021691e-01,1.90575388e-01,1.05592088e-01,3.81359765e-02,4.82735019e-02
3.19399021e+00,-5.46398276e-01,9.86287385e-01,1.59415967e-01,-1.04993272e-01,-1.36455471e-01,3.01026590e-01,5.30670628e-01,3.70969450e-01,-1.31005921e-01,-3.81934269e-02,2.11099684e-01,2.71183824e-01
3.34433349e+00,3.11392980e-02,4.84568669e-01,-4.21164060e-01,2.10148553e-01,1.61809518e-01,2.53801533e-01,2.63998925e-01,7.30283963e-02,-8.39176409e-02,1.07328895e-01,5.03265071e-01,3.47776211e-01
2.89030223e+00,-3.90686423e-02,8.92586485e-01,2.09961164e-01,2.24744268e-01,-1.76395821e-01,-2.55113188e-01,5.01284298e-03,1.46922155e-01,9.36458160e-03,-3.47302110e-01,2.04758946e-01,2.59242384e-01
2.98235100e+00,-5.39494709e-01,4.68726142e-01,-2.04124722e-01,2.20765112e-01,2.97115306e-01,5.58869607e-01,6.11681850e-01,2.33247739e-01,-4.36411359e-02,3.40101969e-02,1.76110058e-01,-9.72887565e-02
3.32798402e+00,-2.11504619e-01,5.29120830e-01,-8.05241447e-02,-1.34479707e-01,9.91307164e-02,2.58456020e-01,-1.93964488e-01,-6.45809304e-01,-1.25169925e-01,2.53064938e-02,1.47563988e-01,-1.95547166e-02
3.02700021e+00,-5.46960535e-01,9.47209912e-01,6.25593369e-01,3.00939622e-02,-1.75705063e-01,6.23681639e-01,7.03389217e-01,1.38219752e-01,2.20915185e-02,-1.13407582e-01,3.32373853e-01,7.27670822e-01
2.94289604e+00,-6.51651285e-01,6.27985529e-01,6.44261576e-01,7.84541771e-01,2.61373671e-01,2.43931437e-01,-1.82870674e-01,-2.56078045e-01,-2.51902394e-01,-1.55254062e-01,3.49281063e-01,3.54911973e-01
3.12109070e+00,-4.76991089e-01,8.25999309e-01,3.99057997e-01,2.95029743e-01,2.31052910e-01,3.51409045e-01,1.76911317e-02,-7.56244684e-02,8.79094649e-02,8.49698570e-03,6.60617045e-01,3.70911735e-01
3.53945478e+00,-1.10290963e-01,1.05956727e+00,-8.60493174e-02,-2.79239498e-01,-9.69087025e-02,3.58335440e-01,1.64686174e-01,3.12460739e-01,3.34021086e-01,-2.98100271e-01,4.45066099e-01,1.43787068e-01
3.64557036e+00,-2.07190756e-01,5.48409449e-01,4.62075404e-02,4.29706133e-01,2.04527197e-01,6.76196814e-01,1.70759865e-01,-2.51400461e-01,-3.75593342e-01,-5.32203270e-01,3.44824447e-01,9.37139786e-02
3.46444807e+00,-6.58192419e-01,2.52530316e-01,3.51985557e-01,1.97527379e-01,2.30862435e-01,8.69698060e-01,8.62785000e-01,7.27904196e-02,-1.38142720e-02,3.16289623e-01,3.32111115e-01,1.88172226e-01
3.56437510e+00,-2.14200677e-01,3.23087151e-01,-2.35223483e-01,-3.76419703e-01,3.63835627e-01,-9.52852966e-02,-3.82481609e-02,-3.52378645e-01,-2.76163535e-01,-4.73303630e-01,1.60754803e-02,2.45687497e-01
3.35659089e+00,-3.19811127e-01,6.85561907e-01,1.55159913e-01,2.80612061e-01,7.38663887e-01,9.55729750e-01,4.01146051e-01,-1.41581481e-01,-3.69774469e-01,-2.59379813e-01,3.24572159e-01,1.11786295e-01
3.65800003e+00,-1.77793896e-01,4.97944767e-01,-6.07461999e-02,2.47103424e-02,4.73815672e-01,1.98888140e-01,3.32871900e-01,-5.11024946e-02,1.13625265e-01,-3.08910511e-01,-1.28468778e-01,1.17481037e-01
3.43804595e+00,-1.33172848e-01,8.42395879e-01,5.34652862e-01,7.29701801e-01,1.70825427e-01,2.39279365e-01,9.26814899e-02,-2.30106675e-01,-1.63775761e-01,5.81826042e-02,4.03882040e-01,4.72699091e-02
3.20545414e+00,-1.56408261e-01,2.57825886e-01,2.80902801e-01,8.35983801e-01,6.97467284e-01,5.73081920e-01,3.71421917e-01,1.95132681e-01,2.09257075e-01,-1.07567020e-01,8.06357692e-02,2.25384854e-01
